{"learner":{"attributes":{"best_iteration":"499","best_ntree_limit":"500"},"feature_names":[],"feature_types":[],"gradient_booster":{"model":{"gbtree_model_param":{"num_parallel_tree":"1","num_trees":"1000","size_leaf_vector":"0"},"tree_info":[0,1,0,1,0,1,0,1,0,1,0,1,0,1,0,1,0,1,0,1,0,1,0,1,0,1,0,1,0,1,0,1,0,1,0,1,0,1,0,1,0,1,0,1,0,1,0,1,0,1,0,1,0,1,0,1,0,1,0,1,0,1,0,1,0,1,0,1,0,1,0,1,0,1,0,1,0,1,0,1,0,1,0,1,0,1,0,1,0,1,0,1,0,1,0,1,0,1,0,1,0,1,0,1,0,1,0,1,0,1,0,1,0,1,0,1,0,1,0,1,0,1,0,1,0,1,0,1,0,1,0,1,0,1,0,1,0,1,0,1,0,1,0,1,0,1,0,1,0,1,0,1,0,1,0,1,0,1,0,1,0,1,0,1,0,1,0,1,0,1,0,1,0,1,0,1,0,1,0,1,0,1,0,1,0,1,0,1,0,1,0,1,0,1,0,1,0,1,0,1,0,1,0,1,0,1,0,1,0,1,0,1,0,1,0,1,0,1,0,1,0,1,0,1,0,1,0,1,0,1,0,1,0,1,0,1,0,1,0,1,0,1,0,1,0,1,0,1,0,1,0,1,0,1,0,1,0,1,0,1,0,1,0,1,0,1,0,1,0,1,0,1,0,1,0,1,0,1,0,1,0,1,0,1,0,1,0,1,0,1,0,1,0,1,0,1,0,1,0,1,0,1,0,1,0,1,0,1,0,1,0,1,0,1,0,1,0,1,0,1,0,1,0,1,0,1,0,1,0,1,0,1,0,1,0,1,0,1,0,1,0,1,0,1,0,1,0,1,0,1,0,1,0,1,0,1,0,1,0,1,0,1,0,1,0,1,0,1,0,1,0,1,0,1,0,1,0,1,0,1,0,1,0,1,0,1,0,1,0,1,0,1,0,1,0,1,0,1,0,1,0,1,0,1,0,1,0,1,0,1,0,1,0,1,0,1,0,1,0,1,0,1,0,1,0,1,0,1,0,1,0,1,0,1,0,1,0,1,0,1,0,1,0,1,0,1,0,1,0,1,0,1,0,1,0,1,0,1,0,1,0,1,0,1,0,1,0,1,0,1,0,1,0,1,0,1,0,1,0,1,0,1,0,1,0,1,0,1,0,1,0,1,0,1,0,1,0,1,0,1,0,1,0,1,0,1,0,1,0,1,0,1,0,1,0,1,0,1,0,1,0,1,0,1,0,1,0,1,0,1,0,1,0,1,0,1,0,1,0,1,0,1,0,1,0,1,0,1,0,1,0,1,0,1,0,1,0,1,0,1,0,1,0,1,0,1,0,1,0,1,0,1,0,1,0,1,0,1,0,1,0,1,0,1,0,1,0,1,0,1,0,1,0,1,0,1,0,1,0,1,0,1,0,1,0,1,0,1,0,1,0,1,0,1,0,1,0,1,0,1,0,1,0,1,0,1,0,1,0,1,0,1,0,1,0,1,0,1,0,1,0,1,0,1,0,1,0,1,0,1,0,1,0,1,0,1,0,1,0,1,0,1,0,1,0,1,0,1,0,1,0,1,0,1,0,1,0,1,0,1,0,1,0,1,0,1,0,1,0,1,0,1,0,1,0,1,0,1,0,1,0,1,0,1,0,1,0,1,0,1,0,1,0,1,0,1,0,1,0,1,0,1,0,1,0,1,0,1,0,1,0,1,0,1,0,1,0,1,0,1,0,1,0,1,0,1,0,1,0,1,0,1,0,1,0,1,0,1,0,1,0,1,0,1,0,1,0,1,0,1,0,1,0,1,0,1,0,1,0,1,0,1,0,1,0,1,0,1,0,1,0,1,0,1,0,1,0,1,0,1,0,1,0,1,0,1,0,1,0,1,0,1,0,1,0,1,0,1,0,1,0,1,0,1,0,1,0,1,0,1,0,1,0,1,0,1,0,1,0,1,0,1,0,1,0,1,0,1,0,1,0,1,0,1,0,1,0,1,0,1,0,1,0,1,0,1,0,1,0,1,0,1,0,1,0,1,0,1,0,1,0,1,0,1,0,1,0,1,0,1,0,1,0,1,0,1,0,1,0,1,0,1,0,1,0,1,0,1,0,1,0,1,0,1,0,1,0,1,0,1,0,1,0,1,0,1,0,1,0,1,0,1,0,1,0,1,0,1,0,1,0,1,0,1,0,1,0,1,0,1,0,1,0,1,0,1,0,1,0,1,0,1,0,1,0,1,0,1,0,1,0,1,0,1,0,1,0,1,0,1,0,1,0,1,0,1,0,1,0,1,0,1,0,1,0,1,0,1,0,1],"trees":[{"base_weights":[-1.520444E-1,-3.644643E-1,5.4375805E-2,-2.0405494E-1,-5.2866244E-1,-2.0037106E-1,1.895618E-1],"categories":[],"categories_nodes":[],"categories_segments":[],"categories_sizes":[],"default_left":[1,1,1,0,0,0,0],"id":0,"left_children":[1,3,5,-1,-1,-1,-1],"loss_changes":[2.6865314E2,7.9422455E1,1.0707193E2,0E0,0E0,0E0,0E0],"parents":[2147483647,0,0,1,1,2,2],"right_children":[2,4,6,-1,-1,-1,-1],"split_conditions":[1.45E1,1.25E1,-1.55E0,-2.0405494E-3,-5.286624E-3,-2.0037105E-3,1.8956179E-3],"split_indices":[51,80,77,0,0,0,0],"split_type":[0,0,0,0,0,0,0],"sum_hessian":[6.1255E3,3.0185E3,3.107E3,1.528E3,1.4905E3,1.077E3,2.03E3],"tree_param":{"num_deleted":"0","num_feature":"104","num_nodes":"7","size_leaf_vector":"0"}},{"base_weights":[1.520444E-1,3.644643E-1,-5.4375805E-2,2.0405494E-1,5.2866244E-1,2.0037106E-1,-1.895618E-1],"categories":[],"categories_nodes":[],"categories_segments":[],"categories_sizes":[],"default_left":[1,1,1,0,0,0,0],"id":1,"left_children":[1,3,5,-1,-1,-1,-1],"loss_changes":[2.6865314E2,7.9422455E1,1.0707193E2,0E0,0E0,0E0,0E0],"parents":[2147483647,0,0,1,1,2,2],"right_children":[2,4,6,-1,-1,-1,-1],"split_conditions":[1.45E1,1.25E1,-1.55E0,2.0405494E-3,5.286624E-3,2.0037105E-3,-1.8956179E-3],"split_indices":[51,80,77,0,0,0,0],"split_type":[0,0,0,0,0,0,0],"sum_hessian":[6.1255E3,3.0185E3,3.107E3,1.528E3,1.4905E3,1.077E3,2.03E3],"tree_param":{"num_deleted":"0","num_feature":"104","num_nodes":"7","size_leaf_vector":"0"}},{"base_weights":[-1.5052666E-1,-3.6082783E-1,5.3832166E-2,-2.0201652E-1,-5.23394E-1,-2.1386264E-1,1.7998934E-1],"categories":[],"categories_nodes":[],"categories_segments":[],"categories_sizes":[],"default_left":[1,1,1,0,0,0,0],"id":2,"left_children":[1,3,5,-1,-1,-1,-1],"loss_changes":[2.6331485E2,7.784848E1,1.0500029E2,0E0,0E0,0E0,0E0],"parents":[2147483647,0,0,1,1,2,2],"right_children":[2,4,6,-1,-1,-1,-1],"split_conditions":[1.45E1,1.25E1,-1.95E0,-2.020165E-3,-5.2339397E-3,-2.1386263E-3,1.7998933E-3],"split_indices":[51,80,77,0,0,0,0],"split_type":[0,0,0,0,0,0,0],"sum_hessian":[6.1254404E3,3.0184521E3,3.1069885E3,1.5279938E3,1.4904584E3,9.9499603E2,2.1119924E3],"tree_param":{"num_deleted":"0","num_feature":"104","num_nodes":"7","size_leaf_vector":"0"}},{"base_weights":[1.5052664E-1,3.608279E-1,-5.383223E-2,2.020166E-1,5.23394E-1,2.1386252E-1,-1.7998937E-1],"categories":[],"categories_nodes":[],"categories_segments":[],"categories_sizes":[],"default_left":[1,1,1,0,0,0,0],"id":3,"left_children":[1,3,5,-1,-1,-1,-1],"loss_changes":[2.6331497E2,7.784845E1,1.05000244E2,0E0,0E0,0E0,0E0],"parents":[2147483647,0,0,1,1,2,2],"right_children":[2,4,6,-1,-1,-1,-1],"split_conditions":[1.45E1,1.25E1,-1.95E0,2.020166E-3,5.2339397E-3,2.1386251E-3,-1.7998937E-3],"split_indices":[51,80,77,0,0,0,0],"split_type":[0,0,0,0,0,0,0],"sum_hessian":[6.1254404E3,3.018452E3,3.1069885E3,1.5279937E3,1.4904584E3,9.9499603E2,2.1119924E3],"tree_param":{"num_deleted":"0","num_feature":"104","num_nodes":"7","size_leaf_vector":"0"}},{"base_weights":[-1.4902693E-1,-3.572389E-1,5.329435E-2,-2.0000017E-1,-5.182066E-1,-1.9653532E-1,1.8587066E-1],"categories":[],"categories_nodes":[],"categories_segments":[],"categories_sizes":[],"default_left":[1,1,1,0,0,0,0],"id":4,"left_children":[1,3,5,-1,-1,-1,-1],"loss_changes":[2.580923E2,7.631616E1,1.02976654E2,0E0,0E0,0E0,0E0],"parents":[2147483647,0,0,1,1,2,2],"right_children":[2,4,6,-1,-1,-1,-1],"split_conditions":[1.45E1,1.25E1,-1.55E0,-2.0000017E-3,-5.182066E-3,-1.965353E-3,1.8587066E-3],"split_indices":[51,80,77,0,0,0,0],"split_type":[0,0,0,0,0,0,0],"sum_hessian":[6.125265E3,3.01831E3,3.1069553E3,1.5279749E3,1.4903351E3,1.0769829E3,2.0299723E3],"tree_param":{"num_deleted":"0","num_feature":"104","num_nodes":"7","size_leaf_vector":"0"}},{"base_weights":[1.490269E-1,3.5723886E-1,-5.3294368E-2,2.0000015E-1,5.182066E-1,1.9653532E-1,-1.8587068E-1],"categories":[],"categories_nodes":[],"categories_segments":[],"categories_sizes":[],"default_left":[1,1,1,0,0,0,0],"id":5,"left_children":[1,3,5,-1,-1,-1,-1],"loss_changes":[2.580923E2,7.631613E1,1.0297668E2,0E0,0E0,0E0,0E0],"parents":[2147483647,0,0,1,1,2,2],"right_children":[2,4,6,-1,-1,-1,-1],"split_conditions":[1.45E1,1.25E1,-1.55E0,2.0000015E-3,5.182066E-3,1.965353E-3,-1.8587067E-3],"split_indices":[51,80,77,0,0,0,0],"split_type":[0,0,0,0,0,0,0],"sum_hessian":[6.125265E3,3.0183098E3,3.1069553E3,1.5279747E3,1.4903351E3,1.0769829E3,2.0299724E3],"tree_param":{"num_deleted":"0","num_feature":"104","num_nodes":"7","size_leaf_vector":"0"}},{"base_weights":[-1.4754488E-1,-3.5369644E-1,5.276237E-2,-1.9800554E-1,-5.1309806E-1,-1.13637574E-1,2.4822596E-1],"categories":[],"categories_nodes":[],"categories_segments":[],"categories_sizes":[],"default_left":[1,1,1,0,0,0,0],"id":6,"left_children":[1,3,5,-1,-1,-1,-1],"loss_changes":[2.5298257E2,7.482391E1,1.01113045E2,0E0,0E0,0E0,0E0],"parents":[2147483647,0,0,1,1,2,2],"right_children":[2,4,6,-1,-1,-1,-1],"split_conditions":[1.45E1,1.25E1,5.245E-1,-1.9800554E-3,-5.1309806E-3,-1.1363757E-3,2.4822594E-3],"split_indices":[51,80,55,0,0,0,0],"split_type":[0,0,0,0,0,0,0],"sum_hessian":[6.124976E3,3.0180762E3,3.1068997E3,1.5279438E3,1.4901324E3,1.6784438E3,1.4284559E3],"tree_param":{"num_deleted":"0","num_feature":"104","num_nodes":"7","size_leaf_vector":"0"}},{"base_weights":[1.475449E-1,3.536964E-1,-5.2762277E-2,1.9800557E-1,5.1309794E-1,1.1363763E-1,-2.4822585E-1],"categories":[],"categories_nodes":[],"categories_segments":[],"categories_sizes":[],"default_left":[1,1,1,0,0,0,0],"id":7,"left_children":[1,3,5,-1,-1,-1,-1],"loss_changes":[2.5298239E2,7.4823944E1,1.0111302E2,0E0,0E0,0E0,0E0],"parents":[2147483647,0,0,1,1,2,2],"right_children":[2,4,6,-1,-1,-1,-1],"split_conditions":[1.45E1,1.25E1,5.245E-1,1.9800556E-3,5.130979E-3,1.1363763E-3,-2.4822585E-3],"split_indices":[51,80,55,0,0,0,0],"split_type":[0,0,0,0,0,0,0],"sum_hessian":[6.124976E3,3.0180764E3,3.1069E3,1.5279438E3,1.4901326E3,1.6784438E3,1.4284559E3],"tree_param":{"num_deleted":"0","num_feature":"104","num_nodes":"7","size_leaf_vector":"0"}},{"base_weights":[-1.4607945E-1,-3.5019934E-1,5.2236088E-2,-1.9603223E-1,-5.0806606E-1,-2.0870483E-1,1.7521016E-1],"categories":[],"categories_nodes":[],"categories_segments":[],"categories_sizes":[],"default_left":[1,1,1,0,0,0,0],"id":8,"left_children":[1,3,5,-1,-1,-1,-1],"loss_changes":[2.4798347E2,7.337036E1,9.976411E1,0E0,0E0,0E0,0E0],"parents":[2147483647,0,0,1,1,2,2],"right_children":[2,4,6,-1,-1,-1,-1],"split_conditions":[1.45E1,1.25E1,-1.95E0,-1.9603223E-3,-5.0806603E-3,-2.0870483E-3,1.7521016E-3],"split_indices":[51,80,77,0,0,0,0],"split_type":[0,0,0,0,0,0,0],"sum_hessian":[6.124599E3,3.0177544E3,3.1068447E3,1.5279012E3,1.4898533E3,9.949485E2,2.1118962E3],"tree_param":{"num_deleted":"0","num_feature":"104","num_nodes":"7","size_leaf_vector":"0"}},{"base_weights":[1.4607947E-1,3.5019934E-1,-5.2236058E-2,1.960322E-1,5.0806606E-1,2.0870484E-1,-1.7521013E-1],"categories":[],"categories_nodes":[],"categories_segments":[],"categories_sizes":[],"default_left":[1,1,1,0,0,0,0],"id":9,"left_children":[1,3,5,-1,-1,-1,-1],"loss_changes":[2.4798337E2,7.337042E1,9.97641E1,0E0,0E0,0E0,0E0],"parents":[2147483647,0,0,1,1,2,2],"right_children":[2,4,6,-1,-1,-1,-1],"split_conditions":[1.45E1,1.25E1,-1.95E0,1.960322E-3,5.0806603E-3,2.0870485E-3,-1.7521014E-3],"split_indices":[51,80,77,0,0,0,0],"split_type":[0,0,0,0,0,0,0],"sum_hessian":[6.124599E3,3.0177544E3,3.106845E3,1.5279011E3,1.4898533E3,9.9494855E2,2.1118965E3],"tree_param":{"num_deleted":"0","num_feature":"104","num_nodes":"7","size_leaf_vector":"0"}},{"base_weights":[-1.4463179E-1,-3.467469E-1,5.1715076E-2,-2.0213312E-1,-5.118779E-1,-1.1202438E-1,2.4405983E-1],"categories":[],"categories_nodes":[],"categories_segments":[],"categories_sizes":[],"default_left":[1,1,1,0,0,0,0],"id":10,"left_children":[1,3,5,-1,-1,-1,-1],"loss_changes":[2.4309059E2,7.197528E1,9.790433E1,0E0,0E0,0E0,0E0],"parents":[2147483647,0,0,1,1,2,2],"right_children":[2,4,6,-1,-1,-1,-1],"split_conditions":[1.45E1,1.35E1,5.245E-1,-2.021331E-3,-5.118779E-3,-1.1202438E-3,2.4405983E-3],"split_indices":[51,80,55,0,0,0,0],"split_type":[0,0,0,0,0,0,0],"sum_hessian":[6.1241025E3,3.0173467E3,3.1067559E3,1.6097921E3,1.4075546E3,1.6783909E3,1.4283649E3],"tree_param":{"num_deleted":"0","num_feature":"104","num_nodes":"7","size_leaf_vector":"0"}},{"base_weights":[1.4463174E-1,3.4674683E-1,-5.1715113E-2,2.02133E-1,5.118779E-1,1.1202434E-1,-2.4405985E-1],"categories":[],"categories_nodes":[],"categories_segments":[],"categories_sizes":[],"default_left":[1,1,1,0,0,0,0],"id":11,"left_children":[1,3,5,-1,-1,-1,-1],"loss_changes":[2.4309058E2,7.197534E1,9.790432E1,0E0,0E0,0E0,0E0],"parents":[2147483647,0,0,1,1,2,2],"right_children":[2,4,6,-1,-1,-1,-1],"split_conditions":[1.45E1,1.35E1,5.245E-1,2.02133E-3,5.118779E-3,1.1202433E-3,-2.4405983E-3],"split_indices":[51,80,55,0,0,0,0],"split_type":[0,0,0,0,0,0,0],"sum_hessian":[6.1241025E3,3.0173467E3,3.1067559E3,1.6097921E3,1.4075546E3,1.6783909E3,1.428365E3],"tree_param":{"num_deleted":"0","num_feature":"104","num_nodes":"7","size_leaf_vector":"0"}},{"base_weights":[-1.4320001E-1,1.1031298E-1,-2.9666683E-1,-1.4854738E-1,2.166799E-1,-1.394154E-1,-4.7401682E-1],"categories":[],"categories_nodes":[],"categories_segments":[],"categories_sizes":[],"default_left":[1,1,1,0,0,0,0],"id":12,"left_children":[1,3,5,-1,-1,-1,-1],"loss_changes":[2.383125E2,6.3641872E1,1.06337585E2,0E0,0E0,0E0,0E0],"parents":[2147483647,0,0,1,1,2,2],"right_children":[2,4,6,-1,-1,-1,-1],"split_conditions":[4.595E-1,-2.45E0,1.35E1,-1.4854738E-3,2.166799E-3,-1.3941539E-3,-4.740168E-3],"split_indices":[3,77,80,0,0,0,0],"split_type":[0,0,0,0,0,0,0],"sum_hessian":[6.123526E3,2.3092085E3,3.8143176E3,6.7240656E2,1.636802E3,2.022663E3,1.7916545E3],"tree_param":{"num_deleted":"0","num_feature":"104","num_nodes":"7","size_leaf_vector":"0"}},{"base_weights":[1.4320004E-1,-1.1031295E-1,2.9666686E-1,1.4854737E-1,-2.1667986E-1,1.3941543E-1,4.7401685E-1],"categories":[],"categories_nodes":[],"categories_segments":[],"categories_sizes":[],"default_left":[1,1,1,0,0,0,0],"id":13,"left_children":[1,3,5,-1,-1,-1,-1],"loss_changes":[2.3831248E2,6.3641865E1,1.06337555E2,0E0,0E0,0E0,0E0],"parents":[2147483647,0,0,1,1,2,2],"right_children":[2,4,6,-1,-1,-1,-1],"split_conditions":[4.595E-1,-2.45E0,1.35E1,1.4854736E-3,-2.1667986E-3,1.3941543E-3,4.7401683E-3],"split_indices":[3,77,80,0,0,0,0],"split_type":[0,0,0,0,0,0,0],"sum_hessian":[6.123526E3,2.3092085E3,3.8143176E3,6.7240656E2,1.6368019E3,2.0226631E3,1.7916545E3],"tree_param":{"num_deleted":"0","num_feature":"104","num_nodes":"7","size_leaf_vector":"0"}},{"base_weights":[-1.4178272E-1,-3.405729E-1,5.128355E-2,-1.9078992E-1,-4.9405718E-1,-2.03528E-1,1.7136608E-1],"categories":[],"categories_nodes":[],"categories_segments":[],"categories_sizes":[],"default_left":[1,1,1,0,0,0,0],"id":14,"left_children":[1,3,5,-1,-1,-1,-1],"loss_changes":[2.3505222E2,6.927316E1,9.512144E1,0E0,0E0,0E0,0E0],"parents":[2147483647,0,0,1,1,2,2],"right_children":[2,4,6,-1,-1,-1,-1],"split_conditions":[1.45E1,1.25E1,-1.95E0,-1.9078992E-3,-4.9405717E-3,-2.03528E-3,1.7136608E-3],"split_indices":[51,80,77,0,0,0,0],"split_type":[0,0,0,0,0,0,0],"sum_hessian":[6.1229375E3,3.016373E3,3.1065647E3,1.5277289E3,1.488644E3,9.948429E2,2.1117217E3],"tree_param":{"num_deleted":"0","num_feature":"104","num_nodes":"7","size_leaf_vector":"0"}},{"base_weights":[1.4178269E-1,3.405729E-1,-5.1283587E-2,1.9078991E-1,4.9405718E-1,2.0352794E-1,-1.7136611E-1],"categories":[],"categories_nodes":[],"categories_segments":[],"categories_sizes":[],"default_left":[1,1,1,0,0,0,0],"id":15,"left_children":[1,3,5,-1,-1,-1,-1],"loss_changes":[2.3505228E2,6.92731E1,9.5121414E1,0E0,0E0,0E0,0E0],"parents":[2147483647,0,0,1,1,2,2],"right_children":[2,4,6,-1,-1,-1,-1],"split_conditions":[1.45E1,1.25E1,-1.95E0,1.907899E-3,4.9405717E-3,2.0352793E-3,-1.713661E-3],"split_indices":[51,80,77,0,0,0,0],"split_type":[0,0,0,0,0,0,0],"sum_hessian":[6.1229375E3,3.0163728E3,3.1065647E3,1.5277288E3,1.488644E3,9.948429E2,2.111722E3],"tree_param":{"num_deleted":"0","num_feature":"104","num_nodes":"7","size_leaf_vector":"0"}},{"base_weights":[-1.40384E-1,-2.676981E-1,1.5609594E-1,-1.1213028E-1,-4.4437224E-1,-1.0178512E-1,2.60051E-1],"categories":[],"categories_nodes":[],"categories_segments":[],"categories_sizes":[],"default_left":[1,1,1,0,0,0,0],"id":16,"left_children":[1,3,5,-1,-1,-1,-1],"loss_changes":[2.311672E2,1.176962E2,4.9356537E1,0E0,0E0,0E0,0E0],"parents":[2147483647,0,0,1,1,2,2],"right_children":[2,4,6,-1,-1,-1,-1],"split_conditions":[1.95E1,1.35E1,-2.45E0,-1.1213027E-3,-4.4437223E-3,-1.0178512E-3,2.6005101E-3],"split_indices":[28,80,77,0,0,0,0],"split_type":[0,0,0,0,0,0,0],"sum_hessian":[6.122164E3,4.283042E3,1.8391221E3,2.2784346E3,2.0046075E3,5.283834E2,1.3107386E3],"tree_param":{"num_deleted":"0","num_feature":"104","num_nodes":"7","size_leaf_vector":"0"}},{"base_weights":[1.40384E-1,2.6769805E-1,-1.5609588E-1,1.12130225E-1,4.443722E-1,1.0178512E-1,-2.6005092E-1],"categories":[],"categories_nodes":[],"categories_segments":[],"categories_sizes":[],"default_left":[1,1,1,0,0,0,0],"id":17,"left_children":[1,3,5,-1,-1,-1,-1],"loss_changes":[2.3116714E2,1.1769623E2,4.935652E1,0E0,0E0,0E0,0E0],"parents":[2147483647,0,0,1,1,2,2],"right_children":[2,4,6,-1,-1,-1,-1],"split_conditions":[1.95E1,1.35E1,-2.45E0,1.1213023E-3,4.443722E-3,1.0178512E-3,-2.6005092E-3],"split_indices":[28,80,77,0,0,0,0],"split_type":[0,0,0,0,0,0,0],"sum_hessian":[6.1221646E3,4.283042E3,1.8391221E3,2.2784346E3,2.0046075E3,5.283834E2,1.3107386E3],"tree_param":{"num_deleted":"0","num_feature":"104","num_nodes":"7","size_leaf_vector":"0"}},{"base_weights":[-1.3899761E-1,-3.3470377E-1,5.1013682E-2,-2.614752E-1,-6.4260226E-1,-1.0813934E-1,2.3797598E-1],"categories":[],"categories_nodes":[],"categories_segments":[],"categories_sizes":[],"default_left":[1,1,1,0,0,0,0],"id":18,"left_children":[1,3,5,-1,-1,-1,-1],"loss_changes":[2.2768819E2,6.7837036E1,9.24848E1,0E0,0E0,0E0,0E0],"parents":[2147483647,0,0,1,1,2,2],"right_children":[2,4,6,-1,-1,-1,-1],"split_conditions":[1.45E1,2.25E1,5.245E-1,-2.614752E-3,-6.4260224E-3,-1.0813934E-3,2.3797597E-3],"split_indices":[51,80,55,0,0,0,0],"split_type":[0,0,0,0,0,0,0],"sum_hessian":[6.1214326E3,3.0151516E3,3.1062808E3,2.4373237E3,5.7782806E2,1.6781581E3,1.4281227E3],"tree_param":{"num_deleted":"0","num_feature":"104","num_nodes":"7","size_leaf_vector":"0"}},{"base_weights":[1.3899761E-1,3.347037E-1,-5.101362E-2,2.6147512E-1,6.4260226E-1,1.081394E-1,-2.379759E-1],"categories":[],"categories_nodes":[],"categories_segments":[],"categories_sizes":[],"default_left":[1,1,1,0,0,0,0],"id":19,"left_children":[1,3,5,-1,-1,-1,-1],"loss_changes":[2.2768805E2,6.78371E1,9.248477E1,0E0,0E0,0E0,0E0],"parents":[2147483647,0,0,1,1,2,2],"right_children":[2,4,6,-1,-1,-1,-1],"split_conditions":[1.45E1,2.25E1,5.245E-1,2.614751E-3,6.4260224E-3,1.081394E-3,-2.379759E-3],"split_indices":[51,80,55,0,0,0,0],"split_type":[0,0,0,0,0,0,0],"sum_hessian":[6.1214326E3,3.0151516E3,3.106281E3,2.4373237E3,5.7782806E2,1.6781581E3,1.4281228E3],"tree_param":{"num_deleted":"0","num_feature":"104","num_nodes":"7","size_leaf_vector":"0"}},{"base_weights":[-1.3762838E-1,-2.6295456E-1,1.5415817E-1,-1.0978741E-1,-4.3698505E-1,-9.965639E-2,2.5647858E-1],"categories":[],"categories_nodes":[],"categories_segments":[],"categories_sizes":[],"default_left":[1,1,1,0,0,0,0],"id":20,"left_children":[1,3,5,-1,-1,-1,-1],"loss_changes":[2.2389737E2,1.14109314E2,4.7809204E1,0E0,0E0,0E0,0E0],"parents":[2147483647,0,0,1,1,2,2],"right_children":[2,4,6,-1,-1,-1,-1],"split_conditions":[1.95E1,1.35E1,-2.45E0,-1.0978741E-3,-4.3698503E-3,-9.965638E-4,2.5647858E-3],"split_indices":[28,80,77,0,0,0,0],"split_type":[0,0,0,0,0,0,0],"sum_hessian":[6.1205767E3,4.28165E3,1.8389266E3,2.2781992E3,2.0034507E3,5.2834564E2,1.3105809E3],"tree_param":{"num_deleted":"0","num_feature":"104","num_nodes":"7","size_leaf_vector":"0"}},{"base_weights":[1.3762839E-1,2.629546E-1,-1.5415816E-1,1.097874E-1,4.369851E-1,9.9656306E-2,-2.5647852E-1],"categories":[],"categories_nodes":[],"categories_segments":[],"categories_sizes":[],"default_left":[1,1,1,0,0,0,0],"id":21,"left_children":[1,3,5,-1,-1,-1,-1],"loss_changes":[2.2389738E2,1.14109314E2,4.780917E1,0E0,0E0,0E0,0E0],"parents":[2147483647,0,0,1,1,2,2],"right_children":[2,4,6,-1,-1,-1,-1],"split_conditions":[1.95E1,1.35E1,-2.45E0,1.0978739E-3,4.3698507E-3,9.96563E-4,-2.564785E-3],"split_indices":[28,80,77,0,0,0,0],"split_type":[0,0,0,0,0,0,0],"sum_hessian":[6.1205767E3,4.28165E3,1.8389266E3,2.2781992E3,2.0034507E3,5.283457E2,1.3105809E3],"tree_param":{"num_deleted":"0","num_feature":"104","num_nodes":"7","size_leaf_vector":"0"}},{"base_weights":[-1.3627279E-1,-3.2895818E-1,5.0739072E-2,-4.014068E-1,-2.463195E-2,-1.05845034E-1,2.3469031E-1],"categories":[],"categories_nodes":[],"categories_segments":[],"categories_sizes":[],"default_left":[1,1,1,0,0,0,0],"id":22,"left_children":[1,3,5,-1,-1,-1,-1],"loss_changes":[2.2057227E2,6.645935E1,8.9516594E1,0E0,0E0,0E0,0E0],"parents":[2147483647,0,0,1,1,2,2],"right_children":[2,4,6,-1,-1,-1,-1],"split_conditions":[1.45E1,5.05E0,5.245E-1,-4.014068E-3,-2.4631948E-4,-1.0584503E-3,2.346903E-3],"split_indices":[51,77,55,0,0,0,0],"split_type":[0,0,0,0,0,0,0],"sum_hessian":[6.1196865E3,3.0137485E3,3.105938E3,2.4339885E3,5.7975995E2,1.6780028E3,1.4279353E3],"tree_param":{"num_deleted":"0","num_feature":"104","num_nodes":"7","size_leaf_vector":"0"}},{"base_weights":[1.3627279E-1,3.2895818E-1,-5.0739095E-2,4.014068E-1,2.463195E-2,1.0584505E-1,-2.3469038E-1],"categories":[],"categories_nodes":[],"categories_segments":[],"categories_sizes":[],"default_left":[1,1,1,0,0,0,0],"id":23,"left_children":[1,3,5,-1,-1,-1,-1],"loss_changes":[2.2057236E2,6.645932E1,8.9516624E1,0E0,0E0,0E0,0E0],"parents":[2147483647,0,0,1,1,2,2],"right_children":[2,4,6,-1,-1,-1,-1],"split_conditions":[1.45E1,5.05E0,5.245E-1,4.014068E-3,2.4631948E-4,1.0584504E-3,-2.3469038E-3],"split_indices":[51,77,55,0,0,0,0],"split_type":[0,0,0,0,0,0,0],"sum_hessian":[6.1196865E3,3.0137485E3,3.105938E3,2.4339885E3,5.7975995E2,1.6780028E3,1.4279353E3],"tree_param":{"num_deleted":"0","num_feature":"104","num_nodes":"7","size_leaf_vector":"0"}},{"base_weights":[-1.3493265E-1,1.0691897E-1,-2.8144956E-1,-1.8026899E-1,1.9376658E-1,-1.3150832E-1,-4.508216E-1],"categories":[],"categories_nodes":[],"categories_segments":[],"categories_sizes":[],"default_left":[1,1,1,0,0,0,0],"id":24,"left_children":[1,3,5,-1,-1,-1,-1],"loss_changes":[2.1688359E2,5.763642E1,9.673035E1,0E0,0E0,0E0,0E0],"parents":[2147483647,0,0,1,1,2,2],"right_children":[2,4,6,-1,-1,-1,-1],"split_conditions":[4.595E-1,3.705E-1,1.35E1,-1.8026899E-3,1.9376657E-3,-1.3150831E-3,-4.508216E-3],"split_indices":[3,55,80,0,0,0,0],"split_type":[0,0,0,0,0,0,0],"sum_hessian":[6.118694E3,2.3084558E3,3.810238E3,5.3575244E2,1.7727035E3,2.0219913E3,1.7882466E3],"tree_param":{"num_deleted":"0","num_feature":"104","num_nodes":"7","size_leaf_vector":"0"}},{"base_weights":[1.3493265E-1,-1.0691895E-1,2.8144956E-1,1.8026893E-1,-1.9376655E-1,1.3150834E-1,4.5082158E-1],"categories":[],"categories_nodes":[],"categories_segments":[],"categories_sizes":[],"default_left":[1,1,1,0,0,0,0],"id":25,"left_children":[1,3,5,-1,-1,-1,-1],"loss_changes":[2.1688356E2,5.76364E1,9.673035E1,0E0,0E0,0E0,0E0],"parents":[2147483647,0,0,1,1,2,2],"right_children":[2,4,6,-1,-1,-1,-1],"split_conditions":[4.595E-1,3.705E-1,1.35E1,1.8026893E-3,-1.9376654E-3,1.3150834E-3,4.5082155E-3],"split_indices":[3,55,80,0,0,0,0],"split_type":[0,0,0,0,0,0,0],"sum_hessian":[6.118694E3,2.308456E3,3.8102378E3,5.3575244E2,1.7727036E3,2.0219912E3,1.7882466E3],"tree_param":{"num_deleted":"0","num_feature":"104","num_nodes":"7","size_leaf_vector":"0"}},{"base_weights":[-1.3360727E-1,-3.2317287E-1,5.0298225E-2,-2.5153977E-1,-6.247721E-1,-1.7976649E-1,1.723739E-1],"categories":[],"categories_nodes":[],"categories_segments":[],"categories_sizes":[],"default_left":[1,1,1,0,0,0,0],"id":26,"left_children":[1,3,5,-1,-1,-1,-1],"loss_changes":[2.1332568E2,6.493927E1,8.727961E1,0E0,0E0,0E0,0E0],"parents":[2147483647,0,0,1,1,2,2],"right_children":[2,4,6,-1,-1,-1,-1],"split_conditions":[1.45E1,2.25E1,-1.55E0,-2.5153975E-3,-6.2477207E-3,-1.7976649E-3,1.723739E-3],"split_indices":[51,80,77,0,0,0,0],"split_type":[0,0,0,0,0,0,0],"sum_hessian":[6.117654E3,3.0120964E3,3.1055576E3,2.4354778E3,5.766186E2,1.0764325E3,2.0291251E3],"tree_param":{"num_deleted":"0","num_feature":"104","num_nodes":"7","size_leaf_vector":"0"}},{"base_weights":[1.3360727E-1,3.2317287E-1,-5.0298214E-2,2.5153974E-1,6.2477213E-1,1.7976648E-1,-1.7237389E-1],"categories":[],"categories_nodes":[],"categories_segments":[],"categories_sizes":[],"default_left":[1,1,1,0,0,0,0],"id":27,"left_children":[1,3,5,-1,-1,-1,-1],"loss_changes":[2.1332568E2,6.493927E1,8.727959E1,0E0,0E0,0E0,0E0],"parents":[2147483647,0,0,1,1,2,2],"right_children":[2,4,6,-1,-1,-1,-1],"split_conditions":[1.45E1,2.25E1,-1.55E0,2.5153973E-3,6.247721E-3,1.7976647E-3,-1.7237389E-3],"split_indices":[51,80,77,0,0,0,0],"split_type":[0,0,0,0,0,0,0],"sum_hessian":[6.117654E3,3.0120964E3,3.1055576E3,2.4354778E3,5.766185E2,1.0764325E3,2.029125E3],"tree_param":{"num_deleted":"0","num_feature":"104","num_nodes":"7","size_leaf_vector":"0"}},{"base_weights":[-1.3229807E-1,-2.539714E-1,1.5082328E-1,-1.0523109E-1,-4.2317423E-1,-1.5414238E-1,2.3081112E-1],"categories":[],"categories_nodes":[],"categories_segments":[],"categories_sizes":[],"default_left":[1,1,1,0,0,0,0],"id":28,"left_children":[1,3,5,-1,-1,-1,-1],"loss_changes":[2.1077567E2,1.0764801E2,4.49057E1,0E0,0E0,0E0,0E0],"parents":[2147483647,0,0,1,1,2,2],"right_children":[2,4,6,-1,-1,-1,-1],"split_conditions":[1.95E1,1.35E1,3.585E-1,-1.0523109E-3,-4.231742E-3,-1.5414237E-3,2.3081112E-3],"split_indices":[28,80,55,0,0,0,0],"split_type":[0,0,0,0,0,0,0],"sum_hessian":[6.116494E3,4.2780684E3,1.8384259E3,2.2775635E3,2.0005046E3,3.8180606E2,1.4566199E3],"tree_param":{"num_deleted":"0","num_feature":"104","num_nodes":"7","size_leaf_vector":"0"}},{"base_weights":[1.3229807E-1,2.5397137E-1,-1.5082327E-1,1.052311E-1,4.231742E-1,1.541424E-1,-2.3081112E-1],"categories":[],"categories_nodes":[],"categories_segments":[],"categories_sizes":[],"default_left":[1,1,1,0,0,0,0],"id":29,"left_children":[1,3,5,-1,-1,-1,-1],"loss_changes":[2.107756E2,1.0764801E2,4.4905704E1,0E0,0E0,0E0,0E0],"parents":[2147483647,0,0,1,1,2,2],"right_children":[2,4,6,-1,-1,-1,-1],"split_conditions":[1.95E1,1.35E1,3.585E-1,1.0523109E-3,4.231742E-3,1.541424E-3,-2.3081112E-3],"split_indices":[28,80,55,0,0,0,0],"split_type":[0,0,0,0,0,0,0],"sum_hessian":[6.116494E3,4.2780684E3,1.8384259E3,2.2775635E3,2.0005046E3,3.8180606E2,1.4566199E3],"tree_param":{"num_deleted":"0","num_feature":"104","num_nodes":"7","size_leaf_vector":"0"}},{"base_weights":[-1.3100074E-1,-3.176726E-1,5.0014667E-2,-3.8871095E-1,-1.9619595E-2,-1.0230375E-1,2.289613E-1],"categories":[],"categories_nodes":[],"categories_segments":[],"categories_sizes":[],"default_left":[1,1,1,0,0,0,0],"id":30,"left_children":[1,3,5,-1,-1,-1,-1],"loss_changes":[2.066901E2,6.3750397E1,8.46855E1,0E0,0E0,0E0,0E0],"parents":[2147483647,0,0,1,1,2,2],"right_children":[2,4,6,-1,-1,-1,-1],"split_conditions":[1.45E1,5.05E0,5.245E-1,-3.8871095E-3,-1.9619595E-4,-1.0230375E-3,2.289613E-3],"split_indices":[51,77,55,0,0,0,0],"split_type":[0,0,0,0,0,0,0],"sum_hessian":[6.1153438E3,3.0102615E3,3.1050823E3,2.4306362E3,5.796251E2,1.677571E3,1.4275112E3],"tree_param":{"num_deleted":"0","num_feature":"104","num_nodes":"7","size_leaf_vector":"0"}},{"base_weights":[1.3100076E-1,3.1767258E-1,-5.001462E-2,3.8871092E-1,1.9619565E-2,1.0230378E-1,-2.2896123E-1],"categories":[],"categories_nodes":[],"categories_segments":[],"categories_sizes":[],"default_left":[1,1,1,0,0,0,0],"id":31,"left_children":[1,3,5,-1,-1,-1,-1],"loss_changes":[2.0668999E2,6.3750366E1,8.4685486E1,0E0,0E0,0E0,0E0],"parents":[2147483647,0,0,1,1,2,2],"right_children":[2,4,6,-1,-1,-1,-1],"split_conditions":[1.45E1,5.05E0,5.245E-1,3.887109E-3,1.9619564E-4,1.0230378E-3,-2.2896123E-3],"split_indices":[51,77,55,0,0,0,0],"split_type":[0,0,0,0,0,0,0],"sum_hessian":[6.1153438E3,3.0102615E3,3.1050823E3,2.4306365E3,5.7962506E2,1.677571E3,1.4275112E3],"tree_param":{"num_deleted":"0","num_feature":"104","num_nodes":"7","size_leaf_vector":"0"}},{"base_weights":[-1.2971821E-1,-2.4952142E-1,1.4895739E-1,-1.0298027E-1,-4.1633964E-1,-9.366674E-2,2.4678788E-1],"categories":[],"categories_nodes":[],"categories_segments":[],"categories_sizes":[],"default_left":[1,1,1,0,0,0,0],"id":32,"left_children":[1,3,5,-1,-1,-1,-1],"loss_changes":[2.0419681E2,1.04510284E2,4.3676895E1,0E0,0E0,0E0,0E0],"parents":[2147483647,0,0,1,1,2,2],"right_children":[2,4,6,-1,-1,-1,-1],"split_conditions":[1.95E1,1.35E1,-2.45E0,-1.0298027E-3,-4.163396E-3,-9.366674E-4,2.4678786E-3],"split_indices":[28,80,77,0,0,0,0],"split_type":[0,0,0,0,0,0,0],"sum_hessian":[6.1140845E3,4.2759497E3,1.838135E3,2.2771814E3,1.9987683E3,5.2820496E2,1.30993E3],"tree_param":{"num_deleted":"0","num_feature":"104","num_nodes":"7","size_leaf_vector":"0"}},{"base_weights":[1.297182E-1,2.495214E-1,-1.489574E-1,1.02980204E-1,4.163397E-1,9.366672E-2,-2.4678788E-1],"categories":[],"categories_nodes":[],"categories_segments":[],"categories_sizes":[],"default_left":[1,1,1,0,0,0,0],"id":33,"left_children":[1,3,5,-1,-1,-1,-1],"loss_changes":[2.0419678E2,1.04510376E2,4.3676884E1,0E0,0E0,0E0,0E0],"parents":[2147483647,0,0,1,1,2,2],"right_children":[2,4,6,-1,-1,-1,-1],"split_conditions":[1.95E1,1.35E1,-2.45E0,1.029802E-3,4.163397E-3,9.3666714E-4,-2.4678786E-3],"split_indices":[28,80,77,0,0,0,0],"split_type":[0,0,0,0,0,0,0],"sum_hessian":[6.1140845E3,4.2759497E3,1.838135E3,2.2771814E3,1.9987682E3,5.282049E2,1.30993E3],"tree_param":{"num_deleted":"0","num_feature":"104","num_nodes":"7","size_leaf_vector":"0"}},{"base_weights":[-1.2844934E-1,1.4675452E-1,-2.4747592E-1,-5.8308918E-2,2.580955E-1,-1.0274141E-1,-4.0862373E-1],"categories":[],"categories_nodes":[],"categories_segments":[],"categories_sizes":[],"default_left":[1,1,1,0,0,0,0],"id":34,"left_children":[1,3,5,-1,-1,-1,-1],"loss_changes":[2.0030283E2,4.217448E1,9.9509674E1,0E0,0E0,0E0,0E0],"parents":[2147483647,0,0,1,1,2,2],"right_children":[2,4,6,-1,-1,-1,-1],"split_conditions":[-2.15E0,-1.55E0,1.35E1,-5.830892E-4,2.580955E-3,-1.0274141E-3,-4.086237E-3],"split_indices":[25,77,80,0,0,0,0],"split_type":[0,0,0,0,0,0,0],"sum_hessian":[6.1127803E3,1.8455085E3,4.267272E3,6.49592E2,1.1959165E3,2.2489873E3,2.0182847E3],"tree_param":{"num_deleted":"0","num_feature":"104","num_nodes":"7","size_leaf_vector":"0"}},{"base_weights":[1.2844937E-1,-1.4675453E-1,2.4747597E-1,5.830891E-2,-2.5809553E-1,1.02741465E-1,4.0862375E-1],"categories":[],"categories_nodes":[],"categories_segments":[],"categories_sizes":[],"default_left":[1,1,1,0,0,0,0],"id":35,"left_children":[1,3,5,-1,-1,-1,-1],"loss_changes":[2.0030289E2,4.217448E1,9.9509674E1,0E0,0E0,0E0,0E0],"parents":[2147483647,0,0,1,1,2,2],"right_children":[2,4,6,-1,-1,-1,-1],"split_conditions":[-2.15E0,-1.55E0,1.35E1,5.830891E-4,-2.5809552E-3,1.0274146E-3,4.0862374E-3],"split_indices":[25,77,80,0,0,0,0],"split_type":[0,0,0,0,0,0,0],"sum_hessian":[6.1127803E3,1.8455085E3,4.267272E3,6.49592E2,1.1959165E3,2.2489873E3,2.0182847E3],"tree_param":{"num_deleted":"0","num_feature":"104","num_nodes":"7","size_leaf_vector":"0"}},{"base_weights":[-1.2719351E-1,-3.0993953E-1,4.988532E-2,-2.4016647E-1,-6.043603E-1,-1.8535775E-1,1.6071303E-1],"categories":[],"categories_nodes":[],"categories_segments":[],"categories_sizes":[],"default_left":[1,1,1,0,0,0,0],"id":36,"left_children":[1,3,5,-1,-1,-1,-1],"loss_changes":[1.978169E2,6.1651733E1,8.098732E1,0E0,0E0,0E0,0E0],"parents":[2147483647,0,0,1,1,2,2],"right_children":[2,4,6,-1,-1,-1,-1],"split_conditions":[1.45E1,2.25E1,-1.95E0,-2.4016646E-3,-6.0436027E-3,-1.8535774E-3,1.6071303E-3],"split_indices":[51,80,77,0,0,0,0],"split_type":[0,0,0,0,0,0,0],"sum_hessian":[6.111443E3,3.0072249E3,3.104218E3,2.4325618E3,5.746631E2,9.9389734E2,2.1103208E3],"tree_param":{"num_deleted":"0","num_feature":"104","num_nodes":"7","size_leaf_vector":"0"}},{"base_weights":[1.2719351E-1,3.099396E-1,-4.988535E-2,2.4016653E-1,6.043603E-1,1.8535769E-1,-1.6071303E-1],"categories":[],"categories_nodes":[],"categories_segments":[],"categories_sizes":[],"default_left":[1,1,1,0,0,0,0],"id":37,"left_children":[1,3,5,-1,-1,-1,-1],"loss_changes":[1.9781696E2,6.1651733E1,8.0987305E1,0E0,0E0,0E0,0E0],"parents":[2147483647,0,0,1,1,2,2],"right_children":[2,4,6,-1,-1,-1,-1],"split_conditions":[1.45E1,2.25E1,-1.95E0,2.4016653E-3,6.0436027E-3,1.8535769E-3,-1.6071303E-3],"split_indices":[51,80,77,0,0,0,0],"split_type":[0,0,0,0,0,0,0],"sum_hessian":[6.111443E3,3.0072249E3,3.104218E3,2.4325618E3,5.746631E2,9.9389734E2,2.1103208E3],"tree_param":{"num_deleted":"0","num_feature":"104","num_nodes":"7","size_leaf_vector":"0"}},{"base_weights":[-1.2595361E-1,-2.4308968E-1,1.4637585E-1,-1.00012556E-1,-4.0617856E-1,-1.4794858E-1,2.2358364E-1],"categories":[],"categories_nodes":[],"categories_segments":[],"categories_sizes":[],"default_left":[1,1,1,0,0,0,0],"id":38,"left_children":[1,3,5,-1,-1,-1,-1],"loss_changes":[1.9497331E2,9.9676346E1,4.1812943E1,0E0,0E0,0E0,0E0],"parents":[2147483647,0,0,1,1,2,2],"right_children":[2,4,6,-1,-1,-1,-1],"split_conditions":[1.95E1,1.35E1,3.585E-1,-1.0001255E-3,-4.0617855E-3,-1.4794858E-3,2.2358363E-3],"split_indices":[28,80,55,0,0,0,0],"split_type":[0,0,0,0,0,0,0],"sum_hessian":[6.109977E3,4.272409E3,1.8375681E3,2.2766917E3,1.9957175E3,3.81673E2,1.4558951E3],"tree_param":{"num_deleted":"0","num_feature":"104","num_nodes":"7","size_leaf_vector":"0"}},{"base_weights":[1.259536E-1,2.4308966E-1,-1.4637586E-1,1.0001256E-1,4.0617853E-1,1.4794858E-1,-2.2358364E-1],"categories":[],"categories_nodes":[],"categories_segments":[],"categories_sizes":[],"default_left":[1,1,1,0,0,0,0],"id":39,"left_children":[1,3,5,-1,-1,-1,-1],"loss_changes":[1.949733E2,9.9676346E1,4.181295E1,0E0,0E0,0E0,0E0],"parents":[2147483647,0,0,1,1,2,2],"right_children":[2,4,6,-1,-1,-1,-1],"split_conditions":[1.95E1,1.35E1,3.585E-1,1.0001257E-3,4.061785E-3,1.4794858E-3,-2.2358363E-3],"split_indices":[28,80,55,0,0,0,0],"split_type":[0,0,0,0,0,0,0],"sum_hessian":[6.109977E3,4.272409E3,1.8375681E3,2.2766914E3,1.9957177E3,3.81673E2,1.4558951E3],"tree_param":{"num_deleted":"0","num_feature":"104","num_nodes":"7","size_leaf_vector":"0"}},{"base_weights":[-1.2472512E-1,-3.0471763E-1,4.958818E-2,-3.7413254E-1,-1.4007368E-2,-9.757263E-2,2.2247078E-1],"categories":[],"categories_nodes":[],"categories_segments":[],"categories_sizes":[],"default_left":[1,1,1,0,0,0,0],"id":40,"left_children":[1,3,5,-1,-1,-1,-1],"loss_changes":[1.9170149E2,6.065329E1,7.900699E1,0E0,0E0,0E0,0E0],"parents":[2147483647,0,0,1,1,2,2],"right_children":[2,4,6,-1,-1,-1,-1],"split_conditions":[1.45E1,5.05E0,5.245E-1,-3.7413253E-3,-1.4007368E-4,-9.757263E-4,2.2247077E-3],"split_indices":[51,77,55,0,0,0,0],"split_type":[0,0,0,0,0,0,0],"sum_hessian":[6.1085083E3,3.004929E3,3.1035793E3,2.4254907E3,5.7943835E2,1.6767417E3,1.4268375E3],"tree_param":{"num_deleted":"0","num_feature":"104","num_nodes":"7","size_leaf_vector":"0"}},{"base_weights":[1.2472514E-1,3.0471766E-1,-4.958817E-2,3.741326E-1,1.4007368E-2,9.757263E-2,-2.2247075E-1],"categories":[],"categories_nodes":[],"categories_segments":[],"categories_sizes":[],"default_left":[1,1,1,0,0,0,0],"id":41,"left_children":[1,3,5,-1,-1,-1,-1],"loss_changes":[1.9170148E2,6.065332E1,7.900698E1,0E0,0E0,0E0,0E0],"parents":[2147483647,0,0,1,1,2,2],"right_children":[2,4,6,-1,-1,-1,-1],"split_conditions":[1.45E1,5.05E0,5.245E-1,3.741326E-3,1.4007368E-4,9.757263E-4,-2.2247075E-3],"split_indices":[51,77,55,0,0,0,0],"split_type":[0,0,0,0,0,0,0],"sum_hessian":[6.1085083E3,3.004929E3,3.103579E3,2.4254907E3,5.7943835E2,1.6767417E3,1.4268375E3],"tree_param":{"num_deleted":"0","num_feature":"104","num_nodes":"7","size_leaf_vector":"0"}},{"base_weights":[-1.2350989E-1,-2.3886193E-1,1.4456093E-1,-9.788108E-2,-3.9970368E-1,-1.4546402E-1,2.2064604E-1],"categories":[],"categories_nodes":[],"categories_segments":[],"categories_sizes":[],"default_left":[1,1,1,0,0,0,0],"id":42,"left_children":[1,3,5,-1,-1,-1,-1],"loss_changes":[1.8890816E2,9.680324E1,4.059471E1,0E0,0E0,0E0,0E0],"parents":[2147483647,0,0,1,1,2,2],"right_children":[2,4,6,-1,-1,-1,-1],"split_conditions":[1.95E1,1.35E1,3.585E-1,-9.788107E-4,-3.9970367E-3,-1.4546402E-3,2.2064603E-3],"split_indices":[28,80,55,0,0,0,0],"split_type":[0,0,0,0,0,0,0],"sum_hessian":[6.106965E3,4.2697725E3,1.8371926E3,2.2762258E3,1.9935465E3,3.816164E2,1.4555762E3],"tree_param":{"num_deleted":"0","num_feature":"104","num_nodes":"7","size_leaf_vector":"0"}},{"base_weights":[1.23509854E-1,2.3886189E-1,-1.4456096E-1,9.788101E-2,3.9970368E-1,1.4546397E-1,-2.2064605E-1],"categories":[],"categories_nodes":[],"categories_segments":[],"categories_sizes":[],"default_left":[1,1,1,0,0,0,0],"id":43,"left_children":[1,3,5,-1,-1,-1,-1],"loss_changes":[1.8890817E2,9.68033E1,4.059471E1,0E0,0E0,0E0,0E0],"parents":[2147483647,0,0,1,1,2,2],"right_children":[2,4,6,-1,-1,-1,-1],"split_conditions":[1.95E1,1.35E1,3.585E-1,9.788101E-4,3.9970367E-3,1.4546397E-3,-2.2064606E-3],"split_indices":[28,80,55,0,0,0,0],"split_type":[0,0,0,0,0,0,0],"sum_hessian":[6.106965E3,4.2697725E3,1.8371926E3,2.2762258E3,1.9935466E3,3.816164E2,1.4555762E3],"tree_param":{"num_deleted":"0","num_feature":"104","num_nodes":"7","size_leaf_vector":"0"}},{"base_weights":[-1.2230756E-1,1.4291118E-1,-2.3712839E-1,-5.397611E-2,2.4984197E-1,-9.778419E-2,-3.926213E-1],"categories":[],"categories_nodes":[],"categories_segments":[],"categories_sizes":[],"default_left":[1,1,1,0,0,0,0],"id":44,"left_children":[1,3,5,-1,-1,-1,-1],"loss_changes":[1.8598926E2,3.8868137E1,9.230315E1,0E0,0E0,0E0,0E0],"parents":[2147483647,0,0,1,1,2,2],"right_children":[2,4,6,-1,-1,-1,-1],"split_conditions":[-2.15E0,-1.55E0,1.35E1,-5.397611E-4,2.4984197E-3,-9.778419E-4,-3.926213E-3],"split_indices":[25,77,80,0,0,0,0],"split_type":[0,0,0,0,0,0,0],"sum_hessian":[6.105381E3,1.8445363E3,4.2608447E3,6.493711E2,1.1951652E3,2.247968E3,2.0128765E3],"tree_param":{"num_deleted":"0","num_feature":"104","num_nodes":"7","size_leaf_vector":"0"}},{"base_weights":[1.2230757E-1,-1.4291118E-1,2.3712839E-1,5.39761E-2,-2.4984196E-1,9.778423E-2,3.9262128E-1],"categories":[],"categories_nodes":[],"categories_segments":[],"categories_sizes":[],"default_left":[1,1,1,0,0,0,0],"id":45,"left_children":[1,3,5,-1,-1,-1,-1],"loss_changes":[1.8598927E2,3.8868137E1,9.230313E1,0E0,0E0,0E0,0E0],"parents":[2147483647,0,0,1,1,2,2],"right_children":[2,4,6,-1,-1,-1,-1],"split_conditions":[-2.15E0,-1.55E0,1.35E1,5.39761E-4,-2.4984195E-3,9.778423E-4,3.926213E-3],"split_indices":[25,77,80,0,0,0,0],"split_type":[0,0,0,0,0,0,0],"sum_hessian":[6.105381E3,1.8445363E3,4.2608447E3,6.493711E2,1.1951652E3,2.247968E3,2.0128763E3],"tree_param":{"num_deleted":"0","num_feature":"104","num_nodes":"7","size_leaf_vector":"0"}},{"base_weights":[-1.2111753E-1,-2.97373E-1,4.9428407E-2,-2.293508E-1,-5.8520746E-1,-9.4510034E-2,2.1852483E-1],"categories":[],"categories_nodes":[],"categories_segments":[],"categories_sizes":[],"default_left":[1,1,1,0,0,0,0],"id":46,"left_children":[1,3,5,-1,-1,-1,-1],"loss_changes":[1.8352158E2,5.8647644E1,7.555794E1,0E0,0E0,0E0,0E0],"parents":[2147483647,0,0,1,1,2,2],"right_children":[2,4,6,-1,-1,-1,-1],"split_conditions":[1.45E1,2.25E1,5.245E-1,-2.293508E-3,-5.8520744E-3,-9.451003E-4,2.1852483E-3],"split_indices":[51,80,55,0,0,0,0],"split_type":[0,0,0,0,0,0,0],"sum_hessian":[6.1037573E3,3.0012688E3,3.1024888E3,2.4290278E3,5.7224084E2,1.6761531E3,1.4263358E3],"tree_param":{"num_deleted":"0","num_feature":"104","num_nodes":"7","size_leaf_vector":"0"}},{"base_weights":[1.2111755E-1,2.9737303E-1,-4.942839E-2,2.2935085E-1,5.8520734E-1,9.4510034E-2,-2.1852478E-1],"categories":[],"categories_nodes":[],"categories_segments":[],"categories_sizes":[],"default_left":[1,1,1,0,0,0,0],"id":47,"left_children":[1,3,5,-1,-1,-1,-1],"loss_changes":[1.835216E2,5.8647552E1,7.555792E1,0E0,0E0,0E0,0E0],"parents":[2147483647,0,0,1,1,2,2],"right_children":[2,4,6,-1,-1,-1,-1],"split_conditions":[1.45E1,2.25E1,5.245E-1,2.2935085E-3,5.8520734E-3,9.451003E-4,-2.1852478E-3],"split_indices":[51,80,55,0,0,0,0],"split_type":[0,0,0,0,0,0,0],"sum_hessian":[6.1037573E3,3.0012688E3,3.1024888E3,2.4290278E3,5.7224084E2,1.6761531E3,1.4263357E3],"tree_param":{"num_deleted":"0","num_feature":"104","num_nodes":"7","size_leaf_vector":"0"}},{"base_weights":[-1.1994158E-1,-2.2490545E-1,1.6210312E-1,-8.6163975E-2,-3.8052404E-1,-1.1614253E-1,2.31466E-1],"categories":[],"categories_nodes":[],"categories_segments":[],"categories_sizes":[],"default_left":[1,1,1,0,0,0,0],"id":48,"left_children":[1,3,5,-1,-1,-1,-1],"loss_changes":[1.8071408E2,9.6007324E1,3.1984455E1,0E0,0E0,0E0,0E0],"parents":[2147483647,0,0,1,1,2,2],"right_children":[2,4,6,-1,-1,-1,-1],"split_conditions":[2.15E1,1.35E1,3.585E-1,-8.6163974E-4,-3.8052404E-3,-1.1614253E-3,2.31466E-3],"split_indices":[29,80,55,0,0,0,0],"split_type":[0,0,0,0,0,0,0],"sum_hessian":[6.102046E3,4.447206E3,1.65484E3,2.3519148E3,2.0952913E3,3.300773E2,1.3247626E3],"tree_param":{"num_deleted":"0","num_feature":"104","num_nodes":"7","size_leaf_vector":"0"}},{"base_weights":[1.199416E-1,2.2490548E-1,-1.621031E-1,8.6163975E-2,3.8052413E-1,1.16142616E-1,-2.31466E-1],"categories":[],"categories_nodes":[],"categories_segments":[],"categories_sizes":[],"default_left":[1,1,1,0,0,0,0],"id":49,"left_children":[1,3,5,-1,-1,-1,-1],"loss_changes":[1.8071408E2,9.600737E1,3.1984474E1,0E0,0E0,0E0,0E0],"parents":[2147483647,0,0,1,1,2,2],"right_children":[2,4,6,-1,-1,-1,-1],"split_conditions":[2.15E1,1.35E1,3.585E-1,8.6163974E-4,3.8052413E-3,1.1614261E-3,-2.31466E-3],"split_indices":[29,80,55,0,0,0,0],"split_type":[0,0,0,0,0,0,0],"sum_hessian":[6.102046E3,4.447206E3,1.65484E3,2.3519148E3,2.0952913E3,3.300773E2,1.3247626E3],"tree_param":{"num_deleted":"0","num_feature":"104","num_nodes":"7","size_leaf_vector":"0"}},{"base_weights":[-1.18775904E-1,-2.9247963E-1,4.919227E-2,-3.6036846E-1,-8.783184E-3,-1.9370443E-1,1.4675519E-1],"categories":[],"categories_nodes":[],"categories_segments":[],"categories_sizes":[],"default_left":[1,1,1,0,0,0,0],"id":50,"left_children":[1,3,5,-1,-1,-1,-1],"loss_changes":[1.78032E2,5.776886E1,7.355645E1,0E0,0E0,0E0,0E0],"parents":[2147483647,0,0,1,1,2,2],"right_children":[2,4,6,-1,-1,-1,-1],"split_conditions":[1.45E1,5.05E0,-2.45E0,-3.6036845E-3,-8.783184E-5,-1.9370442E-3,1.4675518E-3],"split_indices":[51,77,77,0,0,0,0],"split_type":[0,0,0,0,0,0,0],"sum_hessian":[6.100363E3,2.9986145E3,3.1017483E3,2.4193833E3,5.792312E2,8.8856195E2,2.2131863E3],"tree_param":{"num_deleted":"0","num_feature":"104","num_nodes":"7","size_leaf_vector":"0"}},{"base_weights":[1.1877589E-1,2.924796E-1,-4.9192272E-2,3.6036846E-1,8.783066E-3,1.9370441E-1,-1.4675519E-1],"categories":[],"categories_nodes":[],"categories_segments":[],"categories_sizes":[],"default_left":[1,1,1,0,0,0,0],"id":51,"left_children":[1,3,5,-1,-1,-1,-1],"loss_changes":[1.7803195E2,5.776889E1,7.355645E1,0E0,0E0,0E0,0E0],"parents":[2147483647,0,0,1,1,2,2],"right_children":[2,4,6,-1,-1,-1,-1],"split_conditions":[1.45E1,5.05E0,-2.45E0,3.6036845E-3,8.783065E-5,1.9370441E-3,-1.4675518E-3],"split_indices":[51,77,77,0,0,0,0],"split_type":[0,0,0,0,0,0,0],"sum_hessian":[6.1003623E3,2.9986143E3,3.101748E3,2.4193833E3,5.792312E2,8.8856195E2,2.2131863E3],"tree_param":{"num_deleted":"0","num_feature":"104","num_nodes":"7","size_leaf_vector":"0"}},{"base_weights":[-1.17623836E-1,1.0002905E-1,-2.4987282E-1,-1.5682541E-1,1.7881925E-1,-3.5248357E-1,-3.616527E-2],"categories":[],"categories_nodes":[],"categories_segments":[],"categories_sizes":[],"default_left":[1,1,1,0,0,0,0],"id":52,"left_children":[1,3,5,-1,-1,-1,-1],"loss_changes":[1.7559726E2,4.669819E1,8.319478E1,0E0,0E0,0E0,0E0],"parents":[2147483647,0,0,1,1,2,2],"right_children":[2,4,6,-1,-1,-1,-1],"split_conditions":[4.595E-1,3.725E-1,2.95E0,-1.5682541E-3,1.7881925E-3,-3.5248357E-3,-3.616527E-4],"split_indices":[3,55,77,0,0,0,0],"split_type":[0,0,0,0,0,0,0],"sum_hessian":[6.0985693E3,2.3051086E3,3.7934607E3,5.4087537E2,1.7642332E3,2.5624583E3,1.2310024E3],"tree_param":{"num_deleted":"0","num_feature":"104","num_nodes":"7","size_leaf_vector":"0"}},{"base_weights":[1.17623806E-1,-1.0002908E-1,2.498728E-1,1.5682542E-1,-1.7881928E-1,3.5248354E-1,3.6165275E-2],"categories":[],"categories_nodes":[],"categories_segments":[],"categories_sizes":[],"default_left":[1,1,1,0,0,0,0],"id":53,"left_children":[1,3,5,-1,-1,-1,-1],"loss_changes":[1.7559729E2,4.669819E1,8.319475E1,0E0,0E0,0E0,0E0],"parents":[2147483647,0,0,1,1,2,2],"right_children":[2,4,6,-1,-1,-1,-1],"split_conditions":[4.595E-1,3.725E-1,2.95E0,1.5682542E-3,-1.7881928E-3,3.5248352E-3,3.6165272E-4],"split_indices":[3,55,77,0,0,0,0],"split_type":[0,0,0,0,0,0,0],"sum_hessian":[6.0985693E3,2.3051086E3,3.7934604E3,5.4087537E2,1.7642333E3,2.5624583E3,1.2310024E3],"tree_param":{"num_deleted":"0","num_feature":"104","num_nodes":"7","size_leaf_vector":"0"}},{"base_weights":[-1.164821E-1,1.3909958E-1,-2.272571E-1,-4.6613656E-2,2.4387912E-1,-9.2624985E-2,-3.7786832E-1],"categories":[],"categories_nodes":[],"categories_segments":[],"categories_sizes":[],"default_left":[1,1,1,0,0,0,0],"id":54,"left_children":[1,3,5,-1,-1,-1,-1],"loss_changes":[1.7267331E2,3.5901684E1,8.623201E1,0E0,0E0,0E0,0E0],"parents":[2147483647,0,0,1,1,2,2],"right_children":[2,4,6,-1,-1,-1,-1],"split_conditions":[-2.15E0,-1.45E0,1.35E1,-4.6613655E-4,2.438791E-3,-9.2624984E-4,-3.7786833E-3],"split_indices":[25,77,80,0,0,0,0],"split_type":[0,0,0,0,0,0,0],"sum_hessian":[6.0968145E3,1.843412E3,4.2534023E3,6.651113E2,1.1783007E3,2.2466902E3,2.0067123E3],"tree_param":{"num_deleted":"0","num_feature":"104","num_nodes":"7","size_leaf_vector":"0"}},{"base_weights":[1.16482094E-1,-1.3909954E-1,2.2725707E-1,4.66137E-2,-2.4387908E-1,9.262499E-2,3.778683E-1],"categories":[],"categories_nodes":[],"categories_segments":[],"categories_sizes":[],"default_left":[1,1,1,0,0,0,0],"id":55,"left_children":[1,3,5,-1,-1,-1,-1],"loss_changes":[1.7267325E2,3.5901684E1,8.6231964E1,0E0,0E0,0E0,0E0],"parents":[2147483647,0,0,1,1,2,2],"right_children":[2,4,6,-1,-1,-1,-1],"split_conditions":[-2.15E0,-1.45E0,1.35E1,4.66137E-4,-2.4387906E-3,9.262499E-4,3.7786828E-3],"split_indices":[25,77,80,0,0,0,0],"split_type":[0,0,0,0,0,0,0],"sum_hessian":[6.0968145E3,1.8434121E3,4.2534023E3,6.651114E2,1.1783008E3,2.2466902E3,2.0067122E3],"tree_param":{"num_deleted":"0","num_feature":"104","num_nodes":"7","size_leaf_vector":"0"}},{"base_weights":[-1.15353376E-1,-2.853465E-1,4.8861735E-2,-2.1886706E-1,-5.675492E-1,-7.9486154E-2,2.2708799E-1],"categories":[],"categories_nodes":[],"categories_segments":[],"categories_sizes":[],"default_left":[1,1,1,0,0,0,0],"id":56,"left_children":[1,3,5,-1,-1,-1,-1],"loss_changes":[1.7018512E2,5.6072052E1,7.0965324E1,0E0,0E0,0E0,0E0],"parents":[2147483647,0,0,1,1,2,2],"right_children":[2,4,6,-1,-1,-1,-1],"split_conditions":[1.45E1,2.25E1,5.445E-1,-2.1886707E-3,-5.6754923E-3,-7.948615E-4,2.27088E-3],"split_indices":[51,80,55,0,0,0,0],"split_type":[0,0,0,0,0,0,0],"sum_hessian":[6.094951E3,2.9944263E3,3.100525E3,2.4249485E3,5.694777E2,1.802806E3,1.297719E3],"tree_param":{"num_deleted":"0","num_feature":"104","num_nodes":"7","size_leaf_vector":"0"}},{"base_weights":[1.1535339E-1,2.8534654E-1,-4.886172E-2,2.1886705E-1,5.6754935E-1,7.948616E-2,-2.2708797E-1],"categories":[],"categories_nodes":[],"categories_segments":[],"categories_sizes":[],"default_left":[1,1,1,0,0,0,0],"id":57,"left_children":[1,3,5,-1,-1,-1,-1],"loss_changes":[1.7018512E2,5.6072037E1,7.096531E1,0E0,0E0,0E0,0E0],"parents":[2147483647,0,0,1,1,2,2],"right_children":[2,4,6,-1,-1,-1,-1],"split_conditions":[1.45E1,2.25E1,5.445E-1,2.1886704E-3,5.6754933E-3,7.948616E-4,-2.2708797E-3],"split_indices":[51,80,55,0,0,0,0],"split_type":[0,0,0,0,0,0,0],"sum_hessian":[6.094951E3,2.994426E3,3.100525E3,2.4249485E3,5.694778E2,1.802806E3,1.297719E3],"tree_param":{"num_deleted":"0","num_feature":"104","num_nodes":"7","size_leaf_vector":"0"}},{"base_weights":[-1.1423727E-1,-2.1559964E-1,1.5782179E-1,-8.15389E-2,-3.6635256E-1,2.1267156E-1,-1.7025946E-1],"categories":[],"categories_nodes":[],"categories_segments":[],"categories_sizes":[],"default_left":[1,1,1,0,0,0,0],"id":58,"left_children":[1,3,5,-1,-1,-1,-1],"loss_changes":[1.680865E2,8.970836E1,2.9813843E1,0E0,0E0,0E0,0E0],"parents":[2147483647,0,0,1,1,2,2],"right_children":[2,4,6,-1,-1,-1,-1],"split_conditions":[2.15E1,1.35E1,2.55E1,-8.15389E-4,-3.6635255E-3,2.1267156E-3,-1.7025946E-3],"split_indices":[29,80,103,0,0,0,0],"split_type":[0,0,0,0,0,0,0],"sum_hessian":[6.093035E3,4.439279E3,1.6537562E3,2.3505422E3,2.0887366E3,1.4171791E3,2.3657721E2],"tree_param":{"num_deleted":"0","num_feature":"104","num_nodes":"7","size_leaf_vector":"0"}},{"base_weights":[1.14237264E-1,2.1559961E-1,-1.5782176E-1,8.153886E-2,3.6635256E-1,-2.1267153E-1,1.7025946E-1],"categories":[],"categories_nodes":[],"categories_segments":[],"categories_sizes":[],"default_left":[1,1,1,0,0,0,0],"id":59,"left_children":[1,3,5,-1,-1,-1,-1],"loss_changes":[1.6808646E2,8.970839E1,2.9813847E1,0E0,0E0,0E0,0E0],"parents":[2147483647,0,0,1,1,2,2],"right_children":[2,4,6,-1,-1,-1,-1],"split_conditions":[2.15E1,1.35E1,2.55E1,8.1538863E-4,3.6635255E-3,-2.1267154E-3,1.7025946E-3],"split_indices":[29,80,103,0,0,0,0],"split_type":[0,0,0,0,0,0,0],"sum_hessian":[6.093035E3,4.439279E3,1.6537562E3,2.3505425E3,2.0887366E3,1.417179E3,2.3657721E2],"tree_param":{"num_deleted":"0","num_feature":"104","num_nodes":"7","size_leaf_vector":"0"}},{"base_weights":[-1.13131024E-1,-2.2126241E-1,1.3763641E-1,-8.958146E-2,-3.7224385E-1,1.9715808E-1,-1.9050594E-1],"categories":[],"categories_nodes":[],"categories_segments":[],"categories_sizes":[],"default_left":[1,1,1,0,0,0,0],"id":60,"left_children":[1,3,5,-1,-1,-1,-1],"loss_changes":[1.6522412E2,8.460268E1,3.5899483E1,0E0,0E0,0E0,0E0],"parents":[2147483647,0,0,1,1,2,2],"right_children":[2,4,6,-1,-1,-1,-1],"split_conditions":[1.95E1,1.35E1,2.55E1,-8.9581456E-4,-3.7224384E-3,1.9715808E-3,-1.9050593E-3],"split_indices":[28,80,103,0,0,0,0],"split_type":[0,0,0,0,0,0,0],"sum_hessian":[6.091149E3,4.25605E3,1.835099E3,2.27418E3,1.98187E3,1.553677E3,2.8142206E2],"tree_param":{"num_deleted":"0","num_feature":"104","num_nodes":"7","size_leaf_vector":"0"}},{"base_weights":[1.13131E-1,2.2126238E-1,-1.3763641E-1,8.9581415E-2,3.7224385E-1,-1.971581E-1,1.9050586E-1],"categories":[],"categories_nodes":[],"categories_segments":[],"categories_sizes":[],"default_left":[1,1,1,0,0,0,0],"id":61,"left_children":[1,3,5,-1,-1,-1,-1],"loss_changes":[1.652241E2,8.460271E1,3.5899467E1,0E0,0E0,0E0,0E0],"parents":[2147483647,0,0,1,1,2,2],"right_children":[2,4,6,-1,-1,-1,-1],"split_conditions":[1.95E1,1.35E1,2.55E1,8.9581416E-4,3.7224384E-3,-1.971581E-3,1.9050586E-3],"split_indices":[28,80,103,0,0,0,0],"split_type":[0,0,0,0,0,0,0],"sum_hessian":[6.091149E3,4.25605E3,1.835099E3,2.2741797E3,1.98187E3,1.553677E3,2.8142206E2],"tree_param":{"num_deleted":"0","num_feature":"104","num_nodes":"7","size_leaf_vector":"0"}},{"base_weights":[-1.1203759E-1,-2.7867368E-1,4.8766166E-2,-3.44704E-1,-3.5951887E-3,-7.708437E-2,2.2352096E-1],"categories":[],"categories_nodes":[],"categories_segments":[],"categories_sizes":[],"default_left":[1,1,1,0,0,0,0],"id":62,"left_children":[1,3,5,-1,-1,-1,-1],"loss_changes":[1.6320361E2,5.4325607E1,6.819916E1,0E0,0E0,0E0,0E0],"parents":[2147483647,0,0,1,1,2,2],"right_children":[2,4,6,-1,-1,-1,-1],"split_conditions":[1.45E1,5.05E0,5.445E-1,-3.44704E-3,-3.5951885E-5,-7.708437E-4,2.2352096E-3],"split_indices":[51,77,55,0,0,0,0],"split_type":[0,0,0,0,0,0,0],"sum_hessian":[6.089155E3,2.9899875E3,3.0991672E3,2.410995E3,5.7899255E2,1.802004E3,1.2971632E3],"tree_param":{"num_deleted":"0","num_feature":"104","num_nodes":"7","size_leaf_vector":"0"}},{"base_weights":[1.12037584E-1,2.7867368E-1,-4.876618E-2,3.44704E-1,3.59519E-3,7.708435E-2,-2.2352098E-1],"categories":[],"categories_nodes":[],"categories_segments":[],"categories_sizes":[],"default_left":[1,1,1,0,0,0,0],"id":63,"left_children":[1,3,5,-1,-1,-1,-1],"loss_changes":[1.6320363E2,5.4325638E1,6.819916E1,0E0,0E0,0E0,0E0],"parents":[2147483647,0,0,1,1,2,2],"right_children":[2,4,6,-1,-1,-1,-1],"split_conditions":[1.45E1,5.05E0,5.445E-1,3.44704E-3,3.5951896E-5,7.708435E-4,-2.2352098E-3],"split_indices":[51,77,55,0,0,0,0],"split_type":[0,0,0,0,0,0,0],"sum_hessian":[6.089155E3,2.9899875E3,3.0991672E3,2.4109949E3,5.7899255E2,1.802004E3,1.2971632E3],"tree_param":{"num_deleted":"0","num_feature":"104","num_nodes":"7","size_leaf_vector":"0"}},{"base_weights":[-1.1095474E-1,1.3536805E-1,-2.178571E-1,-4.7425948E-2,2.3473133E-1,-4.321781E-1,-1.2782134E-1],"categories":[],"categories_nodes":[],"categories_segments":[],"categories_sizes":[],"default_left":[1,1,1,0,0,0,0],"id":64,"left_children":[1,3,5,-1,-1,-1,-1],"loss_changes":[1.603453E2,3.348866E1,8.187727E1,0E0,0E0,0E0,0E0],"parents":[2147483647,0,0,1,1,2,2],"right_children":[2,4,6,-1,-1,-1,-1],"split_conditions":[-2.15E0,-1.55E0,-1.95E0,-4.7425946E-4,2.3473133E-3,-4.321781E-3,-1.2782133E-3],"split_indices":[25,77,77,0,0,0,0],"split_type":[0,0,0,0,0,0,0],"sum_hessian":[6.087137E3,1.8421703E3,4.244967E3,6.4891473E2,1.1932555E3,1.2546351E3,2.9903318E3],"tree_param":{"num_deleted":"0","num_feature":"104","num_nodes":"7","size_leaf_vector":"0"}},{"base_weights":[1.1095474E-1,-1.3536803E-1,2.178571E-1,4.7425978E-2,-2.3473133E-1,4.3217808E-1,1.2782134E-1],"categories":[],"categories_nodes":[],"categories_segments":[],"categories_sizes":[],"default_left":[1,1,1,0,0,0,0],"id":65,"left_children":[1,3,5,-1,-1,-1,-1],"loss_changes":[1.6034526E2,3.348865E1,8.187727E1,0E0,0E0,0E0,0E0],"parents":[2147483647,0,0,1,1,2,2],"right_children":[2,4,6,-1,-1,-1,-1],"split_conditions":[-2.15E0,-1.55E0,-1.95E0,4.7425978E-4,-2.3473133E-3,4.3217805E-3,1.2782133E-3],"split_indices":[25,77,77,0,0,0,0],"split_type":[0,0,0,0,0,0,0],"sum_hessian":[6.087137E3,1.8421702E3,4.244967E3,6.4891473E2,1.1932555E3,1.254635E3,2.9903318E3],"tree_param":{"num_deleted":"0","num_feature":"104","num_nodes":"7","size_leaf_vector":"0"}},{"base_weights":[-1.09881714E-1,-2.740194E-1,4.839187E-2,-2.092205E-1,-5.501734E-1,2.2246604E-1,-7.435729E-2],"categories":[],"categories_nodes":[],"categories_segments":[],"categories_sizes":[],"default_left":[1,1,1,0,0,0,0],"id":66,"left_children":[1,3,5,-1,-1,-1,-1],"loss_changes":[1.5812381E2,5.3351562E1,6.6240364E1,0E0,0E0,0E0,0E0],"parents":[2147483647,0,0,1,1,2,2],"right_children":[2,4,6,-1,-1,-1,-1],"split_conditions":[1.45E1,2.25E1,1.25E1,-2.092205E-3,-5.501734E-3,2.2246602E-3,-7.435729E-4],"split_indices":[51,80,103,0,0,0,0],"split_type":[0,0,0,0,0,0,0],"sum_hessian":[6.085171E3,2.9868872E3,3.0982837E3,2.420646E3,5.662413E2,1.280937E3,1.8173467E3],"tree_param":{"num_deleted":"0","num_feature":"104","num_nodes":"7","size_leaf_vector":"0"}},{"base_weights":[1.0988172E-1,2.7401942E-1,-4.8391875E-2,2.0922053E-1,5.501734E-1,-2.2246605E-1,7.4357286E-2],"categories":[],"categories_nodes":[],"categories_segments":[],"categories_sizes":[],"default_left":[1,1,1,0,0,0,0],"id":67,"left_children":[1,3,5,-1,-1,-1,-1],"loss_changes":[1.5812384E2,5.3351562E1,6.624036E1,0E0,0E0,0E0,0E0],"parents":[2147483647,0,0,1,1,2,2],"right_children":[2,4,6,-1,-1,-1,-1],"split_conditions":[1.45E1,2.25E1,1.25E1,2.0922052E-3,5.501734E-3,-2.2246605E-3,7.4357283E-4],"split_indices":[51,80,103,0,0,0,0],"split_type":[0,0,0,0,0,0,0],"sum_hessian":[6.085171E3,2.9868872E3,3.0982837E3,2.4206458E3,5.662412E2,1.280937E3,1.8173467E3],"tree_param":{"num_deleted":"0","num_feature":"104","num_nodes":"7","size_leaf_vector":"0"}},{"base_weights":[-1.0882159E-1,-2.0666508E-1,1.5346025E-1,5.351792E-4,-2.9944855E-1,-1.0669604E-1,2.1835144E-1],"categories":[],"categories_nodes":[],"categories_segments":[],"categories_sizes":[],"default_left":[1,1,1,0,0,0,0],"id":68,"left_children":[1,3,5,-1,-1,-1,-1],"loss_changes":[1.5616516E2,8.5194916E1,2.7938763E1,0E0,0E0,0E0,0E0],"parents":[2147483647,0,0,1,1,2,2],"right_children":[2,4,6,-1,-1,-1,-1],"split_conditions":[2.15E1,8.5E0,3.585E-1,5.351792E-6,-2.9944854E-3,-1.0669604E-3,2.1835144E-3],"split_indices":[29,103,55,0,0,0,0],"split_type":[0,0,0,0,0,0,0],"sum_hessian":[6.0830913E3,4.4305127E3,1.6525782E3,1.3706428E3,3.05987E3,3.2978558E2,1.3227927E3],"tree_param":{"num_deleted":"0","num_feature":"104","num_nodes":"7","size_leaf_vector":"0"}},{"base_weights":[1.0882162E-1,2.0666513E-1,-1.5346023E-1,-5.351367E-4,2.9944858E-1,1.0669612E-1,-2.1835144E-1],"categories":[],"categories_nodes":[],"categories_segments":[],"categories_sizes":[],"default_left":[1,1,1,0,0,0,0],"id":69,"left_children":[1,3,5,-1,-1,-1,-1],"loss_changes":[1.5616516E2,8.5194916E1,2.793877E1,0E0,0E0,0E0,0E0],"parents":[2147483647,0,0,1,1,2,2],"right_children":[2,4,6,-1,-1,-1,-1],"split_conditions":[2.15E1,8.5E0,3.585E-1,-5.3513672E-6,2.9944857E-3,1.0669612E-3,-2.1835144E-3],"split_indices":[29,103,55,0,0,0,0],"split_type":[0,0,0,0,0,0,0],"sum_hessian":[6.0830913E3,4.4305127E3,1.6525782E3,1.3706428E3,3.05987E3,3.2978558E2,1.3227927E3],"tree_param":{"num_deleted":"0","num_feature":"104","num_nodes":"7","size_leaf_vector":"0"}},{"base_weights":[-1.0776857E-1,-1.9266365E-1,1.8945855E-1,-2.8734043E-1,8.997135E-3,7.113581E-2,3.2172462E-1],"categories":[],"categories_nodes":[],"categories_segments":[],"categories_sizes":[],"default_left":[1,1,1,0,0,0,0],"id":70,"left_children":[1,3,5,-1,-1,-1,-1],"loss_changes":[1.5350795E2,9.033699E1,2.1132229E1,0E0,0E0,0E0,0E0],"parents":[2147483647,0,0,1,1,2,2],"right_children":[2,4,6,-1,-1,-1,-1],"split_conditions":[2.35E1,2.95E0,3.5000002E-1,-2.8734042E-3,8.997135E-5,7.113581E-4,3.2172462E-3],"split_indices":[51,77,77,0,0,0,0],"split_type":[0,0,0,0,0,0,0],"sum_hessian":[6.0811426E3,4.730385E3,1.3507577E3,3.2187866E3,1.511598E3,7.137702E2,6.3698755E2],"tree_param":{"num_deleted":"0","num_feature":"104","num_nodes":"7","size_leaf_vector":"0"}},{"base_weights":[1.077686E-1,1.9266368E-1,-1.8945855E-1,2.8734046E-1,-8.997113E-3,-7.1135774E-2,-3.2172468E-1],"categories":[],"categories_nodes":[],"categories_segments":[],"categories_sizes":[],"default_left":[1,1,1,0,0,0,0],"id":71,"left_children":[1,3,5,-1,-1,-1,-1],"loss_changes":[1.5350797E2,9.033699E1,2.1132252E1,0E0,0E0,0E0,0E0],"parents":[2147483647,0,0,1,1,2,2],"right_children":[2,4,6,-1,-1,-1,-1],"split_conditions":[2.35E1,2.95E0,3.5000002E-1,2.8734047E-3,-8.997113E-5,-7.1135774E-4,-3.2172468E-3],"split_indices":[51,77,77,0,0,0,0],"split_type":[0,0,0,0,0,0,0],"sum_hessian":[6.0811426E3,4.730385E3,1.3507577E3,3.2187869E3,1.5115981E3,7.137702E2,6.369875E2],"tree_param":{"num_deleted":"0","num_feature":"104","num_nodes":"7","size_leaf_vector":"0"}},{"base_weights":[-1.06724255E-1,-2.6781273E-1,4.844057E-2,-2.0392564E-1,-5.407455E-1,-1.7874691E-1,1.3963224E-1],"categories":[],"categories_nodes":[],"categories_segments":[],"categories_sizes":[],"default_left":[1,1,1,0,0,0,0],"id":72,"left_children":[1,3,5,-1,-1,-1,-1],"loss_changes":[1.5199039E2,5.1909744E1,6.420634E1,0E0,0E0,0E0,0E0],"parents":[2147483647,0,0,1,1,2,2],"right_children":[2,4,6,-1,-1,-1,-1],"split_conditions":[1.45E1,2.25E1,-2.45E0,-2.0392563E-3,-5.407455E-3,-1.787469E-3,1.3963224E-3],"split_indices":[51,80,77,0,0,0,0],"split_type":[0,0,0,0,0,0,0],"sum_hessian":[6.079248E3,2.9823335E3,3.0969146E3,2.4180684E3,5.6426526E2,8.8675806E2,2.2101565E3],"tree_param":{"num_deleted":"0","num_feature":"104","num_nodes":"7","size_leaf_vector":"0"}},{"base_weights":[1.06724255E-1,2.6781273E-1,-4.844057E-2,2.0392564E-1,5.407455E-1,1.787469E-1,-1.3963224E-1],"categories":[],"categories_nodes":[],"categories_segments":[],"categories_sizes":[],"default_left":[1,1,1,0,0,0,0],"id":73,"left_children":[1,3,5,-1,-1,-1,-1],"loss_changes":[1.5199037E2,5.1909744E1,6.420634E1,0E0,0E0,0E0,0E0],"parents":[2147483647,0,0,1,1,2,2],"right_children":[2,4,6,-1,-1,-1,-1],"split_conditions":[1.45E1,2.25E1,-2.45E0,2.0392563E-3,5.407455E-3,1.7874689E-3,-1.3963224E-3],"split_indices":[51,80,77,0,0,0,0],"split_type":[0,0,0,0,0,0,0],"sum_hessian":[6.079248E3,2.9823335E3,3.0969146E3,2.418068E3,5.6426526E2,8.86758E2,2.2101565E3],"tree_param":{"num_deleted":"0","num_feature":"104","num_nodes":"7","size_leaf_vector":"0"}},{"base_weights":[-1.0569765E-1,-2.0880096E-1,1.3297021E-1,-8.250267E-2,-3.542005E-1,1.9012885E-1,-1.8210687E-1],"categories":[],"categories_nodes":[],"categories_segments":[],"categories_sizes":[],"default_left":[1,1,1,0,0,0,0],"id":74,"left_children":[1,3,5,-1,-1,-1,-1],"loss_changes":[1.4959229E2,7.7921616E1,3.306721E1,0E0,0E0,0E0,0E0],"parents":[2147483647,0,0,1,1,2,2],"right_children":[2,4,6,-1,-1,-1,-1],"split_conditions":[1.95E1,1.35E1,2.55E1,-8.250267E-4,-3.542005E-3,1.9012884E-3,-1.8210686E-3],"split_indices":[28,80,103,0,0,0,0],"split_type":[0,0,0,0,0,0,0],"sum_hessian":[6.0770186E3,4.2438306E3,1.8331881E3,2.2719321E3,1.9718986E3,1.5520287E3,2.811594E2],"tree_param":{"num_deleted":"0","num_feature":"104","num_nodes":"7","size_leaf_vector":"0"}},{"base_weights":[1.0569764E-1,2.0880096E-1,-1.3297026E-1,8.2502685E-2,3.542005E-1,-1.901289E-1,1.8210687E-1],"categories":[],"categories_nodes":[],"categories_segments":[],"categories_sizes":[],"default_left":[1,1,1,0,0,0,0],"id":75,"left_children":[1,3,5,-1,-1,-1,-1],"loss_changes":[1.4959232E2,7.7921616E1,3.3067207E1,0E0,0E0,0E0,0E0],"parents":[2147483647,0,0,1,1,2,2],"right_children":[2,4,6,-1,-1,-1,-1],"split_conditions":[1.95E1,1.35E1,2.55E1,8.2502683E-4,3.542005E-3,-1.9012889E-3,1.8210686E-3],"split_indices":[28,80,103,0,0,0,0],"split_type":[0,0,0,0,0,0,0],"sum_hessian":[6.0770186E3,4.2438306E3,1.8331881E3,2.2719321E3,1.9718986E3,1.5520287E3,2.8115942E2],"tree_param":{"num_deleted":"0","num_feature":"104","num_nodes":"7","size_leaf_vector":"0"}},{"base_weights":[-1.0468039E-1,-2.6341963E-1,4.809453E-2,-3.275196E-1,2.5589312E-3,-7.240659E-2,2.1543612E-1],"categories":[],"categories_nodes":[],"categories_segments":[],"categories_sizes":[],"default_left":[1,1,1,0,0,0,0],"id":76,"left_children":[1,3,5,-1,-1,-1,-1],"loss_changes":[1.4735873E2,5.0805466E1,6.246414E1,0E0,0E0,0E0,0E0],"parents":[2147483647,0,0,1,1,2,2],"right_children":[2,4,6,-1,-1,-1,-1],"split_conditions":[1.45E1,5.05E0,5.445E-1,-3.2751958E-3,2.5589312E-5,-7.240659E-4,2.1543612E-3],"split_indices":[51,77,55,0,0,0,0],"split_type":[0,0,0,0,0,0,0],"sum_hessian":[6.074782E3,2.9788813E3,3.0959011E3,2.4002078E3,5.786735E2,1.8001775E3,1.2957238E3],"tree_param":{"num_deleted":"0","num_feature":"104","num_nodes":"7","size_leaf_vector":"0"}},{"base_weights":[1.0468038E-1,2.6341963E-1,-4.8094533E-2,3.2751957E-1,-2.5588472E-3,7.240659E-2,-2.1543613E-1],"categories":[],"categories_nodes":[],"categories_segments":[],"categories_sizes":[],"default_left":[1,1,1,0,0,0,0],"id":77,"left_children":[1,3,5,-1,-1,-1,-1],"loss_changes":[1.4735873E2,5.0805435E1,6.246414E1,0E0,0E0,0E0,0E0],"parents":[2147483647,0,0,1,1,2,2],"right_children":[2,4,6,-1,-1,-1,-1],"split_conditions":[1.45E1,5.05E0,5.445E-1,3.2751956E-3,-2.5588472E-5,7.240659E-4,-2.1543612E-3],"split_indices":[51,77,55,0,0,0,0],"split_type":[0,0,0,0,0,0,0],"sum_hessian":[6.074782E3,2.9788813E3,3.0959011E3,2.4002078E3,5.786735E2,1.8001774E3,1.2957238E3],"tree_param":{"num_deleted":"0","num_feature":"104","num_nodes":"7","size_leaf_vector":"0"}},{"base_weights":[-1.0367278E-1,-1.863864E-1,1.856392E-1,-2.7897307E-1,1.0475806E-2,7.0679605E-2,3.1425908E-1],"categories":[],"categories_nodes":[],"categories_segments":[],"categories_sizes":[],"default_left":[1,1,1,0,0,0,0],"id":78,"left_children":[1,3,5,-1,-1,-1,-1],"loss_changes":[1.4537442E2,8.610057E1,1.995155E1,0E0,0E0,0E0,0E0],"parents":[2147483647,0,0,1,1,2,2],"right_children":[2,4,6,-1,-1,-1,-1],"split_conditions":[2.35E1,2.95E0,3.5000002E-1,-2.7897307E-3,1.0475806E-4,7.06796E-4,3.1425906E-3],"split_indices":[51,77,77,0,0,0,0],"split_type":[0,0,0,0,0,0,0],"sum_hessian":[6.072529E3,4.722681E3,1.3498479E3,3.211743E3,1.5109381E3,7.135929E2,6.36255E2],"tree_param":{"num_deleted":"0","num_feature":"104","num_nodes":"7","size_leaf_vector":"0"}},{"base_weights":[1.0367277E-1,1.8638639E-1,-1.8563919E-1,2.7897304E-1,-1.047582E-2,-7.0679635E-2,-3.1425902E-1],"categories":[],"categories_nodes":[],"categories_segments":[],"categories_sizes":[],"default_left":[1,1,1,0,0,0,0],"id":79,"left_children":[1,3,5,-1,-1,-1,-1],"loss_changes":[1.4537439E2,8.610057E1,1.9951538E1,0E0,0E0,0E0,0E0],"parents":[2147483647,0,0,1,1,2,2],"right_children":[2,4,6,-1,-1,-1,-1],"split_conditions":[2.35E1,2.95E0,3.5000002E-1,2.7897304E-3,-1.047582E-4,-7.0679636E-4,-3.1425902E-3],"split_indices":[51,77,77,0,0,0,0],"split_type":[0,0,0,0,0,0,0],"sum_hessian":[6.072529E3,4.722681E3,1.3498479E3,3.211743E3,1.5109381E3,7.135929E2,6.36255E2],"tree_param":{"num_deleted":"0","num_feature":"104","num_nodes":"7","size_leaf_vector":"0"}},{"base_weights":[-1.0267039E-1,9.4041556E-2,-2.226807E-1,-1.5589511E-1,1.62067E-1,-3.176471E-1,-2.6322486E-2],"categories":[],"categories_nodes":[],"categories_segments":[],"categories_sizes":[],"default_left":[1,1,1,0,0,0,0],"id":80,"left_children":[1,3,5,-1,-1,-1,-1],"loss_changes":[1.4335379E2,3.9151722E1,7.031534E1,0E0,0E0,0E0,0E0],"parents":[2147483647,0,0,1,1,2,2],"right_children":[2,4,6,-1,-1,-1,-1],"split_conditions":[4.595E-1,3.585E-1,2.95E0,-1.5589511E-3,1.62067E-3,-3.176471E-3,-2.6322485E-4],"split_indices":[3,55,77,0,0,0,0],"split_type":[0,0,0,0,0,0,0],"sum_hessian":[6.070506E3,2.3002783E3,3.7702275E3,4.9184976E2,1.8084285E3,2.5407874E3,1.2294403E3],"tree_param":{"num_deleted":"0","num_feature":"104","num_nodes":"7","size_leaf_vector":"0"}},{"base_weights":[1.0267037E-1,-9.404156E-2,2.226807E-1,1.5589507E-1,-1.6206701E-1,3.176471E-1,2.6322456E-2],"categories":[],"categories_nodes":[],"categories_segments":[],"categories_sizes":[],"default_left":[1,1,1,0,0,0,0],"id":81,"left_children":[1,3,5,-1,-1,-1,-1],"loss_changes":[1.4335379E2,3.9151714E1,7.031535E1,0E0,0E0,0E0,0E0],"parents":[2147483647,0,0,1,1,2,2],"right_children":[2,4,6,-1,-1,-1,-1],"split_conditions":[4.595E-1,3.585E-1,2.95E0,1.5589506E-3,-1.6206701E-3,3.176471E-3,2.6322456E-4],"split_indices":[3,55,77,0,0,0,0],"split_type":[0,0,0,0,0,0,0],"sum_hessian":[6.070506E3,2.3002783E3,3.7702275E3,4.9184976E2,1.8084286E3,2.5407874E3,1.2294402E3],"tree_param":{"num_deleted":"0","num_feature":"104","num_nodes":"7","size_leaf_vector":"0"}},{"base_weights":[-1.0168258E-1,-2.5728998E-1,4.7898345E-2,-1.9466381E-1,-5.259163E-1,-1.7244296E-1,1.3631102E-1],"categories":[],"categories_nodes":[],"categories_segments":[],"categories_sizes":[],"default_left":[1,1,1,0,0,0,0],"id":82,"left_children":[1,3,5,-1,-1,-1,-1],"loss_changes":[1.4127942E2,4.9943726E1,6.032467E1,0E0,0E0,0E0,0E0],"parents":[2147483647,0,0,1,1,2,2],"right_children":[2,4,6,-1,-1,-1,-1],"split_conditions":[1.45E1,2.25E1,-2.45E0,-1.946638E-3,-5.2591627E-3,-1.7244295E-3,1.3631103E-3],"split_indices":[51,80,77,0,0,0,0],"split_type":[0,0,0,0,0,0,0],"sum_hessian":[6.068244E3,2.9738552E3,3.094389E3,2.4130205E3,5.608346E2,8.8581586E2,2.208573E3],"tree_param":{"num_deleted":"0","num_feature":"104","num_nodes":"7","size_leaf_vector":"0"}},{"base_weights":[1.0168259E-1,2.5729E-1,-4.789835E-2,1.9466381E-1,5.259164E-1,1.7244296E-1,-1.3631102E-1],"categories":[],"categories_nodes":[],"categories_segments":[],"categories_sizes":[],"default_left":[1,1,1,0,0,0,0],"id":83,"left_children":[1,3,5,-1,-1,-1,-1],"loss_changes":[1.4127948E2,4.9943726E1,6.032467E1,0E0,0E0,0E0,0E0],"parents":[2147483647,0,0,1,1,2,2],"right_children":[2,4,6,-1,-1,-1,-1],"split_conditions":[1.45E1,2.25E1,-2.45E0,1.946638E-3,5.2591637E-3,1.7244295E-3,-1.3631103E-3],"split_indices":[51,80,77,0,0,0,0],"split_type":[0,0,0,0,0,0,0],"sum_hessian":[6.068244E3,2.973855E3,3.094389E3,2.4130205E3,5.608346E2,8.8581586E2,2.208573E3],"tree_param":{"num_deleted":"0","num_feature":"104","num_nodes":"7","size_leaf_vector":"0"}},{"base_weights":[-1.00707024E-1,-1.817372E-1,1.8252368E-1,3.7749562E-2,-2.6199728E-1,6.998208E-2,3.085265E-1],"categories":[],"categories_nodes":[],"categories_segments":[],"categories_sizes":[],"default_left":[1,1,1,0,0,0,0],"id":84,"left_children":[1,3,5,-1,-1,-1,-1],"loss_changes":[1.3926923E2,8.311856E1,1.9123291E1,0E0,0E0,0E0,0E0],"parents":[2147483647,0,0,1,1,2,2],"right_children":[2,4,6,-1,-1,-1,-1],"split_conditions":[2.35E1,7.5E0,3.5000002E-1,3.7749563E-4,-2.6199727E-3,6.998208E-4,3.0852647E-3],"split_indices":[51,103,77,0,0,0,0],"split_type":[0,0,0,0,0,0,0],"sum_hessian":[6.065868E3,4.7167886E3,1.3490796E3,1.2631069E3,3.453682E3,7.13426E2,6.356535E2],"tree_param":{"num_deleted":"0","num_feature":"104","num_nodes":"7","size_leaf_vector":"0"}},{"base_weights":[1.0070703E-1,1.8173721E-1,-1.8252368E-1,-3.774958E-2,2.6199728E-1,-6.99821E-2,-3.0852646E-1],"categories":[],"categories_nodes":[],"categories_segments":[],"categories_sizes":[],"default_left":[1,1,1,0,0,0,0],"id":85,"left_children":[1,3,5,-1,-1,-1,-1],"loss_changes":[1.3926924E2,8.311856E1,1.912328E1,0E0,0E0,0E0,0E0],"parents":[2147483647,0,0,1,1,2,2],"right_children":[2,4,6,-1,-1,-1,-1],"split_conditions":[2.35E1,7.5E0,3.5000002E-1,-3.774958E-4,2.6199727E-3,-6.998209E-4,-3.0852645E-3],"split_indices":[51,103,77,0,0,0,0],"split_type":[0,0,0,0,0,0,0],"sum_hessian":[6.065868E3,4.7167886E3,1.3490796E3,1.2631068E3,3.453682E3,7.13426E2,6.356535E2],"tree_param":{"num_deleted":"0","num_feature":"104","num_nodes":"7","size_leaf_vector":"0"}},{"base_weights":[-9.9733934E-2,-2.532439E-1,4.7707062E-2,-1.912907E-1,-5.195384E-1,-1.695948E-1,1.3488287E-1],"categories":[],"categories_nodes":[],"categories_segments":[],"categories_sizes":[],"default_left":[1,1,1,0,0,0,0],"id":86,"left_children":[1,3,5,-1,-1,-1,-1],"loss_changes":[1.3728076E2,4.8922318E1,5.8641422E1,0E0,0E0,0E0,0E0],"parents":[2147483647,0,0,1,1,2,2],"right_children":[2,4,6,-1,-1,-1,-1],"split_conditions":[1.45E1,2.25E1,-2.45E0,-1.912907E-3,-5.195384E-3,-1.695948E-3,1.3488287E-3],"split_indices":[51,80,77,0,0,0,0],"split_type":[0,0,0,0,0,0,0],"sum_hessian":[6.063803E3,2.970409E3,3.0933943E3,2.4111704E3,5.5923834E2,8.854073E2,2.207987E3],"tree_param":{"num_deleted":"0","num_feature":"104","num_nodes":"7","size_leaf_vector":"0"}},{"base_weights":[9.9733956E-2,2.5324392E-1,-4.7707066E-2,1.9129077E-1,5.195384E-1,1.6959481E-1,-1.3488288E-1],"categories":[],"categories_nodes":[],"categories_segments":[],"categories_sizes":[],"default_left":[1,1,1,0,0,0,0],"id":87,"left_children":[1,3,5,-1,-1,-1,-1],"loss_changes":[1.372808E2,4.892227E1,5.8641426E1,0E0,0E0,0E0,0E0],"parents":[2147483647,0,0,1,1,2,2],"right_children":[2,4,6,-1,-1,-1,-1],"split_conditions":[1.45E1,2.25E1,-2.45E0,1.9129076E-3,5.195384E-3,1.6959481E-3,-1.3488288E-3],"split_indices":[51,80,77,0,0,0,0],"split_type":[0,0,0,0,0,0,0],"sum_hessian":[6.063803E3,2.970409E3,3.0933943E3,2.4111704E3,5.5923834E2,8.854073E2,2.207987E3],"tree_param":{"num_deleted":"0","num_feature":"104","num_nodes":"7","size_leaf_vector":"0"}},{"base_weights":[-9.877805E-2,-1.9027434E-1,1.4585578E-1,-3.875466E-1,-1.02319375E-1,2.9239538E-1,4.310989E-2],"categories":[],"categories_nodes":[],"categories_segments":[],"categories_sizes":[],"default_left":[1,1,1,0,0,0,0],"id":88,"left_children":[1,3,5,-1,-1,-1,-1],"loss_changes":[1.3572238E2,7.652367E1,2.484201E1,0E0,0E0,0E0,0E0],"parents":[2147483647,0,0,1,1,2,2],"right_children":[2,4,6,-1,-1,-1,-1],"split_conditions":[2.15E1,-1.75E0,-6.3500004E0,-3.8754658E-3,-1.0231937E-3,2.9239538E-3,4.310989E-4],"split_indices":[29,77,25,0,0,0,0],"split_type":[0,0,0,0,0,0,0],"sum_hessian":[6.061372E3,4.411598E3,1.649774E3,1.3593457E3,3.0522527E3,6.792127E2,9.7056134E2],"tree_param":{"num_deleted":"0","num_feature":"104","num_nodes":"7","size_leaf_vector":"0"}},{"base_weights":[9.877803E-2,1.9027433E-1,-1.458558E-1,3.8754663E-1,1.02319345E-1,-2.9239538E-1,-4.3109898E-2],"categories":[],"categories_nodes":[],"categories_segments":[],"categories_sizes":[],"default_left":[1,1,1,0,0,0,0],"id":89,"left_children":[1,3,5,-1,-1,-1,-1],"loss_changes":[1.3572238E2,7.652371E1,2.4842007E1,0E0,0E0,0E0,0E0],"parents":[2147483647,0,0,1,1,2,2],"right_children":[2,4,6,-1,-1,-1,-1],"split_conditions":[2.15E1,-1.75E0,-6.3500004E0,3.8754663E-3,1.0231935E-3,-2.9239538E-3,-4.3109898E-4],"split_indices":[29,77,25,0,0,0,0],"split_type":[0,0,0,0,0,0,0],"sum_hessian":[6.061372E3,4.411598E3,1.649774E3,1.3593456E3,3.0522527E3,6.792127E2,9.7056134E2],"tree_param":{"num_deleted":"0","num_feature":"104","num_nodes":"7","size_leaf_vector":"0"}},{"base_weights":[-9.78254E-2,-1.9541782E-1,1.2755826E-1,-7.485738E-2,-3.3492643E-1,1.8229234E-1,-1.7408258E-1],"categories":[],"categories_nodes":[],"categories_segments":[],"categories_sizes":[],"default_left":[1,1,1,0,0,0,0],"id":90,"left_children":[1,3,5,-1,-1,-1,-1],"loss_changes":[1.3332439E2,7.111075E1,3.0274881E1,0E0,0E0,0E0,0E0],"parents":[2147483647,0,0,1,1,2,2],"right_children":[2,4,6,-1,-1,-1,-1],"split_conditions":[1.95E1,1.35E1,2.55E1,-7.4857374E-4,-3.3492642E-3,1.8229234E-3,-1.7408257E-3],"split_indices":[28,80,103,0,0,0,0],"split_type":[0,0,0,0,0,0,0],"sum_hessian":[6.0592407E3,4.2284365E3,1.8308042E3,2.2690806E3,1.9593557E3,1.5499539E3,2.8085037E2],"tree_param":{"num_deleted":"0","num_feature":"104","num_nodes":"7","size_leaf_vector":"0"}},{"base_weights":[9.782541E-2,1.9541784E-1,-1.2755828E-1,7.485741E-2,3.3492643E-1,-1.8229236E-1,1.7408255E-1],"categories":[],"categories_nodes":[],"categories_segments":[],"categories_sizes":[],"default_left":[1,1,1,0,0,0,0],"id":91,"left_children":[1,3,5,-1,-1,-1,-1],"loss_changes":[1.3332442E2,7.111072E1,3.027488E1,0E0,0E0,0E0,0E0],"parents":[2147483647,0,0,1,1,2,2],"right_children":[2,4,6,-1,-1,-1,-1],"split_conditions":[1.95E1,1.35E1,2.55E1,7.4857404E-4,3.3492642E-3,-1.8229235E-3,1.7408255E-3],"split_indices":[28,80,103,0,0,0,0],"split_type":[0,0,0,0,0,0,0],"sum_hessian":[6.0592407E3,4.2284365E3,1.8308042E3,2.2690806E3,1.9593557E3,1.5499539E3,2.8085037E2],"tree_param":{"num_deleted":"0","num_feature":"104","num_nodes":"7","size_leaf_vector":"0"}},{"base_weights":[-9.688754E-2,-2.4742645E-1,4.751833E-2,-1.8661167E-1,-5.097495E-1,2.0937583E-1,-6.661458E-2],"categories":[],"categories_nodes":[],"categories_segments":[],"categories_sizes":[],"default_left":[1,1,1,0,0,0,0],"id":92,"left_children":[1,3,5,-1,-1,-1,-1],"loss_changes":[1.317002E2,4.7222977E1,5.714651E1,0E0,0E0,0E0,0E0],"parents":[2147483647,0,0,1,1,2,2],"right_children":[2,4,6,-1,-1,-1,-1],"split_conditions":[1.45E1,2.25E1,1.25E1,-1.8661167E-3,-5.0974945E-3,2.0937582E-3,-6.661458E-4],"split_indices":[51,80,103,0,0,0,0],"split_type":[0,0,0,0,0,0,0],"sum_hessian":[6.056788E3,2.9650728E3,3.091715E3,2.408433E3,5.5663965E2,1.2782009E3,1.8135143E3],"tree_param":{"num_deleted":"0","num_feature":"104","num_nodes":"7","size_leaf_vector":"0"}},{"base_weights":[9.6887544E-2,2.4742647E-1,-4.7518328E-2,1.8661168E-1,5.097495E-1,-2.0937583E-1,6.661458E-2],"categories":[],"categories_nodes":[],"categories_segments":[],"categories_sizes":[],"default_left":[1,1,1,0,0,0,0],"id":93,"left_children":[1,3,5,-1,-1,-1,-1],"loss_changes":[1.3170021E2,4.722296E1,5.7146503E1,0E0,0E0,0E0,0E0],"parents":[2147483647,0,0,1,1,2,2],"right_children":[2,4,6,-1,-1,-1,-1],"split_conditions":[1.45E1,2.25E1,1.25E1,1.8661168E-3,5.0974945E-3,-2.0937582E-3,6.661458E-4],"split_indices":[51,80,103,0,0,0,0],"split_type":[0,0,0,0,0,0,0],"sum_hessian":[6.0567876E3,2.9650728E3,3.091715E3,2.408433E3,5.5663965E2,1.2782009E3,1.8135143E3],"tree_param":{"num_deleted":"0","num_feature":"104","num_nodes":"7","size_leaf_vector":"0"}},{"base_weights":[-9.595895E-2,-1.7428182E-1,1.7746201E-1,4.0138636E-2,-2.528673E-1,6.831569E-2,2.9982364E-1],"categories":[],"categories_nodes":[],"categories_segments":[],"categories_sizes":[],"default_left":[1,1,1,0,0,0,0],"id":94,"left_children":[1,3,5,-1,-1,-1,-1],"loss_changes":[1.297067E2,7.9333115E1,1.799369E1,0E0,0E0,0E0,0E0],"parents":[2147483647,0,0,1,1,2,2],"right_children":[2,4,6,-1,-1,-1,-1],"split_conditions":[2.35E1,7.5E0,3.5000002E-1,4.0138635E-4,-2.528673E-3,6.831569E-4,2.9982363E-3],"split_indices":[51,103,77,0,0,0,0],"split_type":[0,0,0,0,0,0,0],"sum_hessian":[6.0543384E3,4.7064995E3,1.347839E3,1.2624352E3,3.4440642E3,7.132129E2,6.346261E2],"tree_param":{"num_deleted":"0","num_feature":"104","num_nodes":"7","size_leaf_vector":"0"}},{"base_weights":[9.595895E-2,1.7428182E-1,-1.7746198E-1,-4.0138643E-2,2.528673E-1,-6.831569E-2,-2.9982358E-1],"categories":[],"categories_nodes":[],"categories_segments":[],"categories_sizes":[],"default_left":[1,1,1,0,0,0,0],"id":95,"left_children":[1,3,5,-1,-1,-1,-1],"loss_changes":[1.297067E2,7.93331E1,1.7993687E1,0E0,0E0,0E0,0E0],"parents":[2147483647,0,0,1,1,2,2],"right_children":[2,4,6,-1,-1,-1,-1],"split_conditions":[2.35E1,7.5E0,3.5000002E-1,-4.013864E-4,2.528673E-3,-6.831569E-4,-2.9982359E-3],"split_indices":[51,103,77,0,0,0,0],"split_type":[0,0,0,0,0,0,0],"sum_hessian":[6.0543384E3,4.7064995E3,1.347839E3,1.2624352E3,3.4440642E3,7.1321295E2,6.346261E2],"tree_param":{"num_deleted":"0","num_feature":"104","num_nodes":"7","size_leaf_vector":"0"}},{"base_weights":[-9.503371E-2,4.3601397E-2,-2.4777241E-1,-1.4394003E-1,1.426375E-1,-3.1213403E-1,-2.212473E-3],"categories":[],"categories_nodes":[],"categories_segments":[],"categories_sizes":[],"default_left":[1,1,1,0,0,0,0],"id":96,"left_children":[1,3,5,-1,-1,-1,-1],"loss_changes":[1.2818599E2,5.897101E1,4.552025E1,0E0,0E0,0E0,0E0],"parents":[2147483647,0,0,1,1,2,2],"right_children":[2,4,6,-1,-1,-1,-1],"split_conditions":[5.5E-1,-1.55E0,4.8500004E0,-1.4394003E-3,1.426375E-3,-3.1213402E-3,-2.2124728E-5],"split_indices":[25,77,77,0,0,0,0],"split_type":[0,0,0,0,0,0,0],"sum_hessian":[6.052153E3,3.1729243E3,2.8792283E3,1.0963496E3,2.0765747E3,2.2810823E3,5.98146E2],"tree_param":{"num_deleted":"0","num_feature":"104","num_nodes":"7","size_leaf_vector":"0"}},{"base_weights":[9.503371E-2,-4.360141E-2,2.4777243E-1,1.4394003E-1,-1.4263752E-1,3.1213403E-1,2.21248E-3],"categories":[],"categories_nodes":[],"categories_segments":[],"categories_sizes":[],"default_left":[1,1,1,0,0,0,0],"id":97,"left_children":[1,3,5,-1,-1,-1,-1],"loss_changes":[1.28186E2,5.897102E1,4.552025E1,0E0,0E0,0E0,0E0],"parents":[2147483647,0,0,1,1,2,2],"right_children":[2,4,6,-1,-1,-1,-1],"split_conditions":[5.5E-1,-1.55E0,4.8500004E0,1.4394003E-3,-1.4263751E-3,3.1213402E-3,2.21248E-5],"split_indices":[25,77,77,0,0,0,0],"split_type":[0,0,0,0,0,0,0],"sum_hessian":[6.052153E3,3.1729243E3,2.8792283E3,1.0963496E3,2.0765747E3,2.2810823E3,5.98146E2],"tree_param":{"num_deleted":"0","num_feature":"104","num_nodes":"7","size_leaf_vector":"0"}},{"base_weights":[-9.412325E-2,-1.8249412E-1,1.4180446E-1,-3.7488413E-1,-9.7010754E-2,2.8595155E-1,4.0772147E-2],"categories":[],"categories_nodes":[],"categories_segments":[],"categories_sizes":[],"default_left":[1,1,1,0,0,0,0],"id":98,"left_children":[1,3,5,-1,-1,-1,-1],"loss_changes":[1.26176834E2,7.2364456E1,2.4008774E1,0E0,0E0,0E0,0E0],"parents":[2147483647,0,0,1,1,2,2],"right_children":[2,4,6,-1,-1,-1,-1],"split_conditions":[2.15E1,-1.75E0,-6.3500004E0,-3.7488411E-3,-9.701075E-4,2.8595154E-3,4.0772147E-4],"split_indices":[29,77,25,0,0,0,0],"split_type":[0,0,0,0,0,0,0],"sum_hessian":[6.049656E3,4.4012983E3,1.6483572E3,1.3529486E3,3.0483499E3,6.784926E2,9.698645E2],"tree_param":{"num_deleted":"0","num_feature":"104","num_nodes":"7","size_leaf_vector":"0"}},{"base_weights":[9.412325E-2,1.8249412E-1,-1.4180446E-1,3.748841E-1,9.7010754E-2,-2.8595152E-1,-4.0772133E-2],"categories":[],"categories_nodes":[],"categories_segments":[],"categories_sizes":[],"default_left":[1,1,1,0,0,0,0],"id":99,"left_children":[1,3,5,-1,-1,-1,-1],"loss_changes":[1.2617683E2,7.2364456E1,2.4008778E1,0E0,0E0,0E0,0E0],"parents":[2147483647,0,0,1,1,2,2],"right_children":[2,4,6,-1,-1,-1,-1],"split_conditions":[2.15E1,-1.75E0,-6.3500004E0,3.748841E-3,9.701075E-4,-2.8595151E-3,-4.0772132E-4],"split_indices":[29,77,25,0,0,0,0],"split_type":[0,0,0,0,0,0,0],"sum_hessian":[6.049656E3,4.4012983E3,1.648357E3,1.3529486E3,3.0483499E3,6.784926E2,9.6986444E2],"tree_param":{"num_deleted":"0","num_feature":"104","num_nodes":"7","size_leaf_vector":"0"}},{"base_weights":[-9.3217365E-2,2.9530518E-3,-3.0717117E-1,-2.0002122E-1,9.522535E-2,-3.712597E-1,-6.380091E-2],"categories":[],"categories_nodes":[],"categories_segments":[],"categories_sizes":[],"default_left":[1,1,1,0,0,0,0],"id":100,"left_children":[1,3,5,-1,-1,-1,-1],"loss_changes":[1.2445311E2,7.818917E1,2.9231094E1,0E0,0E0,0E0,0E0],"parents":[2147483647,0,0,1,1,2,2],"right_children":[2,4,6,-1,-1,-1,-1],"split_conditions":[2.85E0,-1.95E0,4.8500004E0,-2.0002122E-3,9.5225347E-4,-3.7125968E-3,-6.3800905E-4],"split_indices":[25,77,77,0,0,0,0],"split_type":[0,0,0,0,0,0,0],"sum_hessian":[6.047408E3,4.1727695E3,1.8746384E3,1.303735E3,2.8690347E3,1.4834617E3,3.9117673E2],"tree_param":{"num_deleted":"0","num_feature":"104","num_nodes":"7","size_leaf_vector":"0"}},{"base_weights":[9.321739E-2,-2.9530358E-3,3.071712E-1,2.0002124E-1,-9.5225334E-2,3.7125972E-1,6.3801E-2],"categories":[],"categories_nodes":[],"categories_segments":[],"categories_sizes":[],"default_left":[1,1,1,0,0,0,0],"id":101,"left_children":[1,3,5,-1,-1,-1,-1],"loss_changes":[1.24453125E2,7.818917E1,2.923108E1,0E0,0E0,0E0,0E0],"parents":[2147483647,0,0,1,1,2,2],"right_children":[2,4,6,-1,-1,-1,-1],"split_conditions":[2.85E0,-1.95E0,4.8500004E0,2.0002124E-3,-9.522533E-4,3.712597E-3,6.3801E-4],"split_indices":[25,77,77,0,0,0,0],"split_type":[0,0,0,0,0,0,0],"sum_hessian":[6.047408E3,4.1727695E3,1.8746384E3,1.303735E3,2.8690347E3,1.4834617E3,3.9117673E2],"tree_param":{"num_deleted":"0","num_feature":"104","num_nodes":"7","size_leaf_vector":"0"}},{"base_weights":[-9.2320874E-2,1.337275E-1,-1.8244347E-1,-2.2107845E-2,2.2181879E-1,8.219522E-3,-2.6840442E-1],"categories":[],"categories_nodes":[],"categories_segments":[],"categories_sizes":[],"default_left":[1,1,1,0,0,0,0],"id":102,"left_children":[1,3,5,-1,-1,-1,-1],"loss_changes":[1.2319732E2,2.3671516E1,7.085712E1,0E0,0E0,0E0,0E0],"parents":[2147483647,0,0,1,1,2,2],"right_children":[2,4,6,-1,-1,-1,-1],"split_conditions":[-2.45E0,-1.45E0,8.5E0,-2.2107844E-4,2.2181878E-3,8.219522E-5,-2.6840442E-3],"split_indices":[25,77,103,0,0,0,0],"split_type":[0,0,0,0,0,0,0],"sum_hessian":[6.045168E3,1.723E3,4.322168E3,6.2251196E2,1.100488E3,1.3433959E3,2.978772E3],"tree_param":{"num_deleted":"0","num_feature":"104","num_nodes":"7","size_leaf_vector":"0"}},{"base_weights":[9.2320874E-2,-1.337275E-1,1.8244345E-1,2.2107862E-2,-2.2181879E-1,-8.21952E-3,2.6840442E-1],"categories":[],"categories_nodes":[],"categories_segments":[],"categories_sizes":[],"default_left":[1,1,1,0,0,0,0],"id":103,"left_children":[1,3,5,-1,-1,-1,-1],"loss_changes":[1.2319732E2,2.3671518E1,7.08571E1,0E0,0E0,0E0,0E0],"parents":[2147483647,0,0,1,1,2,2],"right_children":[2,4,6,-1,-1,-1,-1],"split_conditions":[-2.45E0,-1.45E0,8.5E0,2.2107862E-4,-2.2181878E-3,-8.21952E-5,2.6840442E-3],"split_indices":[25,77,103,0,0,0,0],"split_type":[0,0,0,0,0,0,0],"sum_hessian":[6.045168E3,1.7229999E3,4.322168E3,6.2251196E2,1.100488E3,1.3433959E3,2.978772E3],"tree_param":{"num_deleted":"0","num_feature":"104","num_nodes":"7","size_leaf_vector":"0"}},{"base_weights":[-9.1434844E-2,4.351459E-2,-2.4036856E-1,-6.934377E-2,2.003874E-1,-3.0324236E-1,-1.1934761E-3],"categories":[],"categories_nodes":[],"categories_segments":[],"categories_sizes":[],"default_left":[1,1,1,0,0,0,0],"id":104,"left_children":[1,3,5,-1,-1,-1,-1],"loss_changes":[1.2148071E2,5.6164776E1,4.3205856E1,0E0,0E0,0E0,0E0],"parents":[2147483647,0,0,1,1,2,2],"right_children":[2,4,6,-1,-1,-1,-1],"split_conditions":[5.5E-1,5.445E-1,4.8500004E0,-6.9343764E-4,2.003874E-3,-3.0324236E-3,-1.19347615E-5],"split_indices":[25,55,77,0,0,0,0],"split_type":[0,0,0,0,0,0,0],"sum_hessian":[6.042741E3,3.1705767E3,2.8721646E3,1.8442986E3,1.3262781E3,2.274089E3,5.980753E2],"tree_param":{"num_deleted":"0","num_feature":"104","num_nodes":"7","size_leaf_vector":"0"}},{"base_weights":[9.1434844E-2,-4.35146E-2,2.4036856E-1,6.934376E-2,-2.0038742E-1,3.0324236E-1,1.1935349E-3],"categories":[],"categories_nodes":[],"categories_segments":[],"categories_sizes":[],"default_left":[1,1,1,0,0,0,0],"id":105,"left_children":[1,3,5,-1,-1,-1,-1],"loss_changes":[1.2148073E2,5.616479E1,4.3205826E1,0E0,0E0,0E0,0E0],"parents":[2147483647,0,0,1,1,2,2],"right_children":[2,4,6,-1,-1,-1,-1],"split_conditions":[5.5E-1,5.445E-1,4.8500004E0,6.934376E-4,-2.0038742E-3,3.0324236E-3,1.1935349E-5],"split_indices":[25,55,77,0,0,0,0],"split_type":[0,0,0,0,0,0,0],"sum_hessian":[6.042741E3,3.1705767E3,2.8721646E3,1.8442986E3,1.3262781E3,2.274089E3,5.980753E2],"tree_param":{"num_deleted":"0","num_feature":"104","num_nodes":"7","size_leaf_vector":"0"}},{"base_weights":[-9.055928E-2,2.1232949E-1,-1.5604936E-1,-6.851697E-2,2.5930998E-1,-3.4821117E-1,-7.004559E-2],"categories":[],"categories_nodes":[],"categories_segments":[],"categories_sizes":[],"default_left":[1,1,1,0,0,0,0],"id":106,"left_children":[1,3,5,-1,-1,-1,-1],"loss_changes":[1.1986769E2,1.4194038E1,8.207633E1,0E0,0E0,0E0,0E0],"parents":[2147483647,0,0,1,1,2,2],"right_children":[2,4,6,-1,-1,-1,-1],"split_conditions":[-4.6499996E0,3.5E0,-1.75E0,-6.8516965E-4,2.5930996E-3,-3.4821117E-3,-7.004559E-4],"split_indices":[25,53,77,0,0,0,0],"split_type":[0,0,0,0,0,0,0],"sum_hessian":[6.040203E3,1.0734236E3,4.96678E3,1.5376535E2,9.196582E2,1.5346957E3,3.432084E3],"tree_param":{"num_deleted":"0","num_feature":"104","num_nodes":"7","size_leaf_vector":"0"}},{"base_weights":[9.0559274E-2,-2.1232949E-1,1.5604936E-1,6.8516955E-2,-2.5930998E-1,3.482112E-1,7.004558E-2],"categories":[],"categories_nodes":[],"categories_segments":[],"categories_sizes":[],"default_left":[1,1,1,0,0,0,0],"id":107,"left_children":[1,3,5,-1,-1,-1,-1],"loss_changes":[1.1986769E2,1.4194038E1,8.207633E1,0E0,0E0,0E0,0E0],"parents":[2147483647,0,0,1,1,2,2],"right_children":[2,4,6,-1,-1,-1,-1],"split_conditions":[-4.6499996E0,3.5E0,-1.75E0,6.8516954E-4,-2.5930996E-3,3.482112E-3,7.004558E-4],"split_indices":[25,53,77,0,0,0,0],"split_type":[0,0,0,0,0,0,0],"sum_hessian":[6.040203E3,1.0734236E3,4.96678E3,1.5376535E2,9.196582E2,1.5346957E3,3.432084E3],"tree_param":{"num_deleted":"0","num_feature":"104","num_nodes":"7","size_leaf_vector":"0"}},{"base_weights":[-8.9687236E-2,4.3422123E-3,-2.9923886E-1,-1.9350392E-1,9.417229E-2,-3.6178523E-1,-6.25001E-2],"categories":[],"categories_nodes":[],"categories_segments":[],"categories_sizes":[],"default_left":[1,1,1,0,0,0,0],"id":108,"left_children":[1,3,5,-1,-1,-1,-1],"loss_changes":[1.1899387E2,7.4120804E1,2.7674133E1,0E0,0E0,0E0,0E0],"parents":[2147483647,0,0,1,1,2,2],"right_children":[2,4,6,-1,-1,-1,-1],"split_conditions":[2.85E0,-1.95E0,4.8500004E0,-1.9350391E-3,9.417229E-4,-3.6178522E-3,-6.25001E-4],"split_indices":[25,77,77,0,0,0,0],"split_type":[0,0,0,0,0,0,0],"sum_hessian":[6.0379985E3,4.1685E3,1.8694988E3,1.3012998E3,2.8672E3,1.4783822E3,3.9111658E2],"tree_param":{"num_deleted":"0","num_feature":"104","num_nodes":"7","size_leaf_vector":"0"}},{"base_weights":[8.9687236E-2,-4.3422095E-3,2.9923886E-1,1.9350393E-1,-9.417229E-2,3.617852E-1,6.250012E-2],"categories":[],"categories_nodes":[],"categories_segments":[],"categories_sizes":[],"default_left":[1,1,1,0,0,0,0],"id":109,"left_children":[1,3,5,-1,-1,-1,-1],"loss_changes":[1.1899386E2,7.4120804E1,2.7674133E1,0E0,0E0,0E0,0E0],"parents":[2147483647,0,0,1,1,2,2],"right_children":[2,4,6,-1,-1,-1,-1],"split_conditions":[2.85E0,-1.95E0,4.8500004E0,1.9350393E-3,-9.417229E-4,3.617852E-3,6.2500115E-4],"split_indices":[25,77,77,0,0,0,0],"split_type":[0,0,0,0,0,0,0],"sum_hessian":[6.0379985E3,4.1685E3,1.8694988E3,1.3012998E3,2.8672E3,1.4783822E3,3.911166E2],"tree_param":{"num_deleted":"0","num_feature":"104","num_nodes":"7","size_leaf_vector":"0"}},{"base_weights":[-8.882599E-2,8.929592E-2,-1.9804552E-1,-1.3985775E-1,1.5162918E-1,-2.8639194E-1,-1.7013885E-2],"categories":[],"categories_nodes":[],"categories_segments":[],"categories_sizes":[],"default_left":[1,1,1,0,0,0,0],"id":110,"left_children":[1,3,5,-1,-1,-1,-1],"loss_changes":[1.1745752E2,3.280633E1,5.984958E1,0E0,0E0,0E0,0E0],"parents":[2147483647,0,0,1,1,2,2],"right_children":[2,4,6,-1,-1,-1,-1],"split_conditions":[4.595E-1,3.585E-1,2.95E0,-1.3985775E-3,1.5162918E-3,-2.8639194E-3,-1.7013885E-4],"split_indices":[3,55,77,0,0,0,0],"split_type":[0,0,0,0,0,0,0],"sum_hessian":[6.0356753E3,2.2942515E3,3.7414238E3,4.9035004E2,1.8039014E3,2.5139788E3,1.2274452E3],"tree_param":{"num_deleted":"0","num_feature":"104","num_nodes":"7","size_leaf_vector":"0"}},{"base_weights":[8.882599E-2,-8.929592E-2,1.9804552E-1,1.3985775E-1,-1.5162918E-1,2.8639194E-1,1.70139E-2],"categories":[],"categories_nodes":[],"categories_segments":[],"categories_sizes":[],"default_left":[1,1,1,0,0,0,0],"id":111,"left_children":[1,3,5,-1,-1,-1,-1],"loss_changes":[1.1745752E2,3.2806335E1,5.9849594E1,0E0,0E0,0E0,0E0],"parents":[2147483647,0,0,1,1,2,2],"right_children":[2,4,6,-1,-1,-1,-1],"split_conditions":[4.595E-1,3.585E-1,2.95E0,1.3985775E-3,-1.5162918E-3,2.8639194E-3,1.70139E-4],"split_indices":[3,55,77,0,0,0,0],"split_type":[0,0,0,0,0,0,0],"sum_hessian":[6.0356753E3,2.2942515E3,3.7414238E3,4.9035004E2,1.8039014E3,2.5139785E3,1.2274452E3],"tree_param":{"num_deleted":"0","num_feature":"104","num_nodes":"7","size_leaf_vector":"0"}},{"base_weights":[-8.797633E-2,4.7281436E-3,-2.9480928E-1,-1.7060174E-1,1.03494264E-1,-3.5650793E-1,-6.1721373E-2],"categories":[],"categories_nodes":[],"categories_segments":[],"categories_sizes":[],"default_left":[1,1,1,0,0,0,0],"id":112,"left_children":[1,3,5,-1,-1,-1,-1],"loss_changes":[1.1570116E2,7.218607E1,2.683519E1,0E0,0E0,0E0,0E0],"parents":[2147483647,0,0,1,1,2,2],"right_children":[2,4,6,-1,-1,-1,-1],"split_conditions":[2.85E0,4.495E-1,4.8500004E0,-1.7060174E-3,1.0349426E-3,-3.5650793E-3,-6.172137E-4],"split_indices":[25,55,77,0,0,0,0],"split_type":[0,0,0,0,0,0,0],"sum_hessian":[6.0330938E3,4.1665737E3,1.8665203E3,1.5010962E3,2.6654775E3,1.4754402E3,3.9108014E2],"tree_param":{"num_deleted":"0","num_feature":"104","num_nodes":"7","size_leaf_vector":"0"}},{"base_weights":[8.7976314E-2,-4.728148E-3,2.9480925E-1,1.7060173E-1,-1.0349426E-1,3.5650787E-1,6.1721295E-2],"categories":[],"categories_nodes":[],"categories_segments":[],"categories_sizes":[],"default_left":[1,1,1,0,0,0,0],"id":113,"left_children":[1,3,5,-1,-1,-1,-1],"loss_changes":[1.1570114E2,7.2186066E1,2.683519E1,0E0,0E0,0E0,0E0],"parents":[2147483647,0,0,1,1,2,2],"right_children":[2,4,6,-1,-1,-1,-1],"split_conditions":[2.85E0,4.495E-1,4.8500004E0,1.7060172E-3,-1.0349426E-3,3.5650786E-3,6.1721297E-4],"split_indices":[25,55,77,0,0,0,0],"split_type":[0,0,0,0,0,0,0],"sum_hessian":[6.0330938E3,4.1665737E3,1.8665203E3,1.5010962E3,2.6654775E3,1.4754402E3,3.9108014E2],"tree_param":{"num_deleted":"0","num_feature":"104","num_nodes":"7","size_leaf_vector":"0"}},{"base_weights":[-8.713168E-2,2.0954391E-1,-1.5134002E-1,-6.65954E-2,2.557497E-1,-3.3916277E-1,-6.750193E-2],"categories":[],"categories_nodes":[],"categories_segments":[],"categories_sizes":[],"default_left":[1,1,1,0,0,0,0],"id":114,"left_children":[1,3,5,-1,-1,-1,-1],"loss_changes":[1.14930954E2,1.3715191E1,7.806765E1,0E0,0E0,0E0,0E0],"parents":[2147483647,0,0,1,1,2,2],"right_children":[2,4,6,-1,-1,-1,-1],"split_conditions":[-4.6499996E0,3.5E0,-1.75E0,-6.6595396E-4,2.557497E-3,-3.3916277E-3,-6.750193E-4],"split_indices":[25,53,77,0,0,0,0],"split_type":[0,0,0,0,0,0,0],"sum_hessian":[6.0307573E3,1.0725875E3,4.95817E3,1.536843E2,9.1890326E2,1.5292164E3,3.4289534E3],"tree_param":{"num_deleted":"0","num_feature":"104","num_nodes":"7","size_leaf_vector":"0"}},{"base_weights":[8.713169E-2,-2.095439E-1,1.5134004E-1,6.65954E-2,-2.557497E-1,3.3916277E-1,6.750193E-2],"categories":[],"categories_nodes":[],"categories_segments":[],"categories_sizes":[],"default_left":[1,1,1,0,0,0,0],"id":115,"left_children":[1,3,5,-1,-1,-1,-1],"loss_changes":[1.1493095E2,1.3715187E1,7.8067665E1,0E0,0E0,0E0,0E0],"parents":[2147483647,0,0,1,1,2,2],"right_children":[2,4,6,-1,-1,-1,-1],"split_conditions":[-4.6499996E0,3.5E0,-1.75E0,6.6595396E-4,-2.557497E-3,3.3916277E-3,6.750193E-4],"split_indices":[25,53,77,0,0,0,0],"split_type":[0,0,0,0,0,0,0],"sum_hessian":[6.0307573E3,1.0725875E3,4.95817E3,1.536843E2,9.1890326E2,1.5292163E3,3.4289534E3],"tree_param":{"num_deleted":"0","num_feature":"104","num_nodes":"7","size_leaf_vector":"0"}},{"base_weights":[-8.6293675E-2,-1.766474E-1,1.2153704E-1,-1.11730985E-1,-4.0287593E-1,2.797515E-1,2.6086427E-2],"categories":[],"categories_nodes":[],"categories_segments":[],"categories_sizes":[],"default_left":[1,1,1,0,0,0,0],"id":116,"left_children":[1,3,5,-1,-1,-1,-1],"loss_changes":[1.1324481E2,6.167827E1,2.759257E1,0E0,0E0,0E0,0E0],"parents":[2147483647,0,0,1,1,2,2],"right_children":[2,4,6,-1,-1,-1,-1],"split_conditions":[1.95E1,2.15E1,-6.25E0,-1.1173098E-3,-4.0287594E-3,2.7975151E-3,2.6086427E-4],"split_indices":[28,80,25,0,0,0,0],"split_type":[0,0,0,0,0,0,0],"sum_hessian":[6.028485E3,4.2018813E3,1.8266039E3,3.2661511E3,9.3573E2,6.865988E2,1.140005E3],"tree_param":{"num_deleted":"0","num_feature":"104","num_nodes":"7","size_leaf_vector":"0"}},{"base_weights":[8.629368E-2,1.766474E-1,-1.21537045E-1,1.11730985E-1,4.02876E-1,-2.7975154E-1,-2.6086424E-2],"categories":[],"categories_nodes":[],"categories_segments":[],"categories_sizes":[],"default_left":[1,1,1,0,0,0,0],"id":117,"left_children":[1,3,5,-1,-1,-1,-1],"loss_changes":[1.13244835E2,6.167827E1,2.7592575E1,0E0,0E0,0E0,0E0],"parents":[2147483647,0,0,1,1,2,2],"right_children":[2,4,6,-1,-1,-1,-1],"split_conditions":[1.95E1,2.15E1,-6.25E0,1.1173098E-3,4.02876E-3,-2.7975154E-3,-2.6086424E-4],"split_indices":[28,80,25,0,0,0,0],"split_type":[0,0,0,0,0,0,0],"sum_hessian":[6.028485E3,4.201881E3,1.8266039E3,3.2661511E3,9.3573E2,6.865988E2,1.140005E3],"tree_param":{"num_deleted":"0","num_feature":"104","num_nodes":"7","size_leaf_vector":"0"}},{"base_weights":[-8.546533E-2,5.7692532E-3,-2.8929502E-1,-1.6642472E-1,1.0265791E-1,-3.503055E-1,-5.9335522E-2],"categories":[],"categories_nodes":[],"categories_segments":[],"categories_sizes":[],"default_left":[1,1,1,0,0,0,0],"id":118,"left_children":[1,3,5,-1,-1,-1,-1],"loss_changes":[1.1208361E2,6.949594E1,2.612561E1,0E0,0E0,0E0,0E0],"parents":[2147483647,0,0,1,1,2,2],"right_children":[2,4,6,-1,-1,-1,-1],"split_conditions":[2.85E0,4.495E-1,4.8500004E0,-1.6642471E-3,1.0265791E-3,-3.5030548E-3,-5.933552E-4],"split_indices":[25,55,77,0,0,0,0],"split_type":[0,0,0,0,0,0,0],"sum_hessian":[6.026105E3,4.1634897E3,1.862615E3,1.4988905E3,2.6645994E3,1.4716489E3,3.9096603E2],"tree_param":{"num_deleted":"0","num_feature":"104","num_nodes":"7","size_leaf_vector":"0"}},{"base_weights":[8.546535E-2,-5.7692523E-3,2.8929505E-1,1.664247E-1,-1.026579E-1,3.5030553E-1,5.9335634E-2],"categories":[],"categories_nodes":[],"categories_segments":[],"categories_sizes":[],"default_left":[1,1,1,0,0,0,0],"id":119,"left_children":[1,3,5,-1,-1,-1,-1],"loss_changes":[1.1208366E2,6.949593E1,2.6125595E1,0E0,0E0,0E0,0E0],"parents":[2147483647,0,0,1,1,2,2],"right_children":[2,4,6,-1,-1,-1,-1],"split_conditions":[2.85E0,4.495E-1,4.8500004E0,1.664247E-3,-1.026579E-3,3.5030553E-3,5.933563E-4],"split_indices":[25,55,77,0,0,0,0],"split_type":[0,0,0,0,0,0,0],"sum_hessian":[6.026105E3,4.1634897E3,1.862615E3,1.4988905E3,2.6645994E3,1.4716489E3,3.9096603E2],"tree_param":{"num_deleted":"0","num_feature":"104","num_nodes":"7","size_leaf_vector":"0"}},{"base_weights":[-8.464551E-2,-1.5716112E-1,1.6765365E-1,4.2865712E-2,-2.3095788E-1,6.6386305E-2,2.8151026E-1],"categories":[],"categories_nodes":[],"categories_segments":[],"categories_sizes":[],"default_left":[1,1,1,0,0,0,0],"id":120,"left_children":[1,3,5,-1,-1,-1,-1],"loss_changes":[1.102524E2,6.909599E1,1.5495052E1,0E0,0E0,0E0,0E0],"parents":[2147483647,0,0,1,1,2,2],"right_children":[2,4,6,-1,-1,-1,-1],"split_conditions":[2.35E1,7.5E0,3.5000002E-1,4.286571E-4,-2.3095787E-3,6.6386303E-4,2.8151025E-3],"split_indices":[51,103,77,0,0,0,0],"split_type":[0,0,0,0,0,0,0],"sum_hessian":[6.0237217E3,4.6792056E3,1.3445162E3,1.2611812E3,3.4180242E3,7.124372E2,6.3207904E2],"tree_param":{"num_deleted":"0","num_feature":"104","num_nodes":"7","size_leaf_vector":"0"}},{"base_weights":[8.464552E-2,1.5716113E-1,-1.6765365E-1,-4.286571E-2,2.309579E-1,-6.6386305E-2,-2.8151026E-1],"categories":[],"categories_nodes":[],"categories_segments":[],"categories_sizes":[],"default_left":[1,1,1,0,0,0,0],"id":121,"left_children":[1,3,5,-1,-1,-1,-1],"loss_changes":[1.10252426E2,6.909598E1,1.5495056E1,0E0,0E0,0E0,0E0],"parents":[2147483647,0,0,1,1,2,2],"right_children":[2,4,6,-1,-1,-1,-1],"split_conditions":[2.35E1,7.5E0,3.5000002E-1,-4.2865708E-4,2.309579E-3,-6.6386303E-4,-2.8151025E-3],"split_indices":[51,103,77,0,0,0,0],"split_type":[0,0,0,0,0,0,0],"sum_hessian":[6.0237217E3,4.6792056E3,1.3445162E3,1.2611812E3,3.4180242E3,7.124372E2,6.3207904E2],"tree_param":{"num_deleted":"0","num_feature":"104","num_nodes":"7","size_leaf_vector":"0"}},{"base_weights":[-8.383263E-2,6.2577096E-3,-2.8532627E-1,-1.8338686E-1,9.2157945E-2,-3.4546727E-1,-5.9076294E-2],"categories":[],"categories_nodes":[],"categories_segments":[],"categories_sizes":[],"default_left":[1,1,1,0,0,0,0],"id":122,"left_children":[1,3,5,-1,-1,-1,-1],"loss_changes":[1.09322586E2,6.782752E1,2.529834E1,0E0,0E0,0E0,0E0],"parents":[2147483647,0,0,1,1,2,2],"right_children":[2,4,6,-1,-1,-1,-1],"split_conditions":[2.85E0,-1.95E0,4.8500004E0,-1.8338686E-3,9.215794E-4,-3.4546726E-3,-5.9076294E-4],"split_indices":[25,77,77,0,0,0,0],"split_type":[0,0,0,0,0,0,0],"sum_hessian":[6.0213115E3,4.161584E3,1.8597278E3,1.2970071E3,2.864577E3,1.4687759E3,3.909519E2],"tree_param":{"num_deleted":"0","num_feature":"104","num_nodes":"7","size_leaf_vector":"0"}},{"base_weights":[8.383264E-2,-6.257696E-3,2.8532624E-1,1.8338688E-1,-9.215793E-2,3.4546724E-1,5.9076324E-2],"categories":[],"categories_nodes":[],"categories_segments":[],"categories_sizes":[],"default_left":[1,1,1,0,0,0,0],"id":123,"left_children":[1,3,5,-1,-1,-1,-1],"loss_changes":[1.09322556E2,6.782753E1,2.529831E1,0E0,0E0,0E0,0E0],"parents":[2147483647,0,0,1,1,2,2],"right_children":[2,4,6,-1,-1,-1,-1],"split_conditions":[2.85E0,-1.95E0,4.8500004E0,1.8338687E-3,-9.2157925E-4,3.4546724E-3,5.9076323E-4],"split_indices":[25,77,77,0,0,0,0],"split_type":[0,0,0,0,0,0,0],"sum_hessian":[6.021312E3,4.161584E3,1.8597278E3,1.2970071E3,2.864577E3,1.4687759E3,3.9095193E2],"tree_param":{"num_deleted":"0","num_feature":"104","num_nodes":"7","size_leaf_vector":"0"}},{"base_weights":[-8.3029434E-2,-2.2015601E-1,4.761E-2,-1.6292238E-1,-4.707749E-1,-5.822431E-2,1.9452113E-1],"categories":[],"categories_nodes":[],"categories_segments":[],"categories_sizes":[],"default_left":[1,1,1,0,0,0,0],"id":124,"left_children":[1,3,5,-1,-1,-1,-1],"loss_changes":[1.0785122E2,4.2053864E1,4.7957077E1,0E0,0E0,0E0,0E0],"parents":[2147483647,0,0,1,1,2,2],"right_children":[2,4,6,-1,-1,-1,-1],"split_conditions":[1.45E1,2.25E1,5.445E-1,-1.6292238E-3,-4.707749E-3,-5.822431E-4,1.9452112E-3],"split_indices":[51,80,55,0,0,0,0],"split_type":[0,0,0,0,0,0,0],"sum_hessian":[6.0188677E3,2.9361902E3,3.0826775E3,2.391659E3,5.445312E2,1.7921919E3,1.2904856E3],"tree_param":{"num_deleted":"0","num_feature":"104","num_nodes":"7","size_leaf_vector":"0"}},{"base_weights":[8.3029434E-2,2.2015603E-1,-4.7610004E-2,1.6292238E-1,4.7077498E-1,5.8224306E-2,-1.9452114E-1],"categories":[],"categories_nodes":[],"categories_segments":[],"categories_sizes":[],"default_left":[1,1,1,0,0,0,0],"id":125,"left_children":[1,3,5,-1,-1,-1,-1],"loss_changes":[1.0785123E2,4.205388E1,4.795708E1,0E0,0E0,0E0,0E0],"parents":[2147483647,0,0,1,1,2,2],"right_children":[2,4,6,-1,-1,-1,-1],"split_conditions":[1.45E1,2.25E1,5.445E-1,1.6292238E-3,4.7077495E-3,5.82243E-4,-1.9452114E-3],"split_indices":[51,80,55,0,0,0,0],"split_type":[0,0,0,0,0,0,0],"sum_hessian":[6.0188677E3,2.9361902E3,3.0826775E3,2.391659E3,5.445312E2,1.7921919E3,1.2904856E3],"tree_param":{"num_deleted":"0","num_feature":"104","num_nodes":"7","size_leaf_vector":"0"}},{"base_weights":[-8.223779E-2,2.0397778E-1,-1.4426771E-1,-6.611967E-2,2.4920534E-1,-3.2636705E-1,-6.333058E-2],"categories":[],"categories_nodes":[],"categories_segments":[],"categories_sizes":[],"default_left":[1,1,1,0,0,0,0],"id":126,"left_children":[1,3,5,-1,-1,-1,-1],"loss_changes":[1.0685727E2,1.3114243E1,7.287562E1,0E0,0E0,0E0,0E0],"parents":[2147483647,0,0,1,1,2,2],"right_children":[2,4,6,-1,-1,-1,-1],"split_conditions":[-4.6499996E0,3.5E0,-1.75E0,-6.611967E-4,2.4920532E-3,-3.2636705E-3,-6.333058E-4],"split_indices":[25,53,77,0,0,0,0],"split_type":[0,0,0,0,0,0,0],"sum_hessian":[6.016139E3,1.0711945E3,4.944945E3,1.5357687E2,9.176176E2,1.5206416E3,3.4243032E3],"tree_param":{"num_deleted":"0","num_feature":"104","num_nodes":"7","size_leaf_vector":"0"}},{"base_weights":[8.223782E-2,-2.0397776E-1,1.4426774E-1,6.611968E-2,-2.4920534E-1,3.2636708E-1,6.3330606E-2],"categories":[],"categories_nodes":[],"categories_segments":[],"categories_sizes":[],"default_left":[1,1,1,0,0,0,0],"id":127,"left_children":[1,3,5,-1,-1,-1,-1],"loss_changes":[1.06857285E2,1.3114246E1,7.287561E1,0E0,0E0,0E0,0E0],"parents":[2147483647,0,0,1,1,2,2],"right_children":[2,4,6,-1,-1,-1,-1],"split_conditions":[-4.6499996E0,3.5E0,-1.75E0,6.6119677E-4,-2.4920532E-3,3.2636707E-3,6.3330604E-4],"split_indices":[25,53,77,0,0,0,0],"split_type":[0,0,0,0,0,0,0],"sum_hessian":[6.016139E3,1.0711946E3,4.944945E3,1.5357687E2,9.176177E2,1.5206416E3,3.4243032E3],"tree_param":{"num_deleted":"0","num_feature":"104","num_nodes":"7","size_leaf_vector":"0"}},{"base_weights":[-8.144814E-2,6.991987E-3,-2.7955824E-1,-1.5977094E-1,1.00685395E-1,-3.3906472E-1,-5.6255665E-2],"categories":[],"categories_nodes":[],"categories_segments":[],"categories_sizes":[],"default_left":[1,1,1,0,0,0,0],