{"learner":{"attributes":{"best_iteration":"499","best_ntree_limit":"500"},"feature_names":[],"feature_types":[],"gradient_booster":{"model":{"gbtree_model_param":{"num_parallel_tree":"1","num_trees":"1000","size_leaf_vector":"0"},"tree_info":[0,1,0,1,0,1,0,1,0,1,0,1,0,1,0,1,0,1,0,1,0,1,0,1,0,1,0,1,0,1,0,1,0,1,0,1,0,1,0,1,0,1,0,1,0,1,0,1,0,1,0,1,0,1,0,1,0,1,0,1,0,1,0,1,0,1,0,1,0,1,0,1,0,1,0,1,0,1,0,1,0,1,0,1,0,1,0,1,0,1,0,1,0,1,0,1,0,1,0,1,0,1,0,1,0,1,0,1,0,1,0,1,0,1,0,1,0,1,0,1,0,1,0,1,0,1,0,1,0,1,0,1,0,1,0,1,0,1,0,1,0,1,0,1,0,1,0,1,0,1,0,1,0,1,0,1,0,1,0,1,0,1,0,1,0,1,0,1,0,1,0,1,0,1,0,1,0,1,0,1,0,1,0,1,0,1,0,1,0,1,0,1,0,1,0,1,0,1,0,1,0,1,0,1,0,1,0,1,0,1,0,1,0,1,0,1,0,1,0,1,0,1,0,1,0,1,0,1,0,1,0,1,0,1,0,1,0,1,0,1,0,1,0,1,0,1,0,1,0,1,0,1,0,1,0,1,0,1,0,1,0,1,0,1,0,1,0,1,0,1,0,1,0,1,0,1,0,1,0,1,0,1,0,1,0,1,0,1,0,1,0,1,0,1,0,1,0,1,0,1,0,1,0,1,0,1,0,1,0,1,0,1,0,1,0,1,0,1,0,1,0,1,0,1,0,1,0,1,0,1,0,1,0,1,0,1,0,1,0,1,0,1,0,1,0,1,0,1,0,1,0,1,0,1,0,1,0,1,0,1,0,1,0,1,0,1,0,1,0,1,0,1,0,1,0,1,0,1,0,1,0,1,0,1,0,1,0,1,0,1,0,1,0,1,0,1,0,1,0,1,0,1,0,1,0,1,0,1,0,1,0,1,0,1,0,1,0,1,0,1,0,1,0,1,0,1,0,1,0,1,0,1,0,1,0,1,0,1,0,1,0,1,0,1,0,1,0,1,0,1,0,1,0,1,0,1,0,1,0,1,0,1,0,1,0,1,0,1,0,1,0,1,0,1,0,1,0,1,0,1,0,1,0,1,0,1,0,1,0,1,0,1,0,1,0,1,0,1,0,1,0,1,0,1,0,1,0,1,0,1,0,1,0,1,0,1,0,1,0,1,0,1,0,1,0,1,0,1,0,1,0,1,0,1,0,1,0,1,0,1,0,1,0,1,0,1,0,1,0,1,0,1,0,1,0,1,0,1,0,1,0,1,0,1,0,1,0,1,0,1,0,1,0,1,0,1,0,1,0,1,0,1,0,1,0,1,0,1,0,1,0,1,0,1,0,1,0,1,0,1,0,1,0,1,0,1,0,1,0,1,0,1,0,1,0,1,0,1,0,1,0,1,0,1,0,1,0,1,0,1,0,1,0,1,0,1,0,1,0,1,0,1,0,1,0,1,0,1,0,1,0,1,0,1,0,1,0,1,0,1,0,1,0,1,0,1,0,1,0,1,0,1,0,1,0,1,0,1,0,1,0,1,0,1,0,1,0,1,0,1,0,1,0,1,0,1,0,1,0,1,0,1,0,1,0,1,0,1,0,1,0,1,0,1,0,1,0,1,0,1,0,1,0,1,0,1,0,1,0,1,0,1,0,1,0,1,0,1,0,1,0,1,0,1,0,1,0,1,0,1,0,1,0,1,0,1,0,1,0,1,0,1,0,1,0,1,0,1,0,1,0,1,0,1,0,1,0,1,0,1,0,1,0,1,0,1,0,1,0,1,0,1,0,1,0,1,0,1,0,1,0,1,0,1,0,1,0,1,0,1,0,1,0,1,0,1,0,1,0,1,0,1,0,1,0,1,0,1,0,1,0,1,0,1,0,1,0,1,0,1,0,1,0,1,0,1,0,1,0,1,0,1,0,1,0,1,0,1,0,1,0,1,0,1,0,1,0,1,0,1,0,1,0,1,0,1,0,1,0,1,0,1,0,1,0,1,0,1,0,1,0,1,0,1,0,1,0,1,0,1,0,1,0,1,0,1,0,1,0,1,0,1,0,1,0,1,0,1,0,1,0,1,0,1,0,1,0,1,0,1,0,1,0,1,0,1,0,1,0,1,0,1,0,1,0,1,0,1,0,1,0,1,0,1,0,1,0,1,0,1,0,1,0,1,0,1,0,1,0,1,0,1,0,1,0,1,0,1,0,1,0,1,0,1,0,1,0,1,0,1,0,1,0,1,0,1,0,1,0,1],"trees":[{"base_weights":[-1.5188117E-1,1.2020793E-1,-3.1631318E-1,-1.2949152E-1,2.3727736E-1,-1.4960238E-1,-5.016593E-1],"categories":[],"categories_nodes":[],"categories_segments":[],"categories_sizes":[],"default_left":[1,1,1,0,0,0,0],"id":0,"left_children":[1,3,5,-1,-1,-1,-1],"loss_changes":[2.741386E2,6.75132E1,1.17928955E2,0E0,0E0,0E0,0E0],"parents":[2147483647,0,0,1,1,2,2],"right_children":[2,4,6,-1,-1,-1,-1],"split_conditions":[4.585E-1,-2.05E0,1.35E1,-1.2949152E-3,2.3727736E-3,-1.4960238E-3,-5.016593E-3],"split_indices":[3,77,80,0,0,0,0],"split_type":[0,0,0,0,0,0,0],"sum_hessian":[6.1255E3,2.3075E3,3.818E3,7.365E2,1.571E3,2.011E3,1.807E3],"tree_param":{"num_deleted":"0","num_feature":"104","num_nodes":"7","size_leaf_vector":"0"}},{"base_weights":[1.5188117E-1,-1.2020793E-1,3.1631318E-1,1.2949152E-1,-2.3727736E-1,1.4960238E-1,5.016593E-1],"categories":[],"categories_nodes":[],"categories_segments":[],"categories_sizes":[],"default_left":[1,1,1,0,0,0,0],"id":1,"left_children":[1,3,5,-1,-1,-1,-1],"loss_changes":[2.741386E2,6.75132E1,1.17928955E2,0E0,0E0,0E0,0E0],"parents":[2147483647,0,0,1,1,2,2],"right_children":[2,4,6,-1,-1,-1,-1],"split_conditions":[4.585E-1,-2.05E0,1.35E1,1.2949152E-3,-2.3727736E-3,1.4960238E-3,5.016593E-3],"split_indices":[3,77,80,0,0,0,0],"split_type":[0,0,0,0,0,0,0],"sum_hessian":[6.1255E3,2.3075E3,3.818E3,7.365E2,1.571E3,2.011E3,1.807E3],"tree_param":{"num_deleted":"0","num_feature":"104","num_nodes":"7","size_leaf_vector":"0"}},{"base_weights":[-1.5036476E-1,-3.6312455E-1,5.6383926E-2,-1.9809833E-1,-5.315012E-1,-2.1378747E-1,1.8446104E-1],"categories":[],"categories_nodes":[],"categories_segments":[],"categories_sizes":[],"default_left":[1,1,1,0,0,0,0],"id":2,"left_children":[1,3,5,-1,-1,-1,-1],"loss_changes":[2.6950916E2,8.3795135E1,1.0758411E2,0E0,0E0,0E0,0E0],"parents":[2147483647,0,0,1,1,2,2],"right_children":[2,4,6,-1,-1,-1,-1],"split_conditions":[1.45E1,1.25E1,-1.95E0,-1.9809832E-3,-5.315012E-3,-2.1378747E-3,1.8446104E-3],"split_indices":[51,80,77,0,0,0,0],"split_type":[0,0,0,0,0,0,0],"sum_hessian":[6.12544E3,3.0184617E3,3.1069783E3,1.5254963E3,1.4929653E3,9.9899207E2,2.1079863E3],"tree_param":{"num_deleted":"0","num_feature":"104","num_nodes":"7","size_leaf_vector":"0"}},{"base_weights":[1.5036471E-1,3.631245E-1,-5.6383952E-2,1.9809821E-1,5.315012E-1,2.1378739E-1,-1.8446106E-1],"categories":[],"categories_nodes":[],"categories_segments":[],"categories_sizes":[],"default_left":[1,1,1,0,0,0,0],"id":3,"left_children":[1,3,5,-1,-1,-1,-1],"loss_changes":[2.6950906E2,8.379523E1,1.0758407E2,0E0,0E0,0E0,0E0],"parents":[2147483647,0,0,1,1,2,2],"right_children":[2,4,6,-1,-1,-1,-1],"split_conditions":[1.45E1,1.25E1,-1.95E0,1.980982E-3,5.315012E-3,2.1378738E-3,-1.8446106E-3],"split_indices":[51,80,77,0,0,0,0],"split_type":[0,0,0,0,0,0,0],"sum_hessian":[6.12544E3,3.0184617E3,3.1069783E3,1.5254963E3,1.4929652E3,9.989921E2,2.107986E3],"tree_param":{"num_deleted":"0","num_feature":"104","num_nodes":"7","size_leaf_vector":"0"}},{"base_weights":[-1.4886625E-1,1.1864276E-1,-3.105357E-1,-4.1543603E-2,2.9512662E-1,-1.4684452E-1,-4.92539E-1],"categories":[],"categories_nodes":[],"categories_segments":[],"categories_sizes":[],"default_left":[1,1,1,0,0,0,0],"id":4,"left_children":[1,3,5,-1,-1,-1,-1],"loss_changes":[2.6498648E2,6.527324E1,1.1369913E2,0E0,0E0,0E0,0E0],"parents":[2147483647,0,0,1,1,2,2],"right_children":[2,4,6,-1,-1,-1,-1],"split_conditions":[4.585E-1,5.135E-1,1.35E1,-4.1543602E-4,2.951266E-3,-1.4684452E-3,-4.92539E-3],"split_indices":[3,55,80,0,0,0,0],"split_type":[0,0,0,0,0,0,0],"sum_hessian":[6.125281E3,2.3074639E3,3.817817E3,1.2099825E3,1.0974814E3,2.0109783E3,1.8068386E3],"tree_param":{"num_deleted":"0","num_feature":"104","num_nodes":"7","size_leaf_vector":"0"}},{"base_weights":[1.4886625E-1,-1.1864279E-1,3.1053573E-1,4.1543536E-2,-2.9512662E-1,1.4684452E-1,4.9253902E-1],"categories":[],"categories_nodes":[],"categories_segments":[],"categories_sizes":[],"default_left":[1,1,1,0,0,0,0],"id":5,"left_children":[1,3,5,-1,-1,-1,-1],"loss_changes":[2.649865E2,6.527322E1,1.1369916E2,0E0,0E0,0E0,0E0],"parents":[2147483647,0,0,1,1,2,2],"right_children":[2,4,6,-1,-1,-1,-1],"split_conditions":[4.585E-1,5.135E-1,1.35E1,4.1543535E-4,-2.951266E-3,1.4684452E-3,4.9253902E-3],"split_indices":[3,55,80,0,0,0,0],"split_type":[0,0,0,0,0,0,0],"sum_hessian":[6.1252812E3,2.3074639E3,3.8178171E3,1.2099825E3,1.0974814E3,2.0109783E3,1.8068387E3],"tree_param":{"num_deleted":"0","num_feature":"104","num_nodes":"7","size_leaf_vector":"0"}},{"base_weights":[-1.4738466E-1,-3.5658503E-1,5.588972E-2,-1.9478263E-1,-5.2170056E-1,-2.1011008E-1,1.8198739E-1],"categories":[],"categories_nodes":[],"categories_segments":[],"categories_sizes":[],"default_left":[1,1,1,0,0,0,0],"id":6,"left_children":[1,3,5,-1,-1,-1,-1],"loss_changes":[2.6052927E2,8.055795E1,1.04282585E2,0E0,0E0,0E0,0E0],"parents":[2147483647,0,0,1,1,2,2],"right_children":[2,4,6,-1,-1,-1,-1],"split_conditions":[1.45E1,1.25E1,-1.95E0,-1.9478262E-3,-5.2170055E-3,-2.1011007E-3,1.8198738E-3],"split_indices":[51,80,77,0,0,0,0],"split_type":[0,0,0,0,0,0,0],"sum_hessian":[6.1250176E3,3.0181382E3,3.1068794E3,1.5254634E3,1.4926748E3,9.989512E2,2.1079282E3],"tree_param":{"num_deleted":"0","num_feature":"104","num_nodes":"7","size_leaf_vector":"0"}},{"base_weights":[1.4738461E-1,3.5658497E-1,-5.588972E-2,1.9478254E-1,5.2170044E-1,2.101101E-1,-1.8198739E-1],"categories":[],"categories_nodes":[],"categories_segments":[],"categories_sizes":[],"default_left":[1,1,1,0,0,0,0],"id":7,"left_children":[1,3,5,-1,-1,-1,-1],"loss_changes":[2.6052917E2,8.055792E1,1.04282585E2,0E0,0E0,0E0,0E0],"parents":[2147483647,0,0,1,1,2,2],"right_children":[2,4,6,-1,-1,-1,-1],"split_conditions":[1.45E1,1.25E1,-1.95E0,1.9478253E-3,5.217004E-3,2.101101E-3,-1.8198738E-3],"split_indices":[51,80,77,0,0,0,0],"split_type":[0,0,0,0,0,0,0],"sum_hessian":[6.1250176E3,3.0181382E3,3.1068794E3,1.5254634E3,1.4926748E3,9.989512E2,2.1079282E3],"tree_param":{"num_deleted":"0","num_feature":"104","num_nodes":"7","size_leaf_vector":"0"}},{"base_weights":[-1.4592075E-1,1.1709844E-1,-3.0489284E-1,-1.8125834E-1,2.0885569E-1,-1.441401E-1,-4.8367003E-1],"categories":[],"categories_nodes":[],"categories_segments":[],"categories_sizes":[],"default_left":[1,1,1,0,0,0,0],"id":8,"left_children":[1,3,5,-1,-1,-1,-1],"loss_changes":[2.561659E2,6.3232765E1,1.09663605E2,0E0,0E0,0E0,0E0],"parents":[2147483647,0,0,1,1,2,2],"right_children":[2,4,6,-1,-1,-1,-1],"split_conditions":[4.585E-1,3.705E-1,1.35E1,-1.8125833E-3,2.0885568E-3,-1.441401E-3,-4.8367E-3],"split_indices":[3,55,80,0,0,0,0],"split_type":[0,0,0,0,0,0,0],"sum_hessian":[6.124654E3,2.307372E3,3.8172817E3,5.424788E2,1.7648933E3,2.0109149E3,1.806367E3],"tree_param":{"num_deleted":"0","num_feature":"104","num_nodes":"7","size_leaf_vector":"0"}},{"base_weights":[1.4592075E-1,-1.1709846E-1,3.0489287E-1,1.8125834E-1,-2.088557E-1,1.441401E-1,4.8367003E-1],"categories":[],"categories_nodes":[],"categories_segments":[],"categories_sizes":[],"default_left":[1,1,1,0,0,0,0],"id":9,"left_children":[1,3,5,-1,-1,-1,-1],"loss_changes":[2.5616595E2,6.3232773E1,1.09663605E2,0E0,0E0,0E0,0E0],"parents":[2147483647,0,0,1,1,2,2],"right_children":[2,4,6,-1,-1,-1,-1],"split_conditions":[4.585E-1,3.705E-1,1.35E1,1.8125833E-3,-2.088557E-3,1.441401E-3,4.8367E-3],"split_indices":[3,55,80,0,0,0,0],"split_type":[0,0,0,0,0,0,0],"sum_hessian":[6.124654E3,2.307372E3,3.817282E3,5.424788E2,1.7648933E3,2.0109149E3,1.8063671E3],"tree_param":{"num_deleted":"0","num_feature":"104","num_nodes":"7","size_leaf_vector":"0"}},{"base_weights":[-1.4447348E-1,-3.502008E-1,5.5395406E-2,-1.915136E-1,-5.1219213E-1,-1.8656777E-1,1.8981324E-1],"categories":[],"categories_nodes":[],"categories_segments":[],"categories_sizes":[],"default_left":[1,1,1,0,0,0,0],"id":10,"left_children":[1,3,5,-1,-1,-1,-1],"loss_changes":[2.5187822E2,7.749524E1,1.0111067E2,0E0,0E0,0E0,0E0],"parents":[2147483647,0,0,1,1,2,2],"right_children":[2,4,6,-1,-1,-1,-1],"split_conditions":[1.45E1,1.25E1,-1.45E0,-1.9151359E-3,-5.121921E-3,-1.8656777E-3,1.8981324E-3],"split_indices":[51,80,77,0,0,0,0],"split_type":[0,0,0,0,0,0,0],"sum_hessian":[6.124196E3,3.0174983E3,3.1066973E3,1.5253969E3,1.4921014E3,1.1093636E3,1.9973337E3],"tree_param":{"num_deleted":"0","num_feature":"104","num_nodes":"7","size_leaf_vector":"0"}},{"base_weights":[1.444735E-1,3.502008E-1,-5.539539E-2,1.9151361E-1,5.1219213E-1,1.8656772E-1,-1.898132E-1],"categories":[],"categories_nodes":[],"categories_segments":[],"categories_sizes":[],"default_left":[1,1,1,0,0,0,0],"id":11,"left_children":[1,3,5,-1,-1,-1,-1],"loss_changes":[2.518782E2,7.749527E1,1.0111064E2,0E0,0E0,0E0,0E0],"parents":[2147483647,0,0,1,1,2,2],"right_children":[2,4,6,-1,-1,-1,-1],"split_conditions":[1.45E1,1.25E1,-1.45E0,1.9151361E-3,5.121921E-3,1.8656772E-3,-1.8981319E-3],"split_indices":[51,80,77,0,0,0,0],"split_type":[0,0,0,0,0,0,0],"sum_hessian":[6.124196E3,3.0174983E3,3.1066975E3,1.5253969E3,1.4921014E3,1.1093636E3,1.9973339E3],"tree_param":{"num_deleted":"0","num_feature":"104","num_nodes":"7","size_leaf_vector":"0"}},{"base_weights":[-1.43043E-1,1.15577936E-1,-2.9938254E-1,-3.99205E-2,2.8690916E-1,-1.4150713E-1,-4.7502506E-1],"categories":[],"categories_nodes":[],"categories_segments":[],"categories_sizes":[],"default_left":[1,1,1,0,0,0,0],"id":12,"left_children":[1,3,5,-1,-1,-1,-1],"loss_changes":[2.4767021E2,6.1506638E1,1.057883E2,0E0,0E0,0E0,0E0],"parents":[2147483647,0,0,1,1,2,2],"right_children":[2,4,6,-1,-1,-1,-1],"split_conditions":[4.585E-1,5.135E-1,1.35E1,-3.9920502E-4,2.8690915E-3,-1.4150713E-3,-4.7502504E-3],"split_indices":[3,55,80,0,0,0,0],"split_type":[0,0,0,0,0,0,0],"sum_hessian":[6.123641E3,2.307227E3,3.816414E3,1.2099008E3,1.0973263E3,2.0108118E3,1.8056023E3],"tree_param":{"num_deleted":"0","num_feature":"104","num_nodes":"7","size_leaf_vector":"0"}},{"base_weights":[1.43043E-1,-1.1557794E-1,2.9938254E-1,3.9920516E-2,-2.869092E-1,1.4150722E-1,4.75025E-1],"categories":[],"categories_nodes":[],"categories_segments":[],"categories_sizes":[],"default_left":[1,1,1,0,0,0,0],"id":13,"left_children":[1,3,5,-1,-1,-1,-1],"loss_changes":[2.4767026E2,6.1506653E1,1.0578821E2,0E0,0E0,0E0,0E0],"parents":[2147483647,0,0,1,1,2,2],"right_children":[2,4,6,-1,-1,-1,-1],"split_conditions":[4.585E-1,5.135E-1,1.35E1,3.9920516E-4,-2.869092E-3,1.4150722E-3,4.75025E-3],"split_indices":[3,55,80,0,0,0,0],"split_type":[0,0,0,0,0,0,0],"sum_hessian":[6.123641E3,2.307227E3,3.816414E3,1.2099008E3,1.0973263E3,2.0108118E3,1.8056023E3],"tree_param":{"num_deleted":"0","num_feature":"104","num_nodes":"7","size_leaf_vector":"0"}},{"base_weights":[-1.416282E-1,-3.4396648E-1,5.490311E-2,-1.8832107E-1,-5.029316E-1,-2.0300768E-1,1.771585E-1],"categories":[],"categories_nodes":[],"categories_segments":[],"categories_sizes":[],"default_left":[1,1,1,0,0,0,0],"id":14,"left_children":[1,3,5,-1,-1,-1,-1],"loss_changes":[2.4354466E2,7.4566284E1,9.801662E1,0E0,0E0,0E0,0E0],"parents":[2147483647,0,0,1,1,2,2],"right_children":[2,4,6,-1,-1,-1,-1],"split_conditions":[1.45E1,1.25E1,-1.95E0,-1.8832106E-3,-5.029316E-3,-2.0300767E-3,1.771585E-3],"split_indices":[51,80,77,0,0,0,0],"split_type":[0,0,0,0,0,0,0],"sum_hessian":[6.122999E3,3.0165586E3,3.1064402E3,1.5252982E3,1.4912605E3,9.987693E2,2.107671E3],"tree_param":{"num_deleted":"0","num_feature":"104","num_nodes":"7","size_leaf_vector":"0"}},{"base_weights":[1.4162816E-1,3.4396642E-1,-5.4903112E-2,1.8832104E-1,5.029315E-1,2.0300771E-1,-1.7715853E-1],"categories":[],"categories_nodes":[],"categories_segments":[],"categories_sizes":[],"default_left":[1,1,1,0,0,0,0],"id":15,"left_children":[1,3,5,-1,-1,-1,-1],"loss_changes":[2.4354457E2,7.456625E1,9.801664E1,0E0,0E0,0E0,0E0],"parents":[2147483647,0,0,1,1,2,2],"right_children":[2,4,6,-1,-1,-1,-1],"split_conditions":[1.45E1,1.25E1,-1.95E0,1.8832104E-3,5.0293147E-3,2.0300772E-3,-1.7715853E-3],"split_indices":[51,80,77,0,0,0,0],"split_type":[0,0,0,0,0,0,0],"sum_hessian":[6.1229985E3,3.0165586E3,3.1064402E3,1.5252981E3,1.4912605E3,9.987693E2,2.107671E3],"tree_param":{"num_deleted":"0","num_feature":"104","num_nodes":"7","size_leaf_vector":"0"}},{"base_weights":[-1.4023027E-1,1.1407311E-1,-2.939942E-1,-1.7529084E-1,2.0306817E-1,-1.3890587E-1,-4.6662349E-1],"categories":[],"categories_nodes":[],"categories_segments":[],"categories_sizes":[],"default_left":[1,1,1,0,0,0,0],"id":16,"left_children":[1,3,5,-1,-1,-1,-1],"loss_changes":[2.3946939E2,5.9471817E1,1.0210635E2,0E0,0E0,0E0,0E0],"parents":[2147483647,0,0,1,1,2,2],"right_children":[2,4,6,-1,-1,-1,-1],"split_conditions":[4.585E-1,3.705E-1,1.35E1,-1.7529083E-3,2.0306816E-3,-1.3890587E-3,-4.666235E-3],"split_indices":[3,55,80,0,0,0,0],"split_type":[0,0,0,0,0,0,0],"sum_hessian":[6.122259E3,2.3070269E3,3.815232E3,5.424152E2,1.7646116E3,2.0106711E3,1.8045608E3],"tree_param":{"num_deleted":"0","num_feature":"104","num_nodes":"7","size_leaf_vector":"0"}},{"base_weights":[1.4023028E-1,-1.14073165E-1,2.9399425E-1,1.7529082E-1,-2.0306824E-1,1.3890591E-1,4.6662354E-1],"categories":[],"categories_nodes":[],"categories_segments":[],"categories_sizes":[],"default_left":[1,1,1,0,0,0,0],"id":17,"left_children":[1,3,5,-1,-1,-1,-1],"loss_changes":[2.3946951E2,5.9471832E1,1.02106415E2,0E0,0E0,0E0,0E0],"parents":[2147483647,0,0,1,1,2,2],"right_children":[2,4,6,-1,-1,-1,-1],"split_conditions":[4.585E-1,3.705E-1,1.35E1,1.7529082E-3,-2.0306823E-3,1.3890591E-3,4.6662353E-3],"split_indices":[3,55,80,0,0,0,0],"split_type":[0,0,0,0,0,0,0],"sum_hessian":[6.122259E3,2.3070269E3,3.815232E3,5.424152E2,1.7646116E3,2.0106711E3,1.8045608E3],"tree_param":{"num_deleted":"0","num_feature":"104","num_nodes":"7","size_leaf_vector":"0"}},{"base_weights":[-1.3884768E-1,-3.3787572E-1,5.4410912E-2,-1.8517293E-1,-4.9393627E-1,-1.8018408E-1,1.8472637E-1],"categories":[],"categories_nodes":[],"categories_segments":[],"categories_sizes":[],"default_left":[1,1,1,0,0,0,0],"id":18,"left_children":[1,3,5,-1,-1,-1,-1],"loss_changes":[2.3551123E2,7.17905E1,9.502167E1,0E0,0E0,0E0,0E0],"parents":[2147483647,0,0,1,1,2,2],"right_children":[2,4,6,-1,-1,-1,-1],"split_conditions":[1.45E1,1.25E1,-1.45E0,-1.8517292E-3,-4.9393624E-3,-1.8018407E-3,1.8472637E-3],"split_indices":[51,80,77,0,0,0,0],"split_type":[0,0,0,0,0,0,0],"sum_hessian":[6.121441E3,3.0153372E3,3.106104E3,1.5251693E3,1.4901677E3,1.1091036E3,1.9970004E3],"tree_param":{"num_deleted":"0","num_feature":"104","num_nodes":"7","size_leaf_vector":"0"}},{"base_weights":[1.3884763E-1,3.3787566E-1,-5.4410942E-2,1.8517283E-1,4.9393627E-1,1.8018404E-1,-1.847264E-1],"categories":[],"categories_nodes":[],"categories_segments":[],"categories_sizes":[],"default_left":[1,1,1,0,0,0,0],"id":19,"left_children":[1,3,5,-1,-1,-1,-1],"loss_changes":[2.355112E2,7.179053E1,9.502166E1,0E0,0E0,0E0,0E0],"parents":[2147483647,0,0,1,1,2,2],"right_children":[2,4,6,-1,-1,-1,-1],"split_conditions":[1.45E1,1.25E1,-1.45E0,1.8517282E-3,4.9393624E-3,1.8018404E-3,-1.847264E-3],"split_indices":[51,80,77,0,0,0,0],"split_type":[0,0,0,0,0,0,0],"sum_hessian":[6.121441E3,3.0153372E3,3.106104E3,1.5251694E3,1.4901677E3,1.1091036E3,1.9970004E3],"tree_param":{"num_deleted":"0","num_feature":"104","num_nodes":"7","size_leaf_vector":"0"}},{"base_weights":[-1.3748102E-1,1.3910976E-1,-2.7427492E-1,-9.4106495E-2,2.5178617E-1,-1.2133887E-1,-4.4414598E-1],"categories":[],"categories_nodes":[],"categories_segments":[],"categories_sizes":[],"default_left":[1,1,1,0,0,0,0],"id":20,"left_children":[1,3,5,-1,-1,-1,-1],"loss_changes":[2.3165201E2,5.327208E1,1.0636243E2,0E0,0E0,0E0,0E0],"parents":[2147483647,0,0,1,1,2,2],"right_children":[2,4,6,-1,-1,-1,-1],"split_conditions":[-1.6500001E0,-2.05E0,1.35E1,-9.410649E-4,2.5178618E-3,-1.2133886E-3,-4.4414597E-3],"split_indices":[25,77,80,0,0,0,0],"split_type":[0,0,0,0,0,0,0],"sum_hessian":[6.1205303E3,2.0253508E3,4.0951797E3,6.5982263E2,1.3655281E3,2.1559119E3,1.9392678E3],"tree_param":{"num_deleted":"0","num_feature":"104","num_nodes":"7","size_leaf_vector":"0"}},{"base_weights":[1.37481E-1,-1.391098E-1,2.7427495E-1,9.410644E-2,-2.517862E-1,1.2133889E-1,4.4414598E-1],"categories":[],"categories_nodes":[],"categories_segments":[],"categories_sizes":[],"default_left":[1,1,1,0,0,0,0],"id":21,"left_children":[1,3,5,-1,-1,-1,-1],"loss_changes":[2.3165207E2,5.3272064E1,1.0636243E2,0E0,0E0,0E0,0E0],"parents":[2147483647,0,0,1,1,2,2],"right_children":[2,4,6,-1,-1,-1,-1],"split_conditions":[-1.6500001E0,-2.05E0,1.35E1,9.410644E-4,-2.517862E-3,1.2133889E-3,4.4414597E-3],"split_indices":[25,77,80,0,0,0,0],"split_type":[0,0,0,0,0,0,0],"sum_hessian":[6.120531E3,2.0253507E3,4.09518E3,6.5982263E2,1.3655281E3,2.155912E3,1.939268E3],"tree_param":{"num_deleted":"0","num_feature":"104","num_nodes":"7","size_leaf_vector":"0"}},{"base_weights":[-1.3612804E-1,1.1202721E-1,-2.8623804E-1,-3.7949067E-2,2.7730364E-1,-6.303031E-2,-4.0158165E-1],"categories":[],"categories_nodes":[],"categories_segments":[],"categories_sizes":[],"default_left":[1,1,1,0,0,0,0],"id":22,"left_children":[1,3,5,-1,-1,-1,-1],"loss_changes":[2.280276E2,5.721095E1,9.816736E1,0E0,0E0,0E0,0E0],"parents":[2147483647,0,0,1,1,2,2],"right_children":[2,4,6,-1,-1,-1,-1],"split_conditions":[4.585E-1,5.135E-1,9.5E0,-3.7949067E-4,2.7730362E-3,-6.303031E-4,-4.0158164E-3],"split_indices":[3,55,103,0,0,0,0],"split_type":[0,0,0,0,0,0,0],"sum_hessian":[6.119589E3,2.3066277E3,3.8129612E3,1.2096915E3,1.0969362E3,1.2995933E3,2.513368E3],"tree_param":{"num_deleted":"0","num_feature":"104","num_nodes":"7","size_leaf_vector":"0"}},{"base_weights":[1.3612807E-1,-1.1202717E-1,2.8623807E-1,3.7949063E-2,-2.7730355E-1,6.30303E-2,4.015817E-1],"categories":[],"categories_nodes":[],"categories_segments":[],"categories_sizes":[],"default_left":[1,1,1,0,0,0,0],"id":23,"left_children":[1,3,5,-1,-1,-1,-1],"loss_changes":[2.2802759E2,5.7210907E1,9.816739E1,0E0,0E0,0E0,0E0],"parents":[2147483647,0,0,1,1,2,2],"right_children":[2,4,6,-1,-1,-1,-1],"split_conditions":[4.585E-1,5.135E-1,9.5E0,3.794906E-4,-2.7730353E-3,6.30303E-4,4.015817E-3],"split_indices":[3,55,103,0,0,0,0],"split_type":[0,0,0,0,0,0,0],"sum_hessian":[6.119589E3,2.3066277E3,3.8129612E3,1.2096915E3,1.0969362E3,1.2995933E3,2.513368E3],"tree_param":{"num_deleted":"0","num_feature":"104","num_nodes":"7","size_leaf_vector":"0"}},{"base_weights":[-1.3478917E-1,-3.2930925E-1,5.3993456E-2,-1.8050131E-1,-4.8156285E-1,-1.943375E-1,1.7169207E-1],"categories":[],"categories_nodes":[],"categories_segments":[],"categories_sizes":[],"default_left":[1,1,1,0,0,0,0],"id":24,"left_children":[1,3,5,-1,-1,-1,-1],"loss_changes":[2.2474179E2,6.8203094E1,9.082962E1,0E0,0E0,0E0,0E0],"parents":[2147483647,0,0,1,1,2,2],"right_children":[2,4,6,-1,-1,-1,-1],"split_conditions":[1.45E1,1.25E1,-1.95E0,-1.805013E-3,-4.8156283E-3,-1.943375E-3,1.7169206E-3],"split_indices":[51,80,77,0,0,0,0],"split_type":[0,0,0,0,0,0,0],"sum_hessian":[6.118599E3,3.01314E3,3.1054595E3,1.5249177E3,1.488222E3,9.9836646E2,2.107093E3],"tree_param":{"num_deleted":"0","num_feature":"104","num_nodes":"7","size_leaf_vector":"0"}},{"base_weights":[1.3478918E-1,3.293093E-1,-5.3993464E-2,1.805014E-1,4.8156282E-1,1.9433744E-1,-1.7169206E-1],"categories":[],"categories_nodes":[],"categories_segments":[],"categories_sizes":[],"default_left":[1,1,1,0,0,0,0],"id":25,"left_children":[1,3,5,-1,-1,-1,-1],"loss_changes":[2.2474185E2,6.820303E1,9.082958E1,0E0,0E0,0E0,0E0],"parents":[2147483647,0,0,1,1,2,2],"right_children":[2,4,6,-1,-1,-1,-1],"split_conditions":[1.45E1,1.25E1,-1.95E0,1.805014E-3,4.8156283E-3,1.9433744E-3,-1.7169205E-3],"split_indices":[51,80,77,0,0,0,0],"split_type":[0,0,0,0,0,0,0],"sum_hessian":[6.118599E3,3.0131396E3,3.1054592E3,1.5249176E3,1.4882219E3,9.9836646E2,2.1070928E3],"tree_param":{"num_deleted":"0","num_feature":"104","num_nodes":"7","size_leaf_vector":"0"}},{"base_weights":[-1.3346766E-1,1.3650943E-1,-2.6704854E-1,-9.057115E-2,2.4623369E-1,-1.6650233E-1,-5.141992E-1],"categories":[],"categories_nodes":[],"categories_segments":[],"categories_sizes":[],"default_left":[1,1,1,0,0,0,0],"id":26,"left_children":[1,3,5,-1,-1,-1,-1],"loss_changes":[2.2069112E2,5.0500607E1,1.0163901E2,0E0,0E0,0E0,0E0],"parents":[2147483647,0,0,1,1,2,2],"right_children":[2,4,6,-1,-1,-1,-1],"split_conditions":[-1.6500001E0,-2.05E0,1.95E1,-9.057115E-4,2.4623368E-3,-1.6650233E-3,-5.1419917E-3],"split_indices":[25,77,80,0,0,0,0],"split_type":[0,0,0,0,0,0,0],"sum_hessian":[6.117456E3,2.024919E3,4.0925369E3,6.5973486E2,1.3651841E3,2.9102559E3,1.1822811E3],"tree_param":{"num_deleted":"0","num_feature":"104","num_nodes":"7","size_leaf_vector":"0"}},{"base_weights":[1.3346769E-1,-1.3650943E-1,2.6704857E-1,9.057115E-2,-2.4623369E-1,1.6650237E-1,5.141992E-1],"categories":[],"categories_nodes":[],"categories_segments":[],"categories_sizes":[],"default_left":[1,1,1,0,0,0,0],"id":27,"left_children":[1,3,5,-1,-1,-1,-1],"loss_changes":[2.2069112E2,5.05006E1,1.0163904E2,0E0,0E0,0E0,0E0],"parents":[2147483647,0,0,1,1,2,2],"right_children":[2,4,6,-1,-1,-1,-1],"split_conditions":[-1.6500001E0,-2.05E0,1.95E1,9.057115E-4,-2.4623368E-3,1.6650236E-3,5.1419917E-3],"split_indices":[25,77,80,0,0,0,0],"split_type":[0,0,0,0,0,0,0],"sum_hessian":[6.1174556E3,2.024919E3,4.0925366E3,6.5973486E2,1.3651841E3,2.9102556E3,1.182281E3],"tree_param":{"num_deleted":"0","num_feature":"104","num_nodes":"7","size_leaf_vector":"0"}},{"base_weights":[-1.3215792E-1,-3.2357588E-1,5.353578E-2,-3.958703E-1,-1.8220367E-2,-1.7206097E-1,1.788353E-1],"categories":[],"categories_nodes":[],"categories_segments":[],"categories_sizes":[],"default_left":[1,1,1,0,0,0,0],"id":28,"left_children":[1,3,5,-1,-1,-1,-1],"loss_changes":[2.1745941E2,6.649286E1,8.782757E1,0E0,0E0,0E0,0E0],"parents":[2147483647,0,0,1,1,2,2],"right_children":[2,4,6,-1,-1,-1,-1],"split_conditions":[1.45E1,5.05E0,-1.45E0,-3.958703E-3,-1.8220367E-4,-1.7206096E-3,1.788353E-3],"split_indices":[51,77,77,0,0,0,0],"split_type":[0,0,0,0,0,0,0],"sum_hessian":[6.1163555E3,3.0113914E3,3.104964E3,2.4346738E3,5.767175E2,1.1086005E3,1.9963638E3],"tree_param":{"num_deleted":"0","num_feature":"104","num_nodes":"7","size_leaf_vector":"0"}},{"base_weights":[1.3215792E-1,3.2357585E-1,-5.3535745E-2,3.9587027E-1,1.8220335E-2,1.7206095E-1,-1.7883523E-1],"categories":[],"categories_nodes":[],"categories_segments":[],"categories_sizes":[],"default_left":[1,1,1,0,0,0,0],"id":29,"left_children":[1,3,5,-1,-1,-1,-1],"loss_changes":[2.1745932E2,6.649283E1,8.782753E1,0E0,0E0,0E0,0E0],"parents":[2147483647,0,0,1,1,2,2],"right_children":[2,4,6,-1,-1,-1,-1],"split_conditions":[1.45E1,5.05E0,-1.45E0,3.9587026E-3,1.8220335E-4,1.7206095E-3,-1.7883523E-3],"split_indices":[51,77,77,0,0,0,0],"split_type":[0,0,0,0,0,0,0],"sum_hessian":[6.1163555E3,3.0113914E3,3.104964E3,2.4346738E3,5.767175E2,1.1086005E3,1.9963638E3],"tree_param":{"num_deleted":"0","num_feature":"104","num_nodes":"7","size_leaf_vector":"0"}},{"base_weights":[-1.3086289E-1,1.09675154E-1,-2.764623E-1,-3.5840005E-2,2.7006778E-1,-5.877396E-2,-3.890829E-1],"categories":[],"categories_nodes":[],"categories_segments":[],"categories_sizes":[],"default_left":[1,1,1,0,0,0,0],"id":30,"left_children":[1,3,5,-1,-1,-1,-1],"loss_changes":[2.1423161E2,5.3852028E1,9.338992E1,0E0,0E0,0E0,0E0],"parents":[2147483647,0,0,1,1,2,2],"right_children":[2,4,6,-1,-1,-1,-1],"split_conditions":[4.585E-1,5.135E-1,9.5E0,-3.5840005E-4,2.7006778E-3,-5.877396E-4,-3.890829E-3],"split_indices":[3,55,103,0,0,0,0],"split_type":[0,0,0,0,0,0,0],"sum_hessian":[6.1151597E3,2.3059133E3,3.8092466E3,1.2094366E3,1.0964768E3,1.299302E3,2.5099443E3],"tree_param":{"num_deleted":"0","num_feature":"104","num_nodes":"7","size_leaf_vector":"0"}},{"base_weights":[1.3086289E-1,-1.0967517E-1,2.7646232E-1,3.5839994E-2,-2.700678E-1,5.8773953E-2,3.8908294E-1],"categories":[],"categories_nodes":[],"categories_segments":[],"categories_sizes":[],"default_left":[1,1,1,0,0,0,0],"id":31,"left_children":[1,3,5,-1,-1,-1,-1],"loss_changes":[2.1423169E2,5.385202E1,9.338989E1,0E0,0E0,0E0,0E0],"parents":[2147483647,0,0,1,1,2,2],"right_children":[2,4,6,-1,-1,-1,-1],"split_conditions":[4.585E-1,5.135E-1,9.5E0,3.5839994E-4,-2.700678E-3,5.877395E-4,3.8908294E-3],"split_indices":[3,55,103,0,0,0,0],"split_type":[0,0,0,0,0,0,0],"sum_hessian":[6.1151597E3,2.3059133E3,3.8092466E3,1.2094366E3,1.0964768E3,1.299302E3,2.5099443E3],"tree_param":{"num_deleted":"0","num_feature":"104","num_nodes":"7","size_leaf_vector":"0"}},{"base_weights":[-1.2958162E-1,-3.1792462E-1,5.3045277E-2,-1.7298949E-1,-4.6647152E-1,-1.6912922E-1,1.7644031E-1],"categories":[],"categories_nodes":[],"categories_segments":[],"categories_sizes":[],"default_left":[1,1,1,0,0,0,0],"id":32,"left_children":[1,3,5,-1,-1,-1,-1],"loss_changes":[2.1034796E2,6.473398E1,8.5165565E1,0E0,0E0,0E0,0E0],"parents":[2147483647,0,0,1,1,2,2],"right_children":[2,4,6,-1,-1,-1,-1],"split_conditions":[1.45E1,1.25E1,-1.45E0,-1.7298949E-3,-4.664715E-3,-1.6912922E-3,1.7644031E-3],"split_indices":[51,80,77,0,0,0,0],"split_type":[0,0,0,0,0,0,0],"sum_hessian":[6.1138984E3,3.0094812E3,3.1044172E3,1.5243544E3,1.4851268E3,1.1083845E3,1.9960326E3],"tree_param":{"num_deleted":"0","num_feature":"104","num_nodes":"7","size_leaf_vector":"0"}},{"base_weights":[1.2958163E-1,3.1792465E-1,-5.304525E-2,1.7298947E-1,4.6647155E-1,1.6912922E-1,-1.7644027E-1],"categories":[],"categories_nodes":[],"categories_segments":[],"categories_sizes":[],"default_left":[1,1,1,0,0,0,0],"id":33,"left_children":[1,3,5,-1,-1,-1,-1],"loss_changes":[2.1034793E2,6.473398E1,8.516554E1,0E0,0E0,0E0,0E0],"parents":[2147483647,0,0,1,1,2,2],"right_children":[2,4,6,-1,-1,-1,-1],"split_conditions":[1.45E1,1.25E1,-1.45E0,1.7298947E-3,4.6647154E-3,1.6912922E-3,-1.7644026E-3],"split_indices":[51,80,77,0,0,0,0],"split_type":[0,0,0,0,0,0,0],"sum_hessian":[6.1138984E3,3.0094812E3,3.1044172E3,1.5243544E3,1.4851268E3,1.1083845E3,1.9960327E3],"tree_param":{"num_deleted":"0","num_feature":"104","num_nodes":"7","size_leaf_vector":"0"}},{"base_weights":[-1.2831707E-1,-2.3491085E-1,1.907038E-1,-8.3327286E-2,-4.0271273E-1,2.6074085E-1,-1.3125308E-1],"categories":[],"categories_nodes":[],"categories_segments":[],"categories_sizes":[],"default_left":[1,1,1,0,0,0,0],"id":34,"left_children":[1,3,5,-1,-1,-1,-1],"loss_changes":[2.0793744E2,1.1653523E2,3.4571297E1,0E0,0E0,0E0,0E0],"parents":[2147483647,0,0,1,1,2,2],"right_children":[2,4,6,-1,-1,-1,-1],"split_conditions":[2.25E1,1.35E1,2.45E1,-8.332728E-4,-4.0271273E-3,2.6074084E-3,-1.3125307E-3],"split_indices":[51,80,81,0,0,0,0],"split_type":[0,0,0,0,0,0,0],"sum_hessian":[6.1124766E3,4.581825E3,1.5306517E3,2.4080308E3,2.1737942E3,1.2573284E3,2.733234E2],"tree_param":{"num_deleted":"0","num_feature":"104","num_nodes":"7","size_leaf_vector":"0"}},{"base_weights":[1.283171E-1,2.3491086E-1,-1.9070376E-1,8.3327286E-2,4.0271273E-1,-2.6074082E-1,1.3125311E-1],"categories":[],"categories_nodes":[],"categories_segments":[],"categories_sizes":[],"default_left":[1,1,1,0,0,0,0],"id":35,"left_children":[1,3,5,-1,-1,-1,-1],"loss_changes":[2.0793744E2,1.1653526E2,3.4571297E1,0E0,0E0,0E0,0E0],"parents":[2147483647,0,0,1,1,2,2],"right_children":[2,4,6,-1,-1,-1,-1],"split_conditions":[2.25E1,1.35E1,2.45E1,8.332728E-4,4.0271273E-3,-2.6074082E-3,1.3125311E-3],"split_indices":[51,80,81,0,0,0,0],"split_type":[0,0,0,0,0,0,0],"sum_hessian":[6.1124766E3,4.581825E3,1.5306517E3,2.4080308E3,2.1737942E3,1.2573284E3,2.733234E2],"tree_param":{"num_deleted":"0","num_feature":"104","num_nodes":"7","size_leaf_vector":"0"}},{"base_weights":[-1.2706225E-1,1.07932344E-1,-2.6939514E-1,-1.6140568E-1,1.9078013E-1,-5.631341E-2,-3.797564E-1],"categories":[],"categories_nodes":[],"categories_segments":[],"categories_sizes":[],"default_left":[1,1,1,0,0,0,0],"id":36,"left_children":[1,3,5,-1,-1,-1,-1],"loss_changes":[2.0446524E2,5.149372E1,8.950058E1,0E0,0E0,0E0,0E0],"parents":[2147483647,0,0,1,1,2,2],"right_children":[2,4,6,-1,-1,-1,-1],"split_conditions":[4.585E-1,3.705E-1,9.5E0,-1.6140568E-3,1.9078013E-3,-5.631341E-4,-3.7975637E-3],"split_indices":[3,55,103,0,0,0,0],"split_type":[0,0,0,0,0,0,0],"sum_hessian":[6.111158E3,2.3053005E3,3.8058577E3,5.420732E2,1.7632272E3,1.2991035E3,2.5067542E3],"tree_param":{"num_deleted":"0","num_feature":"104","num_nodes":"7","size_leaf_vector":"0"}},{"base_weights":[1.2706223E-1,-1.0793235E-1,2.693951E-1,1.6140568E-1,-1.9078015E-1,5.6313418E-2,3.7975636E-1],"categories":[],"categories_nodes":[],"categories_segments":[],"categories_sizes":[],"default_left":[1,1,1,0,0,0,0],"id":37,"left_children":[1,3,5,-1,-1,-1,-1],"loss_changes":[2.0446524E2,5.149373E1,8.950052E1,0E0,0E0,0E0,0E0],"parents":[2147483647,0,0,1,1,2,2],"right_children":[2,4,6,-1,-1,-1,-1],"split_conditions":[4.585E-1,3.705E-1,9.5E0,1.6140568E-3,-1.9078015E-3,5.6313415E-4,3.7975635E-3],"split_indices":[3,55,103,0,0,0,0],"split_type":[0,0,0,0,0,0,0],"sum_hessian":[6.111158E3,2.3053005E3,3.8058577E3,5.4207324E2,1.7632272E3,1.2991036E3,2.5067542E3],"tree_param":{"num_deleted":"0","num_feature":"104","num_nodes":"7","size_leaf_vector":"0"}},{"base_weights":[-1.2582244E-1,1.6398843E-1,-2.3949257E-1,-2.7290633E-2,2.7466297E-1,-9.380115E-2,-4.0118206E-1],"categories":[],"categories_nodes":[],"categories_segments":[],"categories_sizes":[],"default_left":[1,1,1,0,0,0,0],"id":38,"left_children":[1,3,5,-1,-1,-1,-1],"loss_changes":[2.0134335E2,3.6464397E1,1.0336682E2,0E0,0E0,0E0,0E0],"parents":[2147483647,0,0,1,1,2,2],"right_children":[2,4,6,-1,-1,-1,-1],"split_conditions":[-2.45E0,-1.45E0,1.35E1,-2.7290633E-4,2.7466298E-3,-9.3801145E-4,-4.0118205E-3],"split_indices":[25,77,80,0,0,0,0],"split_type":[0,0,0,0,0,0,0],"sum_hessian":[6.109709E3,1.7211245E3,4.3885845E3,6.3111707E2,1.0900074E3,2.3093286E3,2.0792559E3],"tree_param":{"num_deleted":"0","num_feature":"104","num_nodes":"7","size_leaf_vector":"0"}},{"base_weights":[1.2582247E-1,-1.639884E-1,2.3949258E-1,2.7290633E-2,-2.7466294E-1,9.380119E-2,4.0118206E-1],"categories":[],"categories_nodes":[],"categories_segments":[],"categories_sizes":[],"default_left":[1,1,1,0,0,0,0],"id":39,"left_children":[1,3,5,-1,-1,-1,-1],"loss_changes":[2.0134332E2,3.6464386E1,1.0336676E2,0E0,0E0,0E0,0E0],"parents":[2147483647,0,0,1,1,2,2],"right_children":[2,4,6,-1,-1,-1,-1],"split_conditions":[-2.45E0,-1.45E0,1.35E1,2.7290633E-4,-2.7466293E-3,9.380119E-4,4.0118205E-3],"split_indices":[25,77,80,0,0,0,0],"split_type":[0,0,0,0,0,0,0],"sum_hessian":[6.109709E3,1.7211245E3,4.3885845E3,6.31117E2,1.0900074E3,2.3093286E3,2.0792556E3],"tree_param":{"num_deleted":"0","num_feature":"104","num_nodes":"7","size_leaf_vector":"0"}},{"base_weights":[-1.2459562E-1,-3.0795404E-1,5.3021733E-2,-3.7782574E-1,-1.3505396E-2,-1.8088797E-1,1.638441E-1],"categories":[],"categories_nodes":[],"categories_segments":[],"categories_sizes":[],"default_left":[1,1,1,0,0,0,0],"id":40,"left_children":[1,3,5,-1,-1,-1,-1],"loss_changes":[1.9897874E2,6.184268E1,8.049382E1,0E0,0E0,0E0,0E0],"parents":[2147483647,0,0,1,1,2,2],"right_children":[2,4,6,-1,-1,-1,-1],"split_conditions":[1.45E1,5.05E0,-1.95E0,-3.7782572E-3,-1.3505397E-4,-1.8088797E-3,1.6384409E-3],"split_indices":[51,77,77,0,0,0,0],"split_type":[0,0,0,0,0,0,0],"sum_hessian":[6.1082065E3,3.0051687E3,3.1030378E3,2.4285894E3,5.765795E2,9.973424E2,2.1056953E3],"tree_param":{"num_deleted":"0","num_feature":"104","num_nodes":"7","size_leaf_vector":"0"}},{"base_weights":[1.2459562E-1,3.0795404E-1,-5.302172E-2,3.7782574E-1,1.3505396E-2,1.8088794E-1,-1.6384406E-1],"categories":[],"categories_nodes":[],"categories_segments":[],"categories_sizes":[],"default_left":[1,1,1,0,0,0,0],"id":41,"left_children":[1,3,5,-1,-1,-1,-1],"loss_changes":[1.9897874E2,6.184265E1,8.0493805E1,0E0,0E0,0E0,0E0],"parents":[2147483647,0,0,1,1,2,2],"right_children":[2,4,6,-1,-1,-1,-1],"split_conditions":[1.45E1,5.05E0,-1.95E0,3.7782572E-3,1.3505397E-4,1.8088793E-3,-1.6384406E-3],"split_indices":[51,77,77,0,0,0,0],"split_type":[0,0,0,0,0,0,0],"sum_hessian":[6.1082065E3,3.0051687E3,3.1030378E3,2.4285894E3,5.765795E2,9.973424E2,2.1056953E3],"tree_param":{"num_deleted":"0","num_feature":"104","num_nodes":"7","size_leaf_vector":"0"}},{"base_weights":[-1.2338222E-1,-2.2680898E-1,1.859552E-1,-7.95498E-2,-3.9009887E-1,2.539167E-1,-1.2639804E-1],"categories":[],"categories_nodes":[],"categories_segments":[],"categories_sizes":[],"default_left":[1,1,1,0,0,0,0],"id":42,"left_children":[1,3,5,-1,-1,-1,-1],"loss_changes":[1.9544882E2,1.10043976E2,3.2531086E1,0E0,0E0,0E0,0E0],"parents":[2147483647,0,0,1,1,2,2],"right_children":[2,4,6,-1,-1,-1,-1],"split_conditions":[2.25E1,1.35E1,2.45E1,-7.9549797E-4,-3.9009887E-3,2.539167E-3,-1.2639804E-3],"split_indices":[51,80,81,0,0,0,0],"split_type":[0,0,0,0,0,0,0],"sum_hessian":[6.1066465E3,4.5766973E3,1.5299491E3,2.4072563E3,2.1694412E3,1.2567037E3,2.732453E2],"tree_param":{"num_deleted":"0","num_feature":"104","num_nodes":"7","size_leaf_vector":"0"}},{"base_weights":[1.2338224E-1,2.2680901E-1,-1.859552E-1,7.954981E-2,3.900989E-1,-2.539167E-1,1.2639812E-1],"categories":[],"categories_nodes":[],"categories_segments":[],"categories_sizes":[],"default_left":[1,1,1,0,0,0,0],"id":43,"left_children":[1,3,5,-1,-1,-1,-1],"loss_changes":[1.9544882E2,1.1004404E2,3.25311E1,0E0,0E0,0E0,0E0],"parents":[2147483647,0,0,1,1,2,2],"right_children":[2,4,6,-1,-1,-1,-1],"split_conditions":[2.25E1,1.35E1,2.45E1,7.954981E-4,3.900989E-3,-2.539167E-3,1.2639811E-3],"split_indices":[51,80,81,0,0,0,0],"split_type":[0,0,0,0,0,0,0],"sum_hessian":[6.1066465E3,4.5766978E3,1.5299491E3,2.4072566E3,2.1694412E3,1.2567037E3,2.732453E2],"tree_param":{"num_deleted":"0","num_feature":"104","num_nodes":"7","size_leaf_vector":"0"}},{"base_weights":[-1.2218055E-1,-3.0288038E-1,5.2761573E-2,-3.7183568E-1,-1.256379E-2,-1.5990357E-1,1.708372E-1],"categories":[],"categories_nodes":[],"categories_segments":[],"categories_sizes":[],"default_left":[1,1,1,0,0,0,0],"id":44,"left_children":[1,3,5,-1,-1,-1,-1],"loss_changes":[1.9304163E2,6.012729E1,7.79535E1,0E0,0E0,0E0,0E0],"parents":[2147483647,0,0,1,1,2,2],"right_children":[2,4,6,-1,-1,-1,-1],"split_conditions":[1.45E1,5.05E0,-1.45E0,-3.7183566E-3,-1.256379E-4,-1.5990357E-3,1.7083719E-3],"split_indices":[51,77,77,0,0,0,0],"split_type":[0,0,0,0,0,0,0],"sum_hessian":[6.105086E3,3.002764E3,3.102322E3,2.4262144E3,5.7654956E2,1.1074135E3,1.9949086E3],"tree_param":{"num_deleted":"0","num_feature":"104","num_nodes":"7","size_leaf_vector":"0"}},{"base_weights":[1.2218057E-1,3.0288038E-1,-5.2761562E-2,3.7183574E-1,1.2563676E-2,1.5990356E-1,-1.7083718E-1],"categories":[],"categories_nodes":[],"categories_segments":[],"categories_sizes":[],"default_left":[1,1,1,0,0,0,0],"id":45,"left_children":[1,3,5,-1,-1,-1,-1],"loss_changes":[1.9304163E2,6.012735E1,7.7953476E1,0E0,0E0,0E0,0E0],"parents":[2147483647,0,0,1,1,2,2],"right_children":[2,4,6,-1,-1,-1,-1],"split_conditions":[1.45E1,5.05E0,-1.45E0,3.7183573E-3,1.2563675E-4,1.5990356E-3,-1.7083718E-3],"split_indices":[51,77,77,0,0,0,0],"split_type":[0,0,0,0,0,0,0],"sum_hessian":[6.105086E3,3.002764E3,3.102322E3,2.4262144E3,5.7654956E2,1.1074135E3,1.9949086E3],"tree_param":{"num_deleted":"0","num_feature":"104","num_nodes":"7","size_leaf_vector":"0"}},{"base_weights":[-1.2099287E-1,1.05430946E-1,-2.5829095E-1,-3.231979E-2,2.5733128E-1,-4.8823908E-1,-1.618059E-1],"categories":[],"categories_nodes":[],"categories_segments":[],"categories_sizes":[],"default_left":[1,1,1,0,0,0,0],"id":46,"left_children":[1,3,5,-1,-1,-1,-1],"loss_changes":[1.8979855E2,4.8239235E1,8.423889E1,0E0,0E0,0E0,0E0],"parents":[2147483647,0,0,1,1,2,2],"right_children":[2,4,6,-1,-1,-1,-1],"split_conditions":[4.585E-1,5.135E-1,-1.95E0,-3.2319792E-4,2.5733127E-3,-4.8823906E-3,-1.6180589E-3],"split_indices":[3,55,77,0,0,0,0],"split_type":[0,0,0,0,0,0,0],"sum_hessian":[6.103415E3,2.3040103E3,3.7994048E3,1.208694E3,1.0953163E3,1.1218037E3,2.677601E3],"tree_param":{"num_deleted":"0","num_feature":"104","num_nodes":"7","size_leaf_vector":"0"}},{"base_weights":[1.2099287E-1,-1.0543091E-1,2.5829092E-1,3.2319803E-2,-2.5733122E-1,4.8823908E-1,1.6180588E-1],"categories":[],"categories_nodes":[],"categories_segments":[],"categories_sizes":[],"default_left":[1,1,1,0,0,0,0],"id":47,"left_children":[1,3,5,-1,-1,-1,-1],"loss_changes":[1.8979851E2,4.823922E1,8.423892E1,0E0,0E0,0E0,0E0],"parents":[2147483647,0,0,1,1,2,2],"right_children":[2,4,6,-1,-1,-1,-1],"split_conditions":[4.585E-1,5.135E-1,-1.95E0,3.23198E-4,-2.5733123E-3,4.8823906E-3,1.6180588E-3],"split_indices":[3,55,77,0,0,0,0],"split_type":[0,0,0,0,0,0,0],"sum_hessian":[6.103415E3,2.3040103E3,3.7994048E3,1.2086941E3,1.0953163E3,1.1218037E3,2.677601E3],"tree_param":{"num_deleted":"0","num_feature":"104","num_nodes":"7","size_leaf_vector":"0"}},{"base_weights":[-1.19817376E-1,-2.2105654E-1,1.8280408E-1,-7.6720454E-2,-3.8132194E-1,2.4936663E-1,-1.2306491E-1],"categories":[],"categories_nodes":[],"categories_segments":[],"categories_sizes":[],"default_left":[1,1,1,0,0,0,0],"id":48,"left_children":[1,3,5,-1,-1,-1,-1],"loss_changes":[1.8701022E2,1.0576189E2,3.1188072E1,0E0,0E0,0E0,0E0],"parents":[2147483647,0,0,1,1,2,2],"right_children":[2,4,6,-1,-1,-1,-1],"split_conditions":[2.25E1,1.35E1,2.45E1,-7.672045E-4,-3.8132193E-3,2.4936663E-3,-1.2306491E-3],"split_indices":[51,80,81,0,0,0,0],"split_type":[0,0,0,0,0,0,0],"sum_hessian":[6.101718E3,4.5723506E3,1.5293672E3,2.4065103E3,2.16584E3,1.256184E3,2.731833E2],"tree_param":{"num_deleted":"0","num_feature":"104","num_nodes":"7","size_leaf_vector":"0"}},{"base_weights":[1.1981737E-1,2.2105652E-1,-1.828041E-1,7.672045E-2,3.8132194E-1,-2.4936663E-1,1.2306483E-1],"categories":[],"categories_nodes":[],"categories_segments":[],"categories_sizes":[],"default_left":[1,1,1,0,0,0,0],"id":49,"left_children":[1,3,5,-1,-1,-1,-1],"loss_changes":[1.8701025E2,1.0576187E2,3.118806E1,0E0,0E0,0E0,0E0],"parents":[2147483647,0,0,1,1,2,2],"right_children":[2,4,6,-1,-1,-1,-1],"split_conditions":[2.25E1,1.35E1,2.45E1,7.6720444E-4,3.8132193E-3,-2.4936663E-3,1.2306483E-3],"split_indices":[51,80,81,0,0,0,0],"split_type":[0,0,0,0,0,0,0],"sum_hessian":[6.1017173E3,4.57235E3,1.5293672E3,2.4065103E3,2.16584E3,1.256184E3,2.731833E2],"tree_param":{"num_deleted":"0","num_feature":"104","num_nodes":"7","size_leaf_vector":"0"}},{"base_weights":[-1.1865354E-1,-2.9559654E-1,5.2502695E-2,-3.634854E-1,-1.0172692E-2,-1.7280866E-1,1.5920888E-1],"categories":[],"categories_nodes":[],"categories_segments":[],"categories_sizes":[],"default_left":[1,1,1,0,0,0,0],"id":50,"left_children":[1,3,5,-1,-1,-1,-1],"loss_changes":[1.8478363E2,5.8126434E1,7.460759E1,0E0,0E0,0E0,0E0],"parents":[2147483647,0,0,1,1,2,2],"right_children":[2,4,6,-1,-1,-1,-1],"split_conditions":[1.45E1,5.05E0,-1.95E0,-3.634854E-3,-1.0172692E-4,-1.7280866E-3,1.5920887E-3],"split_indices":[51,77,77,0,0,0,0],"split_type":[0,0,0,0,0,0,0],"sum_hessian":[6.0999995E3,2.9989397E3,3.10106E3,2.4224739E3,5.764657E2,9.964419E2,2.1046182E3],"tree_param":{"num_deleted":"0","num_feature":"104","num_nodes":"7","size_leaf_vector":"0"}},{"base_weights":[1.1865356E-1,2.9559654E-1,-5.2502684E-2,3.634854E-1,1.0172691E-2,1.7280869E-1,-1.5920888E-1],"categories":[],"categories_nodes":[],"categories_segments":[],"categories_sizes":[],"default_left":[1,1,1,0,0,0,0],"id":51,"left_children":[1,3,5,-1,-1,-1,-1],"loss_changes":[1.8478368E2,5.8126404E1,7.460761E1,0E0,0E0,0E0,0E0],"parents":[2147483647,0,0,1,1,2,2],"right_children":[2,4,6,-1,-1,-1,-1],"split_conditions":[1.45E1,5.05E0,-1.95E0,3.634854E-3,1.0172691E-4,1.7280868E-3,-1.5920887E-3],"split_indices":[51,77,77,0,0,0,0],"split_type":[0,0,0,0,0,0,0],"sum_hessian":[6.0999995E3,2.9989397E3,3.10106E3,2.4224739E3,5.764657E2,9.964419E2,2.1046182E3],"tree_param":{"num_deleted":"0","num_feature":"104","num_nodes":"7","size_leaf_vector":"0"}},{"base_weights":[-1.17503166E-1,1.57676E-1,-2.255856E-1,-2.2226216E-2,2.6184422E-1,-8.676295E-2,-3.801642E-1],"categories":[],"categories_nodes":[],"categories_segments":[],"categories_sizes":[],"default_left":[1,1,1,0,0,0,0],"id":52,"left_children":[1,3,5,-1,-1,-1,-1],"loss_changes":[1.8143748E2,3.2250008E1,9.394849E1,0E0,0E0,0E0,0E0],"parents":[2147483647,0,0,1,1,2,2],"right_children":[2,4,6,-1,-1,-1,-1],"split_conditions":[-2.45E0,-1.45E0,1.35E1,-2.2226216E-4,2.618442E-3,-8.676295E-4,-3.801642E-3],"split_indices":[25,77,80,0,0,0,0],"split_type":[0,0,0,0,0,0,0],"sum_hessian":[6.0981777E3,1.7195989E3,4.3785786E3,6.30863E2,1.088736E3,2.3076792E3,2.0708994E3],"tree_param":{"num_deleted":"0","num_feature":"104","num_nodes":"7","size_leaf_vector":"0"}},{"base_weights":[1.1750317E-1,-1.5767604E-1,2.2558561E-1,2.2226185E-2,-2.6184428E-1,8.676299E-2,3.801642E-1],"categories":[],"categories_nodes":[],"categories_segments":[],"categories_sizes":[],"default_left":[1,1,1,0,0,0,0],"id":53,"left_children":[1,3,5,-1,-1,-1,-1],"loss_changes":[1.8143753E2,3.2250015E1,9.394844E1,0E0,0E0,0E0,0E0],"parents":[2147483647,0,0,1,1,2,2],"right_children":[2,4,6,-1,-1,-1,-1],"split_conditions":[-2.45E0,-1.45E0,1.35E1,2.2226184E-4,-2.6184428E-3,8.6762983E-4,3.801642E-3],"split_indices":[25,77,80,0,0,0,0],"split_type":[0,0,0,0,0,0,0],"sum_hessian":[6.0981777E3,1.7195989E3,4.3785786E3,6.30863E2,1.0887358E3,2.3076792E3,2.0708994E3],"tree_param":{"num_deleted":"0","num_feature":"104","num_nodes":"7","size_leaf_vector":"0"}},{"base_weights":[-1.1636461E-1,-2.906868E-1,5.2146267E-2,-2.2332053E-1,-5.7418466E-1,-1.6942263E-1,1.5706457E-1],"categories":[],"categories_nodes":[],"categories_segments":[],"categories_sizes":[],"default_left":[1,1,1,0,0,0,0],"id":54,"left_children":[1,3,5,-1,-1,-1,-1],"loss_changes":[1.7912463E2,5.7111465E1,7.211857E1,0E0,0E0,0E0,0E0],"parents":[2147483647,0,0,1,1,2,2],"right_children":[2,4,6,-1,-1,-1,-1],"split_conditions":[1.45E1,2.25E1,-1.95E0,-2.2332051E-3,-5.7418463E-3,-1.6942262E-3,1.5706457E-3],"split_indices":[51,80,77,0,0,0,0],"split_type":[0,0,0,0,0,0,0],"sum_hessian":[6.0963066E3,2.9961284E3,3.1001782E3,2.4223135E3,5.7381506E2,9.960603E2,2.104118E3],"tree_param":{"num_deleted":"0","num_feature":"104","num_nodes":"7","size_leaf_vector":"0"}},{"base_weights":[1.1636461E-1,2.9068676E-1,-5.2146252E-2,2.233205E-1,5.7418466E-1,1.6942263E-1,-1.5706454E-1],"categories":[],"categories_nodes":[],"categories_segments":[],"categories_sizes":[],"default_left":[1,1,1,0,0,0,0],"id":55,"left_children":[1,3,5,-1,-1,-1,-1],"loss_changes":[1.791246E2,5.711151E1,7.2118546E1,0E0,0E0,0E0,0E0],"parents":[2147483647,0,0,1,1,2,2],"right_children":[2,4,6,-1,-1,-1,-1],"split_conditions":[1.45E1,2.25E1,-1.95E0,2.233205E-3,5.7418463E-3,1.6942262E-3,-1.5706454E-3],"split_indices":[51,80,77,0,0,0,0],"split_type":[0,0,0,0,0,0,0],"sum_hessian":[6.0963066E3,2.9961284E3,3.1001782E3,2.4223135E3,5.7381506E2,9.960603E2,2.104118E3],"tree_param":{"num_deleted":"0","num_feature":"104","num_nodes":"7","size_leaf_vector":"0"}},{"base_weights":[-1.1523869E-1,1.0295932E-1,-2.4771975E-1,-2.994436E-2,2.4956603E-1,-4.645912E-2,-3.524119E-1],"categories":[],"categories_nodes":[],"categories_segments":[],"categories_sizes":[],"default_left":[1,1,1,0,0,0,0],"id":56,"left_children":[1,3,5,-1,-1,-1,-1],"loss_changes":[1.762261E2,4.4889328E1,7.9902695E1,0E0,0E0,0E0,0E0],"parents":[2147483647,0,0,1,1,2,2],"right_children":[2,4,6,-1,-1,-1,-1],"split_conditions":[4.585E-1,5.135E-1,9.5E0,-2.994436E-4,2.4956602E-3,-4.645912E-4,-3.5241188E-3],"split_indices":[3,55,103,0,0,0,0],"split_type":[0,0,0,0,0,0,0],"sum_hessian":[6.094408E3,2.302456E3,3.791952E3,1.2080846E3,1.0943716E3,1.2980394E3,2.4939126E3],"tree_param":{"num_deleted":"0","num_feature":"104","num_nodes":"7","size_leaf_vector":"0"}},{"base_weights":[1.15238674E-1,-1.0295934E-1,2.4771973E-1,2.9944377E-2,-2.4956611E-1,4.6459105E-2,3.524119E-1],"categories":[],"categories_nodes":[],"categories_segments":[],"categories_sizes":[],"default_left":[1,1,1,0,0,0,0],"id":57,"left_children":[1,3,5,-1,-1,-1,-1],"loss_changes":[1.7622614E2,4.488936E1,7.990268E1,0E0,0E0,0E0,0E0],"parents":[2147483647,0,0,1,1,2,2],"right_children":[2,4,6,-1,-1,-1,-1],"split_conditions":[4.585E-1,5.135E-1,9.5E0,2.9944375E-4,-2.495661E-3,4.6459105E-4,3.5241188E-3],"split_indices":[3,55,103,0,0,0,0],"split_type":[0,0,0,0,0,0,0],"sum_hessian":[6.094408E3,2.302456E3,3.791952E3,1.2080846E3,1.0943716E3,1.2980394E3,2.4939126E3],"tree_param":{"num_deleted":"0","num_feature":"104","num_nodes":"7","size_leaf_vector":"0"}},{"base_weights":[-1.141234E-1,-2.1188074E-1,1.7778686E-1,-7.2343536E-2,-3.6721298E-1,2.4216256E-1,-1.1791509E-1],"categories":[],"categories_nodes":[],"categories_segments":[],"categories_sizes":[],"default_left":[1,1,1,0,0,0,0],"id":58,"left_children":[1,3,5,-1,-1,-1,-1],"loss_changes":[1.7392303E2,9.892314E1,2.913908E1,0E0,0E0,0E0,0E0],"parents":[2147483647,0,0,1,1,2,2],"right_children":[2,4,6,-1,-1,-1,-1],"split_conditions":[2.25E1,1.35E1,2.45E1,-7.2343537E-4,-3.6721297E-3,2.4216254E-3,-1.1791509E-3],"split_indices":[51,80,81,0,0,0,0],"split_type":[0,0,0,0,0,0,0],"sum_hessian":[6.092464E3,4.5642305E3,1.5282335E3,2.4051313E3,2.1590989E3,1.2551603E3,2.7307324E2],"tree_param":{"num_deleted":"0","num_feature":"104","num_nodes":"7","size_leaf_vector":"0"}},{"base_weights":[1.141234E-1,2.1188074E-1,-1.7778687E-1,7.234357E-2,3.6721295E-1,-2.4216257E-1,1.17915064E-1],"categories":[],"categories_nodes":[],"categories_segments":[],"categories_sizes":[],"default_left":[1,1,1,0,0,0,0],"id":59,"left_children":[1,3,5,-1,-1,-1,-1],"loss_changes":[1.7392302E2,9.892308E1,2.913908E1,0E0,0E0,0E0,0E0],"parents":[2147483647,0,0,1,1,2,2],"right_children":[2,4,6,-1,-1,-1,-1],"split_conditions":[2.25E1,1.35E1,2.45E1,7.234357E-4,3.6721295E-3,-2.4216257E-3,1.1791507E-3],"split_indices":[51,80,81,0,0,0,0],"split_type":[0,0,0,0,0,0,0],"sum_hessian":[6.092464E3,4.5642305E3,1.5282335E3,2.4051313E3,2.1590989E3,1.2551603E3,2.730732E2],"tree_param":{"num_deleted":"0","num_feature":"104","num_nodes":"7","size_leaf_vector":"0"}},{"base_weights":[-1.1301931E-1,-2.8376418E-1,5.1870417E-2,-2.1751225E-1,-5.6318176E-1,-1.485855E-1,1.6311227E-1],"categories":[],"categories_nodes":[],"categories_segments":[],"categories_sizes":[],"default_left":[1,1,1,0,0,0,0],"id":60,"left_children":[1,3,5,-1,-1,-1,-1],"loss_changes":[1.7151564E2,5.527968E1,6.914551E1,0E0,0E0,0E0,0E0],"parents":[2147483647,0,0,1,1,2,2],"right_children":[2,4,6,-1,-1,-1,-1],"split_conditions":[1.45E1,2.25E1,-1.45E0,-2.1751225E-3,-5.6318175E-3,-1.485855E-3,1.6311227E-3],"split_indices":[51,80,77,0,0,0,0],"split_type":[0,0,0,0,0,0,0],"sum_hessian":[6.090513E3,2.9917778E3,3.0987354E3,2.4198032E3,5.719745E2,1.1057883E3,1.9929471E3],"tree_param":{"num_deleted":"0","num_feature":"104","num_nodes":"7","size_leaf_vector":"0"}},{"base_weights":[1.13019295E-1,2.8376418E-1,-5.1870443E-2,2.1751226E-1,5.631817E-1,1.485855E-1,-1.6311231E-1],"categories":[],"categories_nodes":[],"categories_segments":[],"categories_sizes":[],"default_left":[1,1,1,0,0,0,0],"id":61,"left_children":[1,3,5,-1,-1,-1,-1],"loss_changes":[1.7151566E2,5.527968E1,6.914552E1,0E0,0E0,0E0,0E0],"parents":[2147483647,0,0,1,1,2,2],"right_children":[2,4,6,-1,-1,-1,-1],"split_conditions":[1.45E1,2.25E1,-1.45E0,2.1751225E-3,5.631817E-3,1.485855E-3,-1.6311231E-3],"split_indices":[51,80,77,0,0,0,0],"split_type":[0,0,0,0,0,0,0],"sum_hessian":[6.090513E3,2.9917778E3,3.0987354E3,2.4198032E3,5.719745E2,1.1057883E3,1.9929471E3],"tree_param":{"num_deleted":"0","num_feature":"104","num_nodes":"7","size_leaf_vector":"0"}},{"base_weights":[-1.11928105E-1,-2.0824507E-1,1.7555718E-1,-7.069349E-2,-3.6154705E-1,2.388972E-1,-1.1534648E-1],"categories":[],"categories_nodes":[],"categories_segments":[],"categories_sizes":[],"default_left":[1,1,1,0,0,0,0],"id":62,"left_children":[1,3,5,-1,-1,-1,-1],"loss_changes":[1.6865271E2,9.616795E1,2.8195663E1,0E0,0E0,0E0,0E0],"parents":[2147483647,0,0,1,1,2,2],"right_children":[2,4,6,-1,-1,-1,-1],"split_conditions":[2.25E1,1.35E1,2.45E1,-7.069349E-4,-3.6154704E-3,2.388972E-3,-1.1534648E-3],"split_indices":[51,80,81,0,0,0,0],"split_type":[0,0,0,0,0,0,0],"sum_hessian":[6.0884883E3,4.5607603E3,1.5277281E3,2.4046382E3,2.156122E3,1.2547117E3,2.730164E2],"tree_param":{"num_deleted":"0","num_feature":"104","num_nodes":"7","size_leaf_vector":"0"}},{"base_weights":[1.1192808E-1,2.0824507E-1,-1.7555723E-1,7.0693456E-2,3.6154708E-1,-2.3889726E-1,1.1534648E-1],"categories":[],"categories_nodes":[],"categories_segments":[],"categories_sizes":[],"default_left":[1,1,1,0,0,0,0],"id":63,"left_children":[1,3,5,-1,-1,-1,-1],"loss_changes":[1.6865274E2,9.6168015E1,2.8195679E1,0E0,0E0,0E0,0E0],"parents":[2147483647,0,0,1,1,2,2],"right_children":[2,4,6,-1,-1,-1,-1],"split_conditions":[2.25E1,1.35E1,2.45E1,7.0693454E-4,3.6154708E-3,-2.3889726E-3,1.1534648E-3],"split_indices":[51,80,81,0,0,0,0],"split_type":[0,0,0,0,0,0,0],"sum_hessian":[6.0884883E3,4.5607603E3,1.527728E3,2.4046382E3,2.156122E3,1.2547117E3,2.730164E2],"tree_param":{"num_deleted":"0","num_feature":"104","num_nodes":"7","size_leaf_vector":"0"}},{"base_weights":[-1.1084688E-1,-2.7916446E-1,5.1582832E-2,-3.451026E-1,-2.9572845E-3,-1.6218194E-1,1.5276492E-1],"categories":[],"categories_nodes":[],"categories_segments":[],"categories_sizes":[],"default_left":[1,1,1,0,0,0,0],"id":64,"left_children":[1,3,5,-1,-1,-1,-1],"loss_changes":[1.664439E2,5.4449097E1,6.7048195E1,0E0,0E0,0E0,0E0],"parents":[2147483647,0,0,1,1,2,2],"right_children":[2,4,6,-1,-1,-1,-1],"split_conditions":[1.45E1,5.05E0,-1.95E0,-3.451026E-3,-2.9572844E-5,-1.6218195E-3,1.5276491E-3],"split_indices":[51,77,77,0,0,0,0],"split_type":[0,0,0,0,0,0,0],"sum_hessian":[6.086449E3,2.988697E3,3.0977522E3,2.412515E3,5.7618207E2,9.950124E2,2.10274E3],"tree_param":{"num_deleted":"0","num_feature":"104","num_nodes":"7","size_leaf_vector":"0"}},{"base_weights":[1.1084686E-1,2.7916443E-1,-5.1582836E-2,3.451026E-1,2.95717E-3,1.6218197E-1,-1.5276493E-1],"categories":[],"categories_nodes":[],"categories_segments":[],"categories_sizes":[],"default_left":[1,1,1,0,0,0,0],"id":65,"left_children":[1,3,5,-1,-1,-1,-1],"loss_changes":[1.6644391E2,5.4449112E1,6.7048225E1,0E0,0E0,0E0,0E0],"parents":[2147483647,0,0,1,1,2,2],"right_children":[2,4,6,-1,-1,-1,-1],"split_conditions":[1.45E1,5.05E0,-1.95E0,3.451026E-3,2.9571698E-5,1.6218197E-3,-1.5276492E-3],"split_indices":[51,77,77,0,0,0,0],"split_type":[0,0,0,0,0,0,0],"sum_hessian":[6.086449E3,2.988697E3,3.0977524E3,2.412515E3,5.7618207E2,9.950124E2,2.10274E3],"tree_param":{"num_deleted":"0","num_feature":"104","num_nodes":"7","size_leaf_vector":"0"}},{"base_weights":[-1.0977774E-1,1.0063752E-1,-2.3771633E-1,-2.768017E-2,2.4223733E-1,-3.3556917E-1,-3.376195E-2],"categories":[],"categories_nodes":[],"categories_segments":[],"categories_sizes":[],"default_left":[1,1,1,0,0,0,0],"id":66,"left_children":[1,3,5,-1,-1,-1,-1],"loss_changes":[1.6384238E2,4.182789E1,7.5520645E1,0E0,0E0,0E0,0E0],"parents":[2147483647,0,0,1,1,2,2],"right_children":[2,4,6,-1,-1,-1,-1],"split_conditions":[4.585E-1,5.135E-1,2.85E0,-2.768017E-4,2.4223733E-3,-3.3556917E-3,-3.3761948E-4],"split_indices":[3,55,77,0,0,0,0],"split_type":[0,0,0,0,0,0,0],"sum_hessian":[6.0843276E3,2.300691E3,3.7836367E3,1.2073739E3,1.0933171E3,2.5564585E3,1.2271782E3],"tree_param":{"num_deleted":"0","num_feature":"104","num_nodes":"7","size_leaf_vector":"0"}},{"base_weights":[1.0977773E-1,-1.00637555E-1,2.3771636E-1,2.7680162E-2,-2.422374E-1,3.3556923E-1,3.3761933E-2],"categories":[],"categories_nodes":[],"categories_segments":[],"categories_sizes":[],"default_left":[1,1,1,0,0,0,0],"id":67,"left_children":[1,3,5,-1,-1,-1,-1],"loss_changes":[1.6384244E2,4.1827896E1,7.552066E1,0E0,0E0,0E0,0E0],"parents":[2147483647,0,0,1,1,2,2],"right_children":[2,4,6,-1,-1,-1,-1],"split_conditions":[4.585E-1,5.135E-1,2.85E0,2.768016E-4,-2.422374E-3,3.3556921E-3,3.3761933E-4],"split_indices":[3,55,77,0,0,0,0],"split_type":[0,0,0,0,0,0,0],"sum_hessian":[6.0843276E3,2.300691E3,3.7836367E3,1.2073739E3,1.0933171E3,2.5564585E3,1.2271782E3],"tree_param":{"num_deleted":"0","num_feature":"104","num_nodes":"7","size_leaf_vector":"0"}},{"base_weights":[-1.0871872E-1,-2.0302483E-1,1.7256756E-1,-6.816025E-2,-3.5358584E-1,2.3459929E-1,-1.12250835E-1],"categories":[],"categories_nodes":[],"categories_segments":[],"categories_sizes":[],"default_left":[1,1,1,0,0,0,0],"id":68,"left_children":[1,3,5,-1,-1,-1,-1],"loss_changes":[1.6140408E2,9.2492096E1,2.7021774E1,0E0,0E0,0E0,0E0],"parents":[2147483647,0,0,1,1,2,2],"right_children":[2,4,6,-1,-1,-1,-1],"split_conditions":[2.25E1,1.35E1,2.45E1,-6.816025E-4,-3.5358584E-3,2.345993E-3,-1.1225083E-3],"split_indices":[51,80,81,0,0,0,0],"split_type":[0,0,0,0,0,0,0],"sum_hessian":[6.0821963E3,4.555248E3,1.5269479E3,2.4036438E3,2.1516042E3,1.2540087E3,2.7293918E2],"tree_param":{"num_deleted":"0","num_feature":"104","num_nodes":"7","size_leaf_vector":"0"}},{"base_weights":[1.0871872E-1,2.0302483E-1,-1.7256755E-1,6.8160266E-2,3.535858E-1,-2.3459928E-1,1.12250865E-1],"categories":[],"categories_nodes":[],"categories_segments":[],"categories_sizes":[],"default_left":[1,1,1,0,0,0,0],"id":69,"left_children":[1,3,5,-1,-1,-1,-1],"loss_changes":[1.6140405E2,9.249208E1,2.7021782E1,0E0,0E0,0E0,0E0],"parents":[2147483647,0,0,1,1,2,2],"right_children":[2,4,6,-1,-1,-1,-1],"split_conditions":[2.25E1,1.35E1,2.45E1,6.816026E-4,3.5358581E-3,-2.3459927E-3,1.1225087E-3],"split_indices":[51,80,81,0,0,0,0],"split_type":[0,0,0,0,0,0,0],"sum_hessian":[6.082196E3,4.555248E3,1.5269479E3,2.4036438E3,2.1516042E3,1.2540087E3,2.729392E2],"tree_param":{"num_deleted":"0","num_feature":"104","num_nodes":"7","size_leaf_vector":"0"}},{"base_weights":[-1.07670635E-1,-2.7256647E-1,5.1284514E-2,-2.0778519E-1,-5.467537E-1,-1.5810205E-1,1.5037039E-1],"categories":[],"categories_nodes":[],"categories_segments":[],"categories_sizes":[],"default_left":[1,1,1,0,0,0,0],"id":70,"left_children":[1,3,5,-1,-1,-1,-1],"loss_changes":[1.5940439E2,5.290486E1,6.428086E1,0E0,0E0,0E0,0E0],"parents":[2147483647,0,0,1,1,2,2],"right_children":[2,4,6,-1,-1,-1,-1],"split_conditions":[1.45E1,2.25E1,-1.95E0,-2.077852E-3,-5.467537E-3,-1.5810204E-3,1.5037039E-3],"split_indices":[51,80,77,0,0,0,0],"split_type":[0,0,0,0,0,0,0],"sum_hessian":[6.080041E3,2.9839038E3,3.096137E3,2.415063E3,5.688409E2,9.943333E2,2.1018037E3],"tree_param":{"num_deleted":"0","num_feature":"104","num_nodes":"7","size_leaf_vector":"0"}},{"base_weights":[1.0767063E-1,2.7256644E-1,-5.12845E-2,2.0778517E-1,5.467537E-1,1.581021E-1,-1.5037037E-1],"categories":[],"categories_nodes":[],"categories_segments":[],"categories_sizes":[],"default_left":[1,1,1,0,0,0,0],"id":71,"left_children":[1,3,5,-1,-1,-1,-1],"loss_changes":[1.5940436E2,5.290483E1,6.428087E1,0E0,0E0,0E0,0E0],"parents":[2147483647,0,0,1,1,2,2],"right_children":[2,4,6,-1,-1,-1,-1],"split_conditions":[1.45E1,2.25E1,-1.95E0,2.0778517E-3,5.467537E-3,1.5810209E-3,-1.5037038E-3],"split_indices":[51,80,77,0,0,0,0],"split_type":[0,0,0,0,0,0,0],"sum_hessian":[6.080041E3,2.9839038E3,3.096137E3,2.415063E3,5.688408E2,9.9433325E2,2.1018037E3],"tree_param":{"num_deleted":"0","num_feature":"104","num_nodes":"7","size_leaf_vector":"0"}},{"base_weights":[-1.0663457E-1,-2.0450087E-1,1.5736686E-1,-1.1766654E-1,-4.2023256E-1,-1.02199204E-1,2.2425869E-1],"categories":[],"categories_nodes":[],"categories_segments":[],"categories_sizes":[],"default_left":[1,1,1,0,0,0,0],"id":72,"left_children":[1,3,5,-1,-1,-1,-1],"loss_changes":[1.5708984E2,8.303583E1,2.8577335E1,0E0,0E0,0E0,0E0],"parents":[2147483647,0,0,1,1,2,2],"right_children":[2,4,6,-1,-1,-1,-1],"split_conditions":[2.15E1,1.95E1,3.585E-1,-1.1766654E-3,-4.2023254E-3,-1.0219921E-3,2.2425868E-3],"split_indices":[29,80,55,0,0,0,0],"split_type":[0,0,0,0,0,0,0],"sum_hessian":[6.077826E3,4.4342563E3,1.6435697E3,3.162758E3,1.2714985E3,3.366624E2,1.3069073E3],"tree_param":{"num_deleted":"0","num_feature":"104","num_nodes":"7","size_leaf_vector":"0"}},{"base_weights":[1.0663457E-1,2.0450088E-1,-1.5736689E-1,1.1766654E-1,4.202326E-1,1.02199204E-1,-2.2425875E-1],"categories":[],"categories_nodes":[],"categories_segments":[],"categories_sizes":[],"default_left":[1,1,1,0,0,0,0],"id":73,"left_children":[1,3,5,-1,-1,-1,-1],"loss_changes":[1.570899E2,8.303586E1,2.8577343E1,0E0,0E0,0E0,0E0],"parents":[2147483647,0,0,1,1,2,2],"right_children":[2,4,6,-1,-1,-1,-1],"split_conditions":[2.15E1,1.95E1,3.585E-1,1.1766654E-3,4.202326E-3,1.0219921E-3,-2.2425875E-3],"split_indices":[29,80,55,0,0,0,0],"split_type":[0,0,0,0,0,0,0],"sum_hessian":[6.077826E3,4.4342563E3,1.6435697E3,3.162758E3,1.2714985E3,3.3666238E2,1.3069072E3],"tree_param":{"num_deleted":"0","num_feature":"104","num_nodes":"7","size_leaf_vector":"0"}},{"base_weights":[-1.0560557E-1,-2.6817068E-1,5.0985087E-2,-3.3267468E-1,1.234288E-3,-6.892591E-2,2.1971947E-1],"categories":[],"categories_nodes":[],"categories_segments":[],"categories_sizes":[],"default_left":[1,1,1,0,0,0,0],"id":74,"left_children":[1,3,5,-1,-1,-1,-1],"loss_changes":[1.5470432E2,5.1814713E1,6.265863E1,0E0,0E0,0E0,0E0],"parents":[2147483647,0,0,1,1,2,2],"right_children":[2,4,6,-1,-1,-1,-1],"split_conditions":[1.45E1,5.05E0,5.445E-1,-3.3267466E-3,1.234288E-5,-6.892591E-4,2.1971946E-3],"split_indices":[51,77,55,0,0,0,0],"split_type":[0,0,0,0,0,0,0],"sum_hessian":[6.0757427E3,2.980654E3,3.0950884E3,2.4046665E3,5.7598755E2,1.8096519E3,1.2854365E3],"tree_param":{"num_deleted":"0","num_feature":"104","num_nodes":"7","size_leaf_vector":"0"}},{"base_weights":[1.0560558E-1,2.681707E-1,-5.09851E-2,3.3267468E-1,-1.2341705E-3,6.892587E-2,-2.1971945E-1],"categories":[],"categories_nodes":[],"categories_segments":[],"categories_sizes":[],"default_left":[1,1,1,0,0,0,0],"id":75,"left_children":[1,3,5,-1,-1,-1,-1],"loss_changes":[1.5470435E2,5.1814682E1,6.265861E1,0E0,0E0,0E0,0E0],"parents":[2147483647,0,0,1,1,2,2],"right_children":[2,4,6,-1,-1,-1,-1],"split_conditions":[1.45E1,5.05E0,5.445E-1,3.3267466E-3,-1.2341705E-5,6.892587E-4,-2.1971946E-3],"split_indices":[51,77,55,0,0,0,0],"split_type":[0,0,0,0,0,0,0],"sum_hessian":[6.0757427E3,2.980654E3,3.0950884E3,2.4046665E3,5.7598755E2,1.8096519E3,1.2854365E3],"tree_param":{"num_deleted":"0","num_feature":"104","num_nodes":"7","size_leaf_vector":"0"}},{"base_weights":[-1.0458838E-1,-1.8895029E-1,1.9331935E-1,-5.9563495E-2,-3.3342582E-1,-4.1890506E-2,2.565301E-1],"categories":[],"categories_nodes":[],"categories_segments":[],"categories_sizes":[],"default_left":[1,1,1,0,0,0,0],"id":76,"left_children":[1,3,5,-1,-1,-1,-1],"loss_changes":[1.527019E2,8.848253E1,1.994939E1,0E0,0E0,0E0,0E0],"parents":[2147483647,0,0,1,1,2,2],"right_children":[2,4,6,-1,-1,-1,-1],"split_conditions":[2.35E1,1.35E1,3.5900003E-1,-5.956349E-4,-3.3342582E-3,-4.1890505E-4,2.565301E-3],"split_indices":[51,80,55,0,0,0,0],"split_type":[0,0,0,0,0,0,0],"sum_hessian":[6.0735273E3,4.733465E3,1.3400629E3,2.4978752E3,2.2355896E3,2.839204E2,1.0561425E3],"tree_param":{"num_deleted":"0","num_feature":"104","num_nodes":"7","size_leaf_vector":"0"}},{"base_weights":[1.04588404E-1,1.8895029E-1,-1.9331929E-1,5.9563518E-2,3.334258E-1,4.189051E-2,-2.5653005E-1],"categories":[],"categories_nodes":[],"categories_segments":[],"categories_sizes":[],"default_left":[1,1,1,0,0,0,0],"id":77,"left_children":[1,3,5,-1,-1,-1,-1],"loss_changes":[1.5270187E2,8.8482544E1,1.9949383E1,0E0,0E0,0E0,0E0],"parents":[2147483647,0,0,1,1,2,2],"right_children":[2,4,6,-1,-1,-1,-1],"split_conditions":[2.35E1,1.35E1,3.5900003E-1,5.9563515E-4,3.3342578E-3,4.1890508E-4,-2.5653003E-3],"split_indices":[51,80,55,0,0,0,0],"split_type":[0,0,0,0,0,0,0],"sum_hessian":[6.073528E3,4.733465E3,1.3400629E3,2.4978752E3,2.2355896E3,2.839204E2,1.0561425E3],"tree_param":{"num_deleted":"0","num_feature":"104","num_nodes":"7","size_leaf_vector":"0"}},{"base_weights":[-1.0358102E-1,-2.0712724E-1,1.3574322E-1,-1.2102744E-1,-4.286368E-1,-1.23287745E-1,2.0491119E-1],"categories":[],"categories_nodes":[],"categories_segments":[],"categories_sizes":[],"default_left":[1,1,1,0,0,0,0],"id":78,"left_children":[1,3,5,-1,-1,-1,-1],"loss_changes":[1.505068E2,8.079175E1,3.289211E1,0E0,0E0,0E0,0E0],"parents":[2147483647,0,0,1,1,2,2],"right_children":[2,4,6,-1,-1,-1,-1],"split_conditions":[1.95E1,1.95E1,3.585E-1,-1.2102744E-3,-4.286368E-3,-1.2328774E-3,2.0491118E-3],"split_indices":[28,80,55,0,0,0,0],"split_type":[0,0,0,0,0,0,0],"sum_hessian":[6.071312E3,4.2378813E3,1.8334308E3,3.0528125E3,1.1850688E3,3.8623093E2,1.4471998E3],"tree_param":{"num_deleted":"0","num_feature":"104","num_nodes":"7","size_leaf_vector":"0"}},{"base_weights":[1.03581004E-1,2.0712723E-1,-1.3574323E-1,1.2102742E-1,4.2863676E-1,1.23287775E-1,-2.0491122E-1],"categories":[],"categories_nodes":[],"categories_segments":[],"categories_sizes":[],"default_left":[1,1,1,0,0,0,0],"id":79,"left_children":[1,3,5,-1,-1,-1,-1],"loss_changes":[1.505068E2,8.079176E1,3.2892128E1,0E0,0E0,0E0,0E0],"parents":[2147483647,0,0,1,1,2,2],"right_children":[2,4,6,-1,-1,-1,-1],"split_conditions":[1.95E1,1.95E1,3.585E-1,1.2102742E-3,4.2863674E-3,1.2328777E-3,-2.0491122E-3],"split_indices":[28,80,55,0,0,0,0],"split_type":[0,0,0,0,0,0,0],"sum_hessian":[6.071312E3,4.2378813E3,1.8334308E3,3.0528125E3,1.1850688E3,3.8623093E2,1.4471998E3],"tree_param":{"num_deleted":"0","num_feature":"104","num_nodes":"7","size_leaf_vector":"0"}},{"base_weights":[-1.0258427E-1,-2.6207313E-1,5.0871104E-2,-3.2565936E-1,2.9972321E-3,-6.667357E-2,2.1626928E-1],"categories":[],"categories_nodes":[],"categories_segments":[],"categories_sizes":[],"default_left":[1,1,1,0,0,0,0],"id":80,"left_children":[1,3,5,-1,-1,-1,-1],"loss_changes":[1.4857492E2,5.0172485E1,6.0174545E1,0E0,0E0,0E0,0E0],"parents":[2147483647,0,0,1,1,2,2],"right_children":[2,4,6,-1,-1,-1,-1],"split_conditions":[1.45E1,5.05E0,5.445E-1,-3.2565936E-3,2.9972321E-5,-6.667357E-4,2.1626928E-3],"split_indices":[51,77,55,0,0,0,0],"split_type":[0,0,0,0,0,0,0],"sum_hessian":[6.069075E3,2.9756853E3,3.0933896E3,2.3997856E3,5.7589966E2,1.8086329E3,1.2847568E3],"tree_param":{"num_deleted":"0","num_feature":"104","num_nodes":"7","size_leaf_vector":"0"}},{"base_weights":[1.0258427E-1,2.6207313E-1,-5.087111E-2,3.2565936E-1,-2.997262E-3,6.6673554E-2,-2.1626928E-1],"categories":[],"categories_nodes":[],"categories_segments":[],"categories_sizes":[],"default_left":[1,1,1,0,0,0,0],"id":81,"left_children":[1,3,5,-1,-1,-1,-1],"loss_changes":[1.4857494E2,5.017253E1,6.017453E1,0E0,0E0,0E0,0E0],"parents":[2147483647,0,0,1,1,2,2],"right_children":[2,4,6,-1,-1,-1,-1],"split_conditions":[1.45E1,5.05E0,5.445E-1,3.2565936E-3,-2.9972618E-5,6.667355E-4,-2.1626928E-3],"split_indices":[51,77,55,0,0,0,0],"split_type":[0,0,0,0,0,0,0],"sum_hessian":[6.069075E3,2.9756853E3,3.0933896E3,2.3997856E3,5.7589966E2,1.8086329E3,1.2847568E3],"tree_param":{"num_deleted":"0","num_feature":"104","num_nodes":"7","size_leaf_vector":"0"}},{"base_weights":[-1.0159779E-1,1.4564025E-1,-1.9907132E-1,-1.4077435E-2,2.383143E-1,-1.01712495E-2,-2.9643032E-1],"categories":[],"categories_nodes":[],"categories_segments":[],"categories_sizes":[],"default_left":[1,1,1,0,0,0,0],"id":82,"left_children":[1,3,5,-1,-1,-1,-1],"loss_changes":[1.4625717E2,2.5408234E1,8.004285E1,0E0,0E0,0E0,0E0],"parents":[2147483647,0,0,1,1,2,2],"right_children":[2,4,6,-1,-1,-1,-1],"split_conditions":[-2.45E0,-1.45E0,9.5E0,-1.4077435E-4,2.383143E-3,-1.01712496E-4,-2.9643031E-3],"split_indices":[25,77,103,0,0,0,0],"split_type":[0,0,0,0,0,0,0],"sum_hessian":[6.0667695E3,1.7153508E3,4.351419E3,6.3015967E2,1.0851912E3,1.480328E3,2.8710908E3],"tree_param":{"num_deleted":"0","num_feature":"104","num_nodes":"7","size_leaf_vector":"0"}},{"base_weights":[1.01597756E-1,-1.4564027E-1,1.9907129E-1,1.4077451E-2,-2.3831435E-1,1.017119E-2,2.964303E-1],"categories":[],"categories_nodes":[],"categories_segments":[],"categories_sizes":[],"default_left":[1,1,1,0,0,0,0],"id":83,"left_children":[1,3,5,-1,-1,-1,-1],"loss_changes":[1.4625714E2,2.5408245E1,8.004288E1,0E0,0E0,0E0,0E0],"parents":[2147483647,0,0,1,1,2,2],"right_children":[2,4,6,-1,-1,-1,-1],"split_conditions":[-2.45E0,-1.45E0,9.5E0,1.4077451E-4,-2.3831434E-3,1.017119E-4,2.964303E-3],"split_indices":[25,77,103,0,0,0,0],"split_type":[0,0,0,0,0,0,0],"sum_hessian":[6.0667695E3,1.7153508E3,4.351419E3,6.3015967E2,1.0851912E3,1.4803281E3,2.8710908E3],"tree_param":{"num_deleted":"0","num_feature":"104","num_nodes":"7","size_leaf_vector":"0"}},{"base_weights":[-1.0062064E-1,-2.578047E-1,5.0487746E-2,-1.9511183E-1,-5.2472985E-1,-1.3427652E-1,1.529395E-1],"categories":[],"categories_nodes":[],"categories_segments":[],"categories_sizes":[],"default_left":[1,1,1,0,0,0,0],"id":84,"left_children":[1,3,5,-1,-1,-1,-1],"loss_changes":[1.4407874E2,4.9650803E1,5.8575535E1,0E0,0E0,0E0,0E0],"parents":[2147483647,0,0,1,1,2,2],"right_children":[2,4,6,-1,-1,-1,-1],"split_conditions":[1.45E1,2.25E1,-1.45E0,-1.9511182E-3,-5.247298E-3,-1.3427652E-3,1.529395E-3],"split_indices":[51,80,77,0,0,0,0],"split_type":[0,0,0,0,0,0,0],"sum_hessian":[6.064458E3,2.9721252E3,3.0923328E3,2.408233E3,5.638923E2,1.1029436E3,1.9893892E3],"tree_param":{"num_deleted":"0","num_feature":"104","num_nodes":"7","size_leaf_vector":"0"}},{"base_weights":[1.0062066E-1,2.5780472E-1,-5.0487738E-2,1.9511183E-1,5.247299E-1,1.3427654E-1,-1.5293948E-1],"categories":[],"categories_nodes":[],"categories_segments":[],"categories_sizes":[],"default_left":[1,1,1,0,0,0,0],"id":85,"left_children":[1,3,5,-1,-1,-1,-1],"loss_changes":[1.4407877E2,4.9650833E1,5.857554E1,0E0,0E0,0E0,0E0],"parents":[2147483647,0,0,1,1,2,2],"right_children":[2,4,6,-1,-1,-1,-1],"split_conditions":[1.45E1,2.25E1,-1.45E0,1.9511182E-3,5.247299E-3,1.3427654E-3,-1.5293948E-3],"split_indices":[51,80,77,0,0,0,0],"split_type":[0,0,0,0,0,0,0],"sum_hessian":[6.064458E3,2.9721252E3,3.0923328E3,2.408233E3,5.638923E2,1.1029436E3,1.9893892E3],"tree_param":{"num_deleted":"0","num_feature":"104","num_nodes":"7","size_leaf_vector":"0"}},{"base_weights":[-9.965605E-2,-1.8124247E-1,1.8812558E-1,-9.672205E-2,-3.9009437E-1,-3.8048495E-2,2.4895602E-1],"categories":[],"categories_nodes":[],"categories_segments":[],"categories_sizes":[],"default_left":[1,1,1,0,0,0,0],"id":86,"left_children":[1,3,5,-1,-1,-1,-1],"loss_changes":[1.4238846E2,8.335736E1,1.8441418E1,0E0,0E0,0E0,0E0],"parents":[2147483647,0,0,1,1,2,2],"right_children":[2,4,6,-1,-1,-1,-1],"split_conditions":[2.35E1,1.95E1,3.5900003E-1,-9.672205E-4,-3.9009436E-3,-3.8048494E-4,2.4895603E-3],"split_indices":[51,80,55,0,0,0,0],"split_type":[0,0,0,0,0,0,0],"sum_hessian":[6.0620317E3,4.723332E3,1.3386997E3,3.3635842E3,1.3597479E3,2.83816E2,1.0548837E3],"tree_param":{"num_deleted":"0","num_feature":"104","num_nodes":"7","size_leaf_vector":"0"}},{"base_weights":[9.965605E-2,1.8124247E-1,-1.8812561E-1,9.672205E-2,3.900944E-1,3.804848E-2,-2.4895605E-1],"categories":[],"categories_nodes":[],"categories_segments":[],"categories_sizes":[],"default_left":[1,1,1,0,0,0,0],"id":87,"left_children":[1,3,5,-1,-1,-1,-1],"loss_changes":[1.4238847E2,8.3357376E1,1.8441422E1,0E0,0E0,0E0,0E0],"parents":[2147483647,0,0,1,1,2,2],"right_children":[2,4,6,-1,-1,-1,-1],"split_conditions":[2.35E1,1.95E1,3.5900003E-1,9.672205E-4,3.900944E-3,3.804848E-4,-2.4895605E-3],"split_indices":[51,80,55,0,0,0,0],"split_type":[0,0,0,0,0,0,0],"sum_hessian":[6.0620317E3,4.723332E3,1.3386997E3,3.3635842E3,1.359748E3,2.83816E2,1.0548837E3],"tree_param":{"num_deleted":"0","num_feature":"104","num_nodes":"7","size_leaf_vector":"0"}},{"base_weights":[-9.869697E-2,-1.9882077E-1,1.3240562E-1,-1.15385525E-1,-4.1433293E-1,-1.1784637E-1,1.9924723E-1],"categories":[],"categories_nodes":[],"categories_segments":[],"categories_sizes":[],"default_left":[1,1,1,0,0,0,0],"id":88,"left_children":[1,3,5,-1,-1,-1,-1],"loss_changes":[1.4026605E2,7.5997284E1,3.0678951E1,0E0,0E0,0E0,0E0],"parents":[2147483647,0,0,1,1,2,2],"right_children":[2,4,6,-1,-1,-1,-1],"split_conditions":[1.95E1,1.95E1,3.585E-1,-1.1538552E-3,-4.1433293E-3,-1.1784637E-3,1.9924722E-3],"split_indices":[28,80,55,0,0,0,0],"split_type":[0,0,0,0,0,0,0],"sum_hessian":[6.0597856E3,4.228118E3,1.8316671E3,3.0491711E3,1.1789471E3,3.8594464E2,1.4457225E3],"tree_param":{"num_deleted":"0","num_feature":"104","num_nodes":"7","size_leaf_vector":"0"}},{"base_weights":[9.869696E-2,1.9882075E-1,-1.324056E-1,1.1538551E-1,4.1433293E-1,1.1784637E-1,-1.992472E-1],"categories":[],"categories_nodes":[],"categories_segments":[],"categories_sizes":[],"default_left":[1,1,1,0,0,0,0],"id":89,"left_children":[1,3,5,-1,-1,-1,-1],"loss_changes":[1.4026605E2,7.5997284E1,3.0678944E1,0E0,0E0,0E0,0E0],"parents":[2147483647,0,0,1,1,2,2],"right_children":[2,4,6,-1,-1,-1,-1],"split_conditions":[1.95E1,1.95E1,3.585E-1,1.1538551E-3,4.1433293E-3,1.1784637E-3,-1.992472E-3],"split_indices":[28,80,55,0,0,0,0],"split_type":[0,0,0,0,0,0,0],"sum_hessian":[6.0597856E3,4.228118E3,1.8316671E3,3.0491711E3,1.1789471E3,3.8594464E2,1.4457225E3],"tree_param":{"num_deleted":"0","num_feature":"104","num_nodes":"7","size_leaf_vector":"0"}},{"base_weights":[-9.77497E-2,-2.5198227E-1,5.0355703E-2,-3.1433296E-1,7.107515E-3,-6.371341E-2,2.1085238E-1],"categories":[],"categories_nodes":[],"categories_segments":[],"categories_sizes":[],"default_left":[1,1,1,0,0,0,0],"id":90,"left_children":[1,3,5,-1,-1,-1,-1],"loss_changes":[1.3840283E2,4.794821E1,5.6610344E1,0E0,0E0,0E0,0E0],"parents":[2147483647,0,0,1,1,2,2],"right_children":[2,4,6,-1,-1,-1,-1],"split_conditions":[1.45E1,5.05E0,5.445E-1,-3.1433296E-3,7.107515E-5,-6.371341E-4,2.1085239E-3],"split_indices":[51,77,55,0,0,0,0],"split_type":[0,0,0,0,0,0,0],"sum_hessian":[6.057403E3,2.9669783E3,3.0904243E3,2.3912935E3,5.7568494E2,1.8068516E3,1.2835728E3],"tree_param":{"num_deleted":"0","num_feature":"104","num_nodes":"7","size_leaf_vector":"0"}},{"base_weights":[9.774967E-2,2.519822E-1,-5.0355703E-2,3.1433293E-1,-7.107628E-3,6.37134E-2,-2.1085238E-1],"categories":[],"categories_nodes":[],"categories_segments":[],"categories_sizes":[],"default_left":[1,1,1,0,0,0,0],"id":91,"left_children":[1,3,5,-1,-1,-1,-1],"loss_changes":[1.3840277E2,4.7948288E1,5.661034E1,0E0,0E0,0E0,0E0],"parents":[2147483647,0,0,1,1,2,2],"right_children":[2,4,6,-1,-1,-1,-1],"split_conditions":[1.45E1,5.05E0,5.445E-1,3.1433292E-3,-7.1076276E-5,6.37134E-4,-2.1085239E-3],"split_indices":[51,77,55,0,0,0,0],"split_type":[0,0,0,0,0,0,0],"sum_hessian":[6.057403E3,2.9669783E3,3.0904243E3,2.3912932E3,5.7568494E2,1.8068516E3,1.2835728E3],"tree_param":{"num_deleted":"0","num_feature":"104","num_nodes":"7","size_leaf_vector":"0"}},{"base_weights":[-9.681185E-2,-1.8828638E-1,1.4930843E-1,-1.0670771E-1,-3.9243385E-1,-9.22767E-2,2.1162054E-1],"categories":[],"categories_nodes":[],"categories_segments":[],"categories_sizes":[],"default_left":[1,1,1,0,0,0,0],"id":92,"left_children":[1,3,5,-1,-1,-1,-1],"loss_changes":[1.3637054E2,7.349399E1,2.4729836E1,0E0,0E0,0E0,0E0],"parents":[2147483647,0,0,1,1,2,2],"right_children":[2,4,6,-1,-1,-1,-1],"split_conditions":[2.15E1,1.95E1,3.585E-1,-1.067077E-3,-3.9243386E-3,-9.22767E-4,2.1162054E-3],"split_indices":[29,80,55,0,0,0,0],"split_type":[0,0,0,0,0,0,0],"sum_hessian":[6.054967E3,4.4144873E3,1.6404796E3,3.1551794E3,1.2593079E3,3.3627084E2,1.3042087E3],"tree_param":{"num_deleted":"0","num_feature":"104","num_nodes":"7","size_leaf_vector":"0"}},{"base_weights":[9.681186E-2,1.8828636E-1,-1.4930837E-1,1.0670769E-1,3.9243382E-1,9.2276745E-2,-2.1162048E-1],"categories":[],"categories_nodes":[],"categories_segments":[],"categories_sizes":[],"default_left":[1,1,1,0,0,0,0],"id":93,"left_children":[1,3,5,-1,-1,-1,-1],"loss_changes":[1.3637051E2,7.349399E1,2.4729836E1,0E0,0E0,0E0,0E0],"parents":[2147483647,0,0,1,1,2,2],"right_children":[2,4,6,-1,-1,-1,-1],"split_conditions":[2.15E1,1.95E1,3.585E-1,1.0670769E-3,3.924338E-3,9.2276745E-4,-2.1162047E-3],"split_indices":[29,80,55,0,0,0,0],"split_type":[0,0,0,0,0,0,0],"sum_hessian":[6.054967E3,4.4144873E3,1.6404796E3,3.1551794E3,1.2593079E3,3.3627087E2,1.3042087E3],"tree_param":{"num_deleted":"0","num_feature":"104","num_nodes":"7","size_leaf_vector":"0"}},{"base_weights":[-9.588249E-2,-2.4796404E-1,5.0030615E-2,-1.8714164E-1,-5.0839096E-1,-6.243386E-2,2.0828183E-1],"categories":[],"categories_nodes":[],"categories_segments":[],"categories_sizes":[],"default_left":[1,1,1,0,0,0,0],"id":94,"left_children":[1,3,5,-1,-1,-1,-1],"loss_changes":[1.3434573E2,4.6858887E1,5.5012714E1,0E0,0E0,0E0,0E0],"parents":[2147483647,0,0,1,1,2,2],"right_children":[2,4,6,-1,-1,-1,-1],"split_conditions":[1.45E1,2.25E1,5.445E-1,-1.8714163E-3,-5.0839097E-3,-6.243386E-4,2.0828182E-3],"split_indices":[51,80,55,0,0,0,0],"split_type":[0,0,0,0,0,0,0],"sum_hessian":[6.0525903E3,2.9633088E3,3.0892815E3,2.4036565E3,5.596524E2,1.8062432E3,1.2830383E3],"tree_param":{"num_deleted":"0","num_feature":"104","num_nodes":"7","size_leaf_vector":"0"}},{"base_weights":[9.588248E-2,2.4796402E-1,-5.003061E-2,1.8714163E-1,5.0839096E-1,6.2433872E-2,-2.0828183E-1],"categories":[],"categories_nodes":[],"categories_segments":[],"categories_sizes":[],"default_left":[1,1,1,0,0,0,0],"id":95,"left_children":[1,3,5,-1,-1,-1,-1],"loss_changes":[1.3434573E2,4.6858887E1,5.501273E1,0E0,0E0,0E0,0E0],"parents":[2147483647,0,0,1,1,2,2],"right_children":[2,4,6,-1,-1,-1,-1],"split_conditions":[1.45E1,2.25E1,5.445E-1,1.8714162E-3,5.0839097E-3,6.243387E-4,-2.0828182E-3],"split_indices":[51,80,55,0,0,0,0],"split_type":[0,0,0,0,0,0,0],"sum_hessian":[6.0525903E3,2.9633088E3,3.0892815E3,2.4036565E3,5.596524E2,1.8062432E3,1.2830383E3],"tree_param":{"num_deleted":"0","num_feature":"104","num_nodes":"7","size_leaf_vector":"0"}},{"base_weights":[-9.4964035E-2,-1.739447E-1,1.8329607E-1,-5.2063055E-2,-3.1087047E-1,2.3583709E-1,-6.0282823E-2],"categories":[],"categories_nodes":[],"categories_segments":[],"categories_sizes":[],"default_left":[1,1,1,0,0,0,0],"id":96,"left_children":[1,3,5,-1,-1,-1,-1],"loss_changes":[1.3301817E2,7.865138E1,1.7141598E1,0E0,0E0,0E0,0E0],"parents":[2147483647,0,0,1,1,2,2],"right_children":[2,4,6,-1,-1,-1,-1],"split_conditions":[2.35E1,1.35E1,2.45E1,-5.2063057E-4,-3.1087047E-3,2.358371E-3,-6.028282E-4],"split_indices":[51,80,81,0,0,0,0],"split_type":[0,0,0,0,0,0,0],"sum_hessian":[6.050111E3,4.7128125E3,1.3372983E3,2.494111E3,2.2187014E3,1.1000455E3,2.3725278E2],"tree_param":{"num_deleted":"0","num_feature":"104","num_nodes":"7","size_leaf_vector":"0"}},{"base_weights":[9.4964035E-2,1.739447E-1,-1.8329607E-1,5.206306E-2,3.1087047E-1,-2.3583706E-1,6.028273E-2],"categories":[],"categories_nodes":[],"categories_segments":[],"categories_sizes":[],"default_left":[1,1,1,0,0,0,0],"id":97,"left_children":[1,3,5,-1,-1,-1,-1],"loss_changes":[1.3301817E2,7.865138E1,1.7141586E1,0E0,0E0,0E0,0E0],"parents":[2147483647,0,0,1,1,2,2],"right_children":[2,4,6,-1,-1,-1,-1],"split_conditions":[2.35E1,1.35E1,2.45E1,5.2063057E-4,3.1087047E-3,-2.3583705E-3,6.028273E-4],"split_indices":[51,80,81,0,0,0,0],"split_type":[0,0,0,0,0,0,0],"sum_hessian":[6.050111E3,4.7128125E3,1.3372983E3,2.494111E3,2.2187014E3,1.1000455E3,2.3725278E2],"tree_param":{"num_deleted":"0","num_feature":"104","num_nodes":"7","size_leaf_vector":"0"}},{"base_weights":[-9.405353E-2,-2.44088E-1,4.9768377E-2,-3.0551583E-1,1.0473364E-2,-7.6538116E-2,1.868249E-1],"categories":[],"categories_nodes":[],"categories_segments":[],"categories_sizes":[],"default_left":[1,1,1,0,0,0,0],"id":98,"left_children":[1,3,5,-1,-1,-1,-1],"loss_changes":[1.305312E2,4.629779E1,5.3489933E1,0E0,0E0,0E0,0E0],"parents":[2147483647,0,0,1,1,2,2],"right_children":[2,4,6,-1,-1,-1,-1],"split_conditions":[1.45E1,5.05E0,3.5000002E-1,-3.0551583E-3,1.0473364E-4,-7.6538115E-4,1.868249E-3],"split_indices":[51,77,77,0,0,0,0],"split_type":[0,0,0,0,0,0,0],"sum_hessian":[6.0476416E3,2.9595515E3,3.0880898E3,2.3840576E3,5.7549384E2,1.6073E3,1.4807899E3],"tree_param":{"num_deleted":"0","num_feature":"104","num_nodes":"7","size_leaf_vector":"0"}},{"base_weights":[9.405352E-2,2.4408798E-1,-4.9768377E-2,3.0551583E-1,-1.0473393E-2,7.653812E-2,-1.868249E-1],"categories":[],"categories_nodes":[],"categories_segments":[],"categories_sizes":[],"default_left":[1,1,1,0,0,0,0],"id":99,"left_children":[1,3,5,-1,-1,-1,-1],"loss_changes":[1.3053119E2,4.6297806E1,5.3489933E1,0E0,0E0,0E0,0E0],"parents":[2147483647,0,0,1,1,2,2],"right_children":[2,4,6,-1,-1,-1,-1],"split_conditions":[1.45E1,5.05E0,3.5000002E-1,3.0551583E-3,-1.04733925E-4,7.653812E-4,-1.868249E-3],"split_indices":[51,77,77,0,0,0,0],"split_type":[0,0,0,0,0,0,0],"sum_hessian":[6.0476416E3,2.9595515E3,3.0880898E3,2.3840576E3,5.754938E2,1.6073E3,1.4807899E3],"tree_param":{"num_deleted":"0","num_feature":"104","num_nodes":"7","size_leaf_vector":"0"}},{"base_weights":[-9.3152806E-2,-1.7102958E-1,1.8108559E-1,-5.0864697E-2,-3.0620694E-1,2.2729912E-1,-8.7940015E-2],"categories":[],"categories_nodes":[],"categories_segments":[],"categories_sizes":[],"default_left":[1,1,1,0,0,0,0],"id":100,"left_children":[1,3,5,-1,-1,-1,-1],"loss_changes":[1.2915652E2,7.648212E1,1.6651035E1,0E0,0E0,0E0,0E0],"parents":[2147483647,0,0,1,1,2,2],"right_children":[2,4,6,-1,-1,-1,-1],"split_conditions":[2.35E1,1.35E1,2.55E1,-5.0864695E-4,-3.0620694E-3,2.2729912E-3,-8.794001E-4],"split_indices":[51,80,81,0,0,0,0],"split_type":[0,0,0,0,0,0,0],"sum_hessian":[6.0451084E3,4.708414E3,1.3366943E3,2.4933477E3,2.2150664E3,1.1408696E3,1.9582478E2],"tree_param":{"num_deleted":"0","num_feature":"104","num_nodes":"7","size_leaf_vector":"0"}},{"base_weights":[9.31528E-2,1.7102958E-1,-1.8108563E-1,5.086471E-2,3.0620694E-1,-2.2729917E-1,8.7940015E-2],"categories":[],"categories_nodes":[],"categories_segments":[],"categories_sizes":[],"default_left":[1,1,1,0,0,0,0],"id":101,"left_children":[1,3,5,-1,-1,-1,-1],"loss_changes":[1.2915652E2,7.648215E1,1.6651043E1,0E0,0E0,0E0,0E0],"parents":[2147483647,0,0,1,1,2,2],"right_children":[2,4,6,-1,-1,-1,-1],"split_conditions":[2.35E1,1.35E1,2.55E1,5.086471E-4,3.0620694E-3,-2.2729917E-3,8.794001E-4],"split_indices":[51,80,81,0,0,0,0],"split_type":[0,0,0,0,0,0,0],"sum_hessian":[6.0451084E3,4.708414E3,1.3366943E3,2.4933477E3,2.2150662E3,1.1408695E3,1.9582478E2],"tree_param":{"num_deleted":"0","num_feature":"104","num_nodes":"7","size_leaf_vector":"0"}},{"base_weights":[-9.226027E-2,9.324513E-2,-2.0571111E-1,-8.0784E-3,2.341253E-1,-4.0789434E-1,-1.22458205E-1],"categories":[],"categories_nodes":[],"categories_segments":[],"categories_sizes":[],"default_left":[1,1,1,0,0,0,0],"id":102,"left_children":[1,3,5,-1,-1,-1,-1],"loss_changes":[1.2721135E2,3.275004E1,6.3078583E1,0E0,0E0,0E0,0E0],"parents":[2147483647,0,0,1,1,2,2],"right_children":[2,4,6,-1,-1,-1,-1],"split_conditions":[4.585E-1,2.55E1,-1.95E0,-8.0784E-5,2.341253E-3,-4.0789433E-3,-1.224582E-3],"split_indices":[3,51,77,0,0,0,0],"split_type":[0,0,0,0,0,0,0],"sum_hessian":[6.042606E3,2.2931748E3,3.7494312E3,1.3343961E3,9.5877875E2,1.0924559E3,2.656975E3],"tree_param":{"num_deleted":"0","num_feature":"104","num_nodes":"7","size_leaf_vector":"0"}},{"base_weights":[9.226026E-2,-9.324513E-2,2.057111E-1,8.078404E-3,-2.341253E-1,4.0789428E-1,1.22458205E-1],"categories":[],"categories_nodes":[],"categories_segments":[],"categories_sizes":[],"default_left":[1,1,1,0,0,0,0],"id":103,"left_children":[1,3,5,-1,-1,-1,-1],"loss_changes":[1.2721135E2,3.275004E1,6.3078537E1,0E0,0E0,0E0,0E0],"parents":[2147483647,0,0,1,1,2,2],"right_children":[2,4,6,-1,-1,-1,-1],"split_conditions":[4.585E-1,2.55E1,-1.95E0,8.078403E-5,-2.341253E-3,4.078943E-3,1.224582E-3],"split_indices":[3,51,77,0,0,0,0],"split_type":[0,0,0,0,0,0,0],"sum_hessian":[6.042606E3,2.2931748E3,3.749431E3,1.3343961E3,9.5877875E2,1.0924559E3,2.656975E3],"tree_param":{"num_deleted":"0","num_feature":"104","num_nodes":"7","size_leaf_vector":"0"}},{"base_weights":[-9.13758E-2,4.5549534E-2,-2.429024E-1,-1.316162E-1,1.4305024E-1,-3.0466828E-1,8.846084E-3],"categories":[],"categories_nodes":[],"categories_segments":[],"categories_sizes":[],"default_left":[1,1,1,0,0,0,0],"id":104,"left_children":[1,3,5,-1,-1,-1,-1],"loss_changes":[1.2535191E2,5.4851334E1,4.459604E1,0E0,0E0,0E0,0E0],"parents":[2147483647,0,0,1,1,2,2],"right_children":[2,4,6,-1,-1,-1,-1],"split_conditions":[5.5E-1,-1.45E0,5.05E0,-1.3161621E-3,1.4305024E-3,-3.0466828E-3,8.846084E-5],"split_indices":[25,77,77,0,0,0,0],"split_type":[0,0,0,0,0,0,0],"sum_hessian":[6.040155E3,3.1733193E3,2.8668354E3,1.126336E3,2.0469832E3,2.3018674E3,5.6496783E2],"tree_param":{"num_deleted":"0","num_feature":"104","num_nodes":"7","size_leaf_vector":"0"}},{"base_weights":[9.137578E-2,-4.5549538E-2,2.4290237E-1,1.3161619E-1,-1.4305024E-1,3.0466828E-1,-8.846195E-3],"categories":[],"categories_nodes":[],"categories_segments":[],"categories_sizes":[],"default_left":[1,1,1,0,0,0,0],"id":105,"left_children":[1,3,5,-1,-1,-1,-1],"loss_changes":[1.2535188E2,5.4851326E1,4.4596054E1,0E0,0E0,0E0,0E0],"parents":[2147483647,0,0,1,1,2,2],"right_children":[2,4,6,-1,-1,-1,-1],"split_conditions":[5.5E-1,-1.45E0,5.05E0,1.3161618E-3,-1.4305024E-3,3.0466828E-3,-8.846195E-5],"split_indices":[25,77,77,0,0,0,0],"split_type":[0,0,0,0,0,0,0],"sum_hessian":[6.040155E3,3.1733193E3,2.8668354E3,1.126336E3,2.0469832E3,2.3018674E3,5.6496783E2],"tree_param":{"num_deleted":"0","num_feature":"104","num_nodes":"7","size_leaf_vector":"0"}},{"base_weights":[-9.050215E-2,-1.7776914E-1,1.4381878E-1,-9.936603E-2,-3.750282E-1,-8.8399805E-2,2.0376979E-1],"categories":[],"categories_nodes":[],"categories_segments":[],"categories_sizes":[],"default_left":[1,1,1,0,0,0,0],"id":106,"left_children":[1,3,5,-1,-1,-1,-1],"loss_changes":[1.23504585E2,6.801741E1,2.2838364E1,0E0,0E0,0E0,0E0],"parents":[2147483647,0,0,1,1,2,2],"right_children":[2,4,6,-1,-1,-1,-1],"split_conditions":[2.15E1,1.95E1,3.585E-1,-9.936603E-4,-3.7502819E-3,-8.8399806E-4,2.037698E-3],"split_indices":[29,80,55,0,0,0,0],"split_type":[0,0,0,0,0,0,0],"sum_hessian":[6.037543E3,4.3993545E3,1.6381885E3,3.1491775E3,1.2501769E3,3.3604663E2,1.3021418E3],"tree_param":{"num_deleted":"0","num_feature":"104","num_nodes":"7","size_leaf_vector":"0"}},{"base_weights":[9.0502165E-2,1.7776915E-1,-1.4381875E-1,9.9366054E-2,3.7502816E-1,8.8399835E-2,-2.0376977E-1],"categories":[],"categories_nodes":[],"categories_segments":[],"categories_sizes":[],"default_left":[1,1,1,0,0,0,0],"id":107,"left_children":[1,3,5,-1,-1,-1,-1],"loss_changes":[1.23504585E2,6.8017395E1,2.2838367E1,0E0,0E0,0E0,0E0],"parents":[2147483647,0,0,1,1,2,2],"right_children":[2,4,6,-1,-1,-1,-1],"split_conditions":[2.15E1,1.95E1,3.585E-1,9.936605E-4,3.7502816E-3,8.8399835E-4,-2.0376977E-3],"split_indices":[29,80,55,0,0,0,0],"split_type":[0,0,0,0,0,0,0],"sum_hessian":[6.037543E3,4.3993545E3,1.6381885E3,3.1491775E3,1.2501769E3,3.3604663E2,1.3021418E3],"tree_param":{"num_deleted":"0","num_feature":"104","num_nodes":"7","size_leaf_vector":"0"}},{"base_weights":[-8.963566E-2,4.5282323E-2,-2.390742E-1,-1.2910913E-1,1.4122878E-1,-3.0021128E-1,9.729135E-3],"categories":[],"categories_nodes":[],"categories_segments":[],"categories_sizes":[],"default_left":[1,1,1,0,0,0,0],"id":108,"left_children":[1,3,5,-1,-1,-1,-1],"loss_changes":[1.21708755E2,5.3109047E1,4.3568405E1,0E0,0E0,0E0,0E0],"parents":[2147483647,0,0,1,1,2,2],"right_children":[2,4,6,-1,-1,-1,-1],"split_conditions":[5.5E-1,-1.45E0,5.05E0,-1.2910913E-3,1.4122878E-3,-3.0021127E-3,9.729135E-5],"split_indices":[25,77,77,0,0,0,0],"split_type":[0,0,0,0,0,0,0],"sum_hessian":[6.035021E3,3.1719646E3,2.8630562E3,1.1256489E3,2.0463157E3,2.2981401E3,5.64916E2],"tree_param":{"num_deleted":"0","num_feature":"104","num_nodes":"7","size_leaf_vector":"0"}},{"base_weights":[8.963566E-2,-4.5282323E-2,2.3907422E-1,1.2910913E-1,-1.4122877E-1,3.002113E-1,-9.729245E-3],"categories":[],"categories_nodes":[],"categories_segments":[],"categories_sizes":[],"default_left":[1,1,1,0,0,0,0],"id":109,"left_children":[1,3,5,-1,-1,-1,-1],"loss_changes":[1.2170877E2,5.3109043E1,4.356842E1,0E0,0E0,0E0,0E0],"parents":[2147483647,0,0,1,1,2,2],"right_children":[2,4,6,-1,-1,-1,-1],"split_conditions":[5.5E-1,-1.45E0,5.05E0,1.2910913E-3,-1.4122876E-3,3.002113E-3,-9.7292446E-5],"split_indices":[25,77,77,0,0,0,0],"split_type":[0,0,0,0,0,0,0],"sum_hessian":[6.0350205E3,3.1719646E3,2.863056E3,1.1256489E3,2.0463157E3,2.2981401E3,5.64916E2],"tree_param":{"num_deleted":"0","num_feature":"104","num_nodes":"7","size_leaf_vector":"0"}},{"base_weights":[-8.8779286E-2,2.1454749E-1,-1.5466948E-1,-6.586652E-1,2.3410343E-1,-3.4967992E-1,-7.157119E-2],"categories":[],"categories_nodes":[],"categories_segments":[],"categories_sizes":[],"default_left":[1,1,1,0,0,0,0],"id":110,"left_children":[1,3,5,-1,-1,-1,-1],"loss_changes":[1.2061766E2,1.8547787E1,8.030719E1,0E0,0E0,0E0,0E0],"parents":[2147483647,0,0,1,1,2,2],"right_children":[2,4,6,-1,-1,-1,-1],"split_conditions":[-4.6499996E0,8.5E0,-1.95E0,-6.586652E-3,2.3410341E-3,-3.4967992E-3,-7.157119E-4],"split_indices":[25,33,77,0,0,0,0],"split_type":[0,0,0,0,0,0,0],"sum_hessian":[6.0323687E3,1.0761295E3,4.9562393E3,2.2856548E1,1.053273E3,1.479955E3,3.4762842E3],"tree_param":{"num_deleted":"0","num_feature":"104","num_nodes":"7","size_leaf_vector":"0"}},{"base_weights":[8.8779315E-2,-2.1454747E-1,1.5466951E-1,6.586652E-1,-2.341034E-1,3.4967992E-1,7.157122E-2],"categories":[],"categories_nodes":[],"categories_segments":[],"categories_sizes":[],"default_left":[1,1,1,0,0,0,0],"id":111,"left_children":[1,3,5,-1,-1,-1,-1],"loss_changes":[1.20617645E2,1.8547787E1,8.030717E1,0E0,0E0,0E0,0E0],"parents":[2147483647,0,0,1,1,2,2],"right_children":[2,4,6,-1,-1,-1,-1],"split_conditions":[-4.6499996E0,8.5E0,-1.95E0,6.586652E-3,-2.341034E-3,3.4967992E-3,7.157122E-4],"split_indices":[25,33,77,0,0,0,0],"split_type":[0,0,0,0,0,0,0],"sum_hessian":[6.0323687E3,1.0761295E3,4.9562393E3,2.2856548E1,1.053273E3,1.4799551E3,3.4762842E3],"tree_param":{"num_deleted":"0","num_feature":"104","num_nodes":"7","size_leaf_vector":"0"}},{"base_weights":[-8.792652E-2,-1.8042177E-1,1.2479121E-1,-1.0261413E-1,-3.83437E-1,2.8160185E-1,3.147607E-2],"categories":[],"categories_nodes":[],"categories_segments":[],"categories_sizes":[],"default_left":[1,1,1,0,0,0,0],"id":112,"left_children":[1,3,5,-1,-1,-1,-1],"loss_changes":[1.1868654E2,6.636397E1,2.6744621E1,0E0,0E0,0E0,0E0],"parents":[2147483647,0,0,1,1,2,2],"right_children":[2,4,6,-1,-1,-1,-1],"split_conditions":[1.95E1,1.95E1,-6.3500004E0,-1.0261412E-3,-3.83437E-3,2.8160184E-3,3.147607E-4],"split_indices":[28,80,25,0,0,0,0],"split_type":[0,0,0,0,0,0,0],"sum_hessian":[6.0300923E3,4.2027695E3,1.8273225E3,3.039396E3,1.1633737E3,6.8097174E2,1.1463507E3],"tree_param":{"num_deleted":"0","num_feature":"104","num_nodes":"7","size_leaf_vector":"0"}},{"base_weights":[8.792656E-2,1.8042181E-1,-1.24791205E-1,1.0261417E-1,3.8343707E-1,-2.8160182E-1,-3.1476066E-2],"categories":[],"categories_nodes":[],"categories_segments":[],"categories_sizes":[],"default_left":[1,1,1,0,0,0,0],"id":113,"left_children":[1,3,5,-1,-1,-1,-1],"loss_changes":[1.18686584E2,6.636395E1,2.6744625E1,0E0,0E0,0E0,0E0],"parents":[2147483647,0,0,1,1,2,2],"right_children":[2,4,6,-1,-1,-1,-1],"split_conditions":[1.95E1,1.95E1,-6.3500004E0,1.0261417E-3,3.8343705E-3,-2.8160182E-3,-3.1476066E-4],"split_indices":[28,80,25,0,0,0,0],"split_type":[0,0,0,0,0,0,0],"sum_hessian":[6.0300923E3,4.2027695E3,1.8273225E3,3.039396E3,1.1633737E3,6.8097174E2,1.1463507E3],"tree_param":{"num_deleted":"0","num_feature":"104","num_nodes":"7","size_leaf_vector":"0"}},{"base_weights":[-8.708371E-2,-2.2969888E-1,4.915448E-2,-1.7163299E-1,-4.8093715E-1,-5.777204E-2,1.9955976E-1],"categories":[],"categories_nodes":[],"categories_segments":[],"categories_sizes":[],"default_left":[1,1,1,0,0,0,0],"id":114,"left_children":[1,3,5,-1,-1,-1,-1],"loss_changes":[1.1714526E2,4.2888336E1,4.96105E1,0E0,0E0,0E0,0E0],"parents":[2147483647,0,0,1,1,2,2],"right_children":[2,4,6,-1,-1,-1,-1],"split_conditions":[1.45E1,2.25E1,5.445E-1,-1.7163298E-3,-4.809371E-3,-5.777204E-4,1.9955975E-3],"split_indices":[51,80,55,0,0,0,0],"split_type":[0,0,0,0,0,0,0],"sum_hessian":[6.0276255E3,2.944556E3,3.0830696E3,2.3931394E3,5.514165E2,1.8023523E3,1.2807172E3],"tree_param":{"num_deleted":"0","num_feature":"104","num_nodes":"7","size_leaf_vector":"0"}},{"base_weights":[8.708371E-2,2.296989E-1,-4.9154487E-2,1.7163299E-1,4.809372E-1,5.7772033E-2,-1.9955976E-1],"categories":[],"categories_nodes":[],"categories_segments":[],"categories_sizes":[],"default_left":[1,1,1,0,0,0,0],"id":115,"left_children":[1,3,5,-1,-1,-1,-1],"loss_changes":[1.17145294E2,4.2888336E1,4.9610497E1,0E0,0E0,0E0,0E0],"parents":[2147483647,0,0,1,1,2,2],"right_children":[2,4,6,-1,-1,-1,-1],"split_conditions":[1.45E1,2.25E1,5.445E-1,1.7163298E-3,4.809372E-3,5.777203E-4,-1.9955975E-3],"split_indices":[51,80,55,0,0,0,0],"split_type":[0,0,0,0,0,0,0],"sum_hessian":[6.0276255E3,2.944556E3,3.0830696E3,2.3931394E3,5.514165E2,1.8023523E3,1.2807172E3],"tree_param":{"num_deleted":"0","num_feature":"104","num_nodes":"7","size_leaf_vector":"0"}},{"base_weights":[-8.6252354E-2,2.103563E-1,-1.5072806E-1,-6.5256846E-1,2.2969937E-1,-3.424038E-1,-6.926428E-2],"categories":[],"categories_nodes":[],"categories_segments":[],"categories_sizes":[],"default_left":[1,1,1,0,0,0,0],"id":116,"left_children":[1,3,5,-1,-1,-1,-1],"loss_changes":[1.152726E2,1.8117119E1,7.7277214E1,0E0,0E0,0E0,0E0],"parents":[2147483647,0,0,1,1,2,2],"right_children":[2,4,6,-1,-1,-1,-1],"split_conditions":[-4.6499996E0,8.5E0,-1.95E0,-6.5256846E-3,2.2969937E-3,-3.424038E-3,-6.9264276E-4],"split_indices":[25,33,77,0,0,0,0],"split_type":[0,0,0,0,0,0,0],"sum_hessian":[6.024966E3,1.0754221E3,4.949544E3,2.2860119E1,1.052562E3,1.4752448E3,3.4742988E3],"tree_param":{"num_deleted":"0","num_feature":"104","num_nodes":"7","size_leaf_vector":"0"}},{"base_weights":[8.625234E-2,-2.1035631E-1,1.5072805E-1,6.5256846E-1,-2.2969939E-1,3.424038E-1,6.9264255E-2],"categories":[],"categories_nodes":[],"categories_segments":[],"categories_sizes":[],"default_left":[1,1,1,0,0,0,0],"id":117,"left_children":[1,3,5,-1,-1,-1,-1],"loss_changes":[1.152726E2,1.8117119E1,7.727723E1,0E0,0E0,0E0,0E0],"parents":[2147483647,0,0,1,1,2,2],"right_children":[2,4,6,-1,-1,-1,-1],"split_conditions":[-4.6499996E0,8.5E0,-1.95E0,6.5256846E-3,-2.2969937E-3,3.424038E-3,6.926425E-4],"split_indices":[25,33,77,0,0,0,0],"split_type":[0,0,0,0,0,0,0],"sum_hessian":[6.024966E3,1.0754221E3,4.949544E3,2.2860119E1,1.052562E3,1.4752448E3,3.4742988E3],"tree_param":{"num_deleted":"0","num_feature":"104","num_nodes":"7","size_leaf_vector":"0"}},{"base_weights":[-8.5424736E-2,4.5225255E-2,-2.3044735E-1,-1.2416544E-1,1.3834324E-1,-2.9063764E-1,1.3657511E-2],"categories":[],"categories_nodes":[],"categories_segments":[],"categories_sizes":[],"default_left":[1,1,1,0,0,0,0],"id":118,"left_children":[1,3,5,-1,-1,-1,-1],"loss_changes":[1.141414E2,5.0013515E1,4.1951065E1,0E0,0E0,0E0,0E0],"parents":[2147483647,0,0,1,1,2,2],"right_children":[2,4,6,-1,-1,-1,-1],"split_conditions":[5.5E-1,-1.45E0,5.05E0,-1.2416544E-3,1.3834324E-3,-2.9063763E-3,1.3657511E-4],"split_indices":[25,77,77,0,0,0,0],"split_type":[0,0,0,0,0,0,0],"sum_hessian":[6.0226313E3,3.1686772E3,2.8539539E3,1.123886E3,2.0447914E3,2.2892822E3,5.646717E2],"tree_param":{"num_deleted":"0","num_feature":"104","num_nodes":"7","size_leaf_vector":"0"}},{"base_weights":[8.5424766E-2,-4.5225237E-2,2.304474E-1,1.2416545E-1,-1.3834323E-1,2.9063767E-1,-1.365743E-2],"categories":[],"categories_nodes":[],"categories_segments":[],"categories_sizes":[],"default_left":[1,1,1,0,0,0,0],"id":119,"left_children":[1,3,5,-1,-1,-1,-1],"loss_changes":[1.141414E2,5.001351E1,4.1951065E1,0E0,0E0,0E0,0E0],"parents":[2147483647,0,0,1,1,2,2],"right_children":[2,4,6,-1,-1,-1,-1],"split_conditions":[5.5E-1,-1.45E0,5.05E0,1.2416545E-3,-1.3834323E-3,2.9063767E-3,-1.365743E-4],"split_indices":[25,77,77,0,0,0,0],"split_type":[0,0,0,0,0,0,0],"sum_hessian":[6.0226313E3,3.1686772E3,2.8539539E3,1.123886E3,2.0447914E3,2.2892822E3,5.6467163E2],"tree_param":{"num_deleted":"0","num_feature":"104","num_nodes":"7","size_leaf_vector":"0"}},{"base_weights":[-8.46097E-2,-1.7476636E-1,1.2244575E-1,-9.887153E-2,-3.7356302E-1,-1.0700829E-1,1.8381184E-1],"categories":[],"categories_nodes":[],"categories_segments":[],"categories_sizes":[],"default_left":[1,1,1,0,0,0,0],"id":120,"left_children":[1,3,5,-1,-1,-1,-1],"loss_changes":[1.12416275E2,6.3254684E1,2.574479E1,0E0,0E0,0E0,0E0],"parents":[2147483647,0,0,1,1,2,2],"right_children":[2,4,6,-1,-1,-1,-1],"split_conditions":[1.95E1,1.95E1,3.585E-1,-9.887152E-4,-3.73563E-3,-1.0700829E-3,1.8381184E-3],"split_indices":[28,80,55,0,0,0,0],"split_type":[0,0,0,0,0,0,0],"sum_hessian":[6.0199087E3,4.1939316E3,1.8259773E3,3.036269E3,1.1576625E3,3.851434E2,1.4408339E3],"tree_param":{"num_deleted":"0","num_feature":"104","num_nodes":"7","size_leaf_vector":"0"}},{"base_weights":[8.46097E-2,1.7476636E-1,-1.22445755E-1,9.887153E-2,3.7356302E-1,1.0700826E-1,-1.8381184E-1],"categories":[],"categories_nodes":[],"categories_segments":[],"categories_sizes":[],"default_left":[1,1,1,0,0,0,0],"id":121,"left_children":[1,3,5,-1,-1,-1,-1],"loss_changes":[1.12416275E2,6.3254684E1,2.5744781E1,0E0,0E0,0E0,0E0],"parents":[2147483647,0,0,1,1,2,2],"right_children":[2,4,6,-1,-1,-1,-1],"split_conditions":[1.95E1,1.95E1,3.585E-1,9.887152E-4,3.73563E-3,1.0700827E-3,-1.8381184E-3],"split_indices":[28,80,55,0,0,0,0],"split_type":[0,0,0,0,0,0,0],"sum_hessian":[6.0199087E3,4.1939316E3,1.8259773E3,3.036269E3,1.1576625E3,3.851434E2,1.4408339E3],"tree_param":{"num_deleted":"0","num_feature":"104","num_nodes":"7","size_leaf_vector":"0"}},{"base_weights":[-8.380226E-2,2.0702906E-1,-1.4706364E-1,-6.4657027E-1,2.2617766E-1,-3.3531508E-1,-6.7252114E-2],"categories":[],"categories_nodes":[],"categories_segments":[],"categories_sizes":[],"default_left":[1,1,1,0,0,0,0],"id":122,"left_children":[1,3,5,-1,-1,-1,-1],"loss_changes":[1.1075595E2,1.7727428E1,7.425324E1,0E0,0E0,0E0,0E0],"parents":[2147483647,0,0,1,1,2,2],"right_children":[2,4,6,-1,-1,-1,-1],"split_conditions":[-4.6499996E0,8.5E0,-1.95E0,-6.4657023E-3,2.2617765E-3,-3.3531508E-3,-6.725211E-4],"split_indices":[25,33,77,0,0,0,0],"split_type":[0,0,0,0,0,0,0],"sum_hessian":[6.017217E3,1.074616E3,4.942601E3,2.28588E1,1.0517572E3,1.4706284E3,3.4719724E3],"tree_param":{"num_deleted":"0","num_feature":"104","num_nodes":"7","size_leaf_vector":"0"}},{"base_weights":[8.380227E-2,-2.0702909E-1,1.4706366E-1,6.465702E-1,-2.2617769E-1,3.3531508E-1,6.725213E-2],"categories":[],"categories_nodes":[],"categories_segments":[],"categories_sizes":[],"default_left":[1,1,1,0,0,0,0],"id":123,"left_children":[1,3,5,-1,-1,-1,-1],"loss_changes":[1.1075597E2,1.7727432E1,7.4253265E1,0E0,0E0,0E0,0E0],"parents":[2147483647,0,0,1,1,2,2],"right_children":[2,4,6,-1,-1,-1,-1],"split_conditions":[-4.6499996E0,8.5E0,-1.95E0,6.465702E-3,-2.261777E-3,3.3531508E-3,6.725213E-4],"split_indices":[25,33,77,0,0,0,0],"split_type":[0,0,0,0,0,0,0],"sum_hessian":[6.017217E3,1.074616E3,4.942601E3,2.28588E1,1.0517572E3,1.4706284E3,3.4719724E3],"tree_param":{"num_deleted":"0","num_feature":"104","num_nodes":"7","size_leaf_vector":"0"}},{"base_weights":[-8.299894E-2,4.5176446E-2,-2.2545217E-1,-5.909213E-2,1.9160695E-1,-2.849137E-1,1.5159371E-2],"categories":[],"categories_nodes":[],"categories_segments":[],"categories_sizes":[],"default_left":[1,1,1,0,0,0,0],"id":124,"left_children":[1,3,5,-1,-1,-1,-1],"loss_changes":[1.0985327E2,4.8372143E1,4.077092E1,0E0,0E0,0E0,0E0],"parents":[2147483647,0,0,1,1,2,2],"right_children":[2,4,6,-1,-1,-1,-1],"split_conditions":[5.5E-1,5.445E-1,5.05E0,-5.9092126E-4,1.9160695E-3,-2.8491367E-3,1.515937E-4],"split_indices":[25,55,77,0,0,0,0],"split_type":[0,0,0,0,0,0,0],"sum_hessian":[6.0148335E3,3.1664417E3,2.8483916E3,1.8498313E3,1.3166105E3,2.283816E3,5.645758E2],"tree_param":{"num_deleted":"0","num_feature":"104","num_nodes":"7","size_leaf_vector":"0"}},{"base_weights":[8.2998924E-2,-4.5176443E-2,2.2545214E-1,5.9092134E-2,-1.9160695E-1,2.8491366E-1,-1.515937E-2],"categories":[],"categories_nodes":[],"categories_segments":[],"categories_sizes":[],"default_left":[1,1,1,0,0,0,0],"id":125,"left_children":[1,3,5,-1,-1,-1,-1],"loss_changes":[1.0985324E2,4.8372147E1,4.077092E1,0E0,0E0,0E0,0E0],"parents":[2147483647,0,0,1,1,2,2],"right_children":[2,4,6,-1,-1,-1,-1],"split_conditions":[5.5E-1,5.445E-1,5.05E0,5.909213E-4,-1.9160695E-3,2.8491365E-3,-1.515937E-4],"split_indices":[25,55,77,0,0,0,0],"split_type":[0,0,0,0,0,0,0],"sum_hessian":[6.0148335E3,3.1664417E3,2.8483916E3,1.8498313E3,1.3166105E3,2.2838157E3,5.645758E2],"tree_param":{"num_deleted":"0","num_feature":"104","num_nodes":"7","size_leaf_vector":"0"}},{"base_weights":[-8.220628E-2,1.0693914E-1,-1.7709553E-1,3.5491486E-3,2.2349462E-1,-1.1719025E-1,-4.265955E-1],"categories":[],"categories_nodes":[],"categories_segments":[],"categories_sizes":[],"default_left":[1,1,1,0,0,0,0],"id":126,"left_children":[1,3,5,-1,-1,-1,-1],"loss_changes":[1.0794222E2,2.4214733E1,5.9805397E1,0E0,0E0,0E0,0E0],"parents":[2147483647,0,0,1,1,2,2],"right_children":[2,4,6,-1,-1,-1,-1],"split_conditions":[-1.6500001E0,3.5000002E-1,2.25E1,3.5491485E-5,2.2349462E-3,-1.1719025E-3,-4.265955E-3],"split_indices":[25,77,80,0,0,0,0],"split_type":[0,0,0,0,0,0,0],"sum_hessian":[6.012153E3,2.0084755E3,4.0036772E3,1.0648955E3,9.4358E2,3.229693E3,7.739841E2],"tree_param":{"num_deleted":"0","num_feature":"104","num_nodes":"7","size_leaf_vector":"0"}},{"base_weights":[8.220627E-2,-1.0693914E-1,1.7709553E-1,-3.5491567E-3,-2.2349462E-1,1.1719024E-1,4.265955E-1],"categories":[],"categories_nodes":[],"categories_segments":[],"categories_sizes":[],"default_left":[1,1,1,0,0,0,0],"id":127,"left_children":[1,3,5,-1,-1,-1,-1],"loss_changes":[1.07942215E2,2.4214731E1,5.9805374E1,0E0,0E0,0E0,0E0],"parents":[2147483647,0,0,1,1,2,2],"right_children":[2,4,6,-1,-1,-1,-1],"split_conditions":[-1.6500001E0,3.5000002E-1,2.25E1,-3.5491565E-5,-2.2349462E-3,1.1719024E-3,4.265955E-3],"split_indices":[25,77,80,0,0,0,0],"split_type":[0,0,0,0,0,0,0],"sum_hessian":[6.012153E3,2.0084755E3,4.0036772E3,1.0648955E3,9.4358E2,3.229693E3,7.739841E2],"tree_param":{"num_deleted":"0","num_feature":"104","num_nodes":"7","size_leaf_vector":"0"}},{"base_weights":[-8.142136E-2,-2.178263E-1,4.847744E-2,-2.7565697E-1,1.923055E-2,-5.4063592E-2,1.927177E-1],"categories":[],"categories_nodes":[],