{"learner":{"attributes":{"best_iteration":"499","best_ntree_limit":"500"},"feature_names":[],"feature_types":[],"gradient_booster":{"model":{"gbtree_model_param":{"num_parallel_tree":"1","num_trees":"1000","size_leaf_vector":"0"},"tree_info":[0,1,0,1,0,1,0,1,0,1,0,1,0,1,0,1,0,1,0,1,0,1,0,1,0,1,0,1,0,1,0,1,0,1,0,1,0,1,0,1,0,1,0,1,0,1,0,1,0,1,0,1,0,1,0,1,0,1,0,1,0,1,0,1,0,1,0,1,0,1,0,1,0,1,0,1,0,1,0,1,0,1,0,1,0,1,0,1,0,1,0,1,0,1,0,1,0,1,0,1,0,1,0,1,0,1,0,1,0,1,0,1,0,1,0,1,0,1,0,1,0,1,0,1,0,1,0,1,0,1,0,1,0,1,0,1,0,1,0,1,0,1,0,1,0,1,0,1,0,1,0,1,0,1,0,1,0,1,0,1,0,1,0,1,0,1,0,1,0,1,0,1,0,1,0,1,0,1,0,1,0,1,0,1,0,1,0,1,0,1,0,1,0,1,0,1,0,1,0,1,0,1,0,1,0,1,0,1,0,1,0,1,0,1,0,1,0,1,0,1,0,1,0,1,0,1,0,1,0,1,0,1,0,1,0,1,0,1,0,1,0,1,0,1,0,1,0,1,0,1,0,1,0,1,0,1,0,1,0,1,0,1,0,1,0,1,0,1,0,1,0,1,0,1,0,1,0,1,0,1,0,1,0,1,0,1,0,1,0,1,0,1,0,1,0,1,0,1,0,1,0,1,0,1,0,1,0,1,0,1,0,1,0,1,0,1,0,1,0,1,0,1,0,1,0,1,0,1,0,1,0,1,0,1,0,1,0,1,0,1,0,1,0,1,0,1,0,1,0,1,0,1,0,1,0,1,0,1,0,1,0,1,0,1,0,1,0,1,0,1,0,1,0,1,0,1,0,1,0,1,0,1,0,1,0,1,0,1,0,1,0,1,0,1,0,1,0,1,0,1,0,1,0,1,0,1,0,1,0,1,0,1,0,1,0,1,0,1,0,1,0,1,0,1,0,1,0,1,0,1,0,1,0,1,0,1,0,1,0,1,0,1,0,1,0,1,0,1,0,1,0,1,0,1,0,1,0,1,0,1,0,1,0,1,0,1,0,1,0,1,0,1,0,1,0,1,0,1,0,1,0,1,0,1,0,1,0,1,0,1,0,1,0,1,0,1,0,1,0,1,0,1,0,1,0,1,0,1,0,1,0,1,0,1,0,1,0,1,0,1,0,1,0,1,0,1,0,1,0,1,0,1,0,1,0,1,0,1,0,1,0,1,0,1,0,1,0,1,0,1,0,1,0,1,0,1,0,1,0,1,0,1,0,1,0,1,0,1,0,1,0,1,0,1,0,1,0,1,0,1,0,1,0,1,0,1,0,1,0,1,0,1,0,1,0,1,0,1,0,1,0,1,0,1,0,1,0,1,0,1,0,1,0,1,0,1,0,1,0,1,0,1,0,1,0,1,0,1,0,1,0,1,0,1,0,1,0,1,0,1,0,1,0,1,0,1,0,1,0,1,0,1,0,1,0,1,0,1,0,1,0,1,0,1,0,1,0,1,0,1,0,1,0,1,0,1,0,1,0,1,0,1,0,1,0,1,0,1,0,1,0,1,0,1,0,1,0,1,0,1,0,1,0,1,0,1,0,1,0,1,0,1,0,1,0,1,0,1,0,1,0,1,0,1,0,1,0,1,0,1,0,1,0,1,0,1,0,1,0,1,0,1,0,1,0,1,0,1,0,1,0,1,0,1,0,1,0,1,0,1,0,1,0,1,0,1,0,1,0,1,0,1,0,1,0,1,0,1,0,1,0,1,0,1,0,1,0,1,0,1,0,1,0,1,0,1,0,1,0,1,0,1,0,1,0,1,0,1,0,1,0,1,0,1,0,1,0,1,0,1,0,1,0,1,0,1,0,1,0,1,0,1,0,1,0,1,0,1,0,1,0,1,0,1,0,1,0,1,0,1,0,1,0,1,0,1,0,1,0,1,0,1,0,1,0,1,0,1,0,1,0,1,0,1,0,1,0,1,0,1,0,1,0,1,0,1,0,1,0,1,0,1,0,1,0,1,0,1,0,1,0,1,0,1,0,1,0,1,0,1,0,1,0,1,0,1,0,1,0,1,0,1,0,1,0,1,0,1,0,1,0,1,0,1,0,1,0,1,0,1,0,1,0,1,0,1,0,1,0,1,0,1,0,1,0,1,0,1,0,1,0,1,0,1,0,1,0,1,0,1,0,1,0,1,0,1,0,1,0,1,0,1,0,1,0,1,0,1,0,1,0,1,0,1,0,1,0,1,0,1],"trees":[{"base_weights":[-1.494328E-1,-3.5865256E-1,5.5008873E-2,-4.654962E-1,-1.3438937E-1,-2.186093E-1,1.8514992E-1],"categories":[],"categories_nodes":[],"categories_segments":[],"categories_sizes":[],"default_left":[1,1,1,0,0,0,0],"id":0,"left_children":[1,3,5,-1,-1,-1,-1],"loss_changes":[2.6207E2,7.249164E1,1.10410446E2,0E0,0E0,0E0,0E0],"parents":[2147483647,0,0,1,1,2,2],"right_children":[2,4,6,-1,-1,-1,-1],"split_conditions":[1.45E1,2.95E0,-1.95E0,-4.654962E-3,-1.3438937E-3,-2.186093E-3,1.8514992E-3],"split_indices":[51,77,77,0,0,0,0],"split_type":[0,0,0,0,0,0,0],"sum_hessian":[6.1255E3,3.027E3,3.0985E3,2.0495E3,9.775E2,9.985E2,2.1E3],"tree_param":{"num_deleted":"0","num_feature":"104","num_nodes":"7","size_leaf_vector":"0"}},{"base_weights":[1.494328E-1,3.5865256E-1,-5.5008873E-2,4.654962E-1,1.3438937E-1,2.186093E-1,-1.8514992E-1],"categories":[],"categories_nodes":[],"categories_segments":[],"categories_sizes":[],"default_left":[1,1,1,0,0,0,0],"id":1,"left_children":[1,3,5,-1,-1,-1,-1],"loss_changes":[2.6207E2,7.249164E1,1.10410446E2,0E0,0E0,0E0,0E0],"parents":[2147483647,0,0,1,1,2,2],"right_children":[2,4,6,-1,-1,-1,-1],"split_conditions":[1.45E1,2.95E0,-1.95E0,4.654962E-3,1.3438937E-3,2.186093E-3,-1.8514992E-3],"split_indices":[51,77,77,0,0,0,0],"split_type":[0,0,0,0,0,0,0],"sum_hessian":[6.1255E3,3.027E3,3.0985E3,2.0495E3,9.775E2,9.985E2,2.1E3],"tree_param":{"num_deleted":"0","num_feature":"104","num_nodes":"7","size_leaf_vector":"0"}},{"base_weights":[-1.4794093E-1,-3.5507348E-1,5.445885E-2,-2.0391925E-1,-5.106533E-1,-2.1642643E-1,1.8329988E-1],"categories":[],"categories_nodes":[],"categories_segments":[],"categories_sizes":[],"default_left":[1,1,1,0,0,0,0],"id":2,"left_children":[1,3,5,-1,-1,-1,-1],"loss_changes":[2.5686172E2,7.1102875E1,1.0821535E2,0E0,0E0,0E0,0E0],"parents":[2147483647,0,0,1,1,2,2],"right_children":[2,4,6,-1,-1,-1,-1],"split_conditions":[1.45E1,1.25E1,-1.95E0,-2.0391925E-3,-5.106533E-3,-2.1642642E-3,1.8329988E-3],"split_indices":[51,80,77,0,0,0,0],"split_type":[0,0,0,0,0,0,0],"sum_hessian":[6.1254414E3,3.0269536E3,3.098488E3,1.5364857E3,1.4904679E3,9.984952E2,2.0999927E3],"tree_param":{"num_deleted":"0","num_feature":"104","num_nodes":"7","size_leaf_vector":"0"}},{"base_weights":[1.4794092E-1,3.550735E-1,-5.4458916E-2,2.0391932E-1,5.106534E-1,2.1642646E-1,-1.833E-1],"categories":[],"categories_nodes":[],"categories_segments":[],"categories_sizes":[],"default_left":[1,1,1,0,0,0,0],"id":3,"left_children":[1,3,5,-1,-1,-1,-1],"loss_changes":[2.5686188E2,7.1102875E1,1.0821542E2,0E0,0E0,0E0,0E0],"parents":[2147483647,0,0,1,1,2,2],"right_children":[2,4,6,-1,-1,-1,-1],"split_conditions":[1.45E1,1.25E1,-1.95E0,2.0391932E-3,5.106534E-3,2.1642647E-3,-1.833E-3],"split_indices":[51,80,77,0,0,0,0],"split_type":[0,0,0,0,0,0,0],"sum_hessian":[6.125442E3,3.0269539E3,3.098488E3,1.5364857E3,1.490468E3,9.9849524E2,2.0999927E3],"tree_param":{"num_deleted":"0","num_feature":"104","num_nodes":"7","size_leaf_vector":"0"}},{"base_weights":[-1.4646675E-1,-3.515405E-1,5.3914882E-2,-4.5664066E-1,-1.3095337E-1,-2.1426731E-1,1.8146974E-1],"categories":[],"categories_nodes":[],"categories_segments":[],"categories_sizes":[],"default_left":[1,1,1,0,0,0,0],"id":4,"left_children":[1,3,5,-1,-1,-1,-1],"loss_changes":[2.5176605E2,7.0136444E1,1.0606479E2,0E0,0E0,0E0,0E0],"parents":[2147483647,0,0,1,1,2,2],"right_children":[2,4,6,-1,-1,-1,-1],"split_conditions":[1.45E1,2.95E0,-1.95E0,-4.5664064E-3,-1.3095337E-3,-2.1426731E-3,1.8146973E-3],"split_indices":[51,77,77,0,0,0,0],"split_type":[0,0,0,0,0,0,0],"sum_hessian":[6.1252744E3,3.026822E3,3.0984526E3,2.0493337E3,9.774883E2,9.9848114E2,2.0999714E3],"tree_param":{"num_deleted":"0","num_feature":"104","num_nodes":"7","size_leaf_vector":"0"}},{"base_weights":[1.4646676E-1,3.5154045E-1,-5.3914774E-2,4.566406E-1,1.3095325E-1,2.142674E-1,-1.8146962E-1],"categories":[],"categories_nodes":[],"categories_segments":[],"categories_sizes":[],"default_left":[1,1,1,0,0,0,0],"id":5,"left_children":[1,3,5,-1,-1,-1,-1],"loss_changes":[2.5176581E2,7.0136475E1,1.06064766E2,0E0,0E0,0E0,0E0],"parents":[2147483647,0,0,1,1,2,2],"right_children":[2,4,6,-1,-1,-1,-1],"split_conditions":[1.45E1,2.95E0,-1.95E0,4.566406E-3,1.3095324E-3,2.142674E-3,-1.8146961E-3],"split_indices":[51,77,77,0,0,0,0],"split_type":[0,0,0,0,0,0,0],"sum_hessian":[6.1252744E3,3.026822E3,3.0984526E3,2.0493337E3,9.774883E2,9.984811E2,2.0999714E3],"tree_param":{"num_deleted":"0","num_feature":"104","num_nodes":"7","size_leaf_vector":"0"}},{"base_weights":[-1.4500976E-1,1.05715446E-1,-3.0580774E-1,-1.4259669E-1,2.2092597E-1,-4.1633382E-1,-6.7094944E-2],"categories":[],"categories_nodes":[],"categories_segments":[],"categories_sizes":[],"default_left":[1,1,1,0,0,0,0],"id":6,"left_children":[1,3,5,-1,-1,-1,-1],"loss_changes":[2.4700867E2,6.853109E1,9.84527E1,0E0,0E0,0E0,0E0],"parents":[2147483647,0,0,1,1,2,2],"right_children":[2,4,6,-1,-1,-1,-1],"split_conditions":[4.675E-1,-2.05E0,2.95E0,-1.4259669E-3,2.2092597E-3,-4.1633383E-3,-6.709494E-4],"split_indices":[3,77,77,0,0,0,0],"split_type":[0,0,0,0,0,0,0],"sum_hessian":[6.1249966E3,2.3934065E3,3.7315903E3,7.584623E2,1.6349442E3,2.5501191E3,1.1814713E3],"tree_param":{"num_deleted":"0","num_feature":"104","num_nodes":"7","size_leaf_vector":"0"}},{"base_weights":[1.4500977E-1,-1.0571539E-1,3.0580774E-1,1.4259681E-1,-2.2092594E-1,4.1633382E-1,6.7094974E-2],"categories":[],"categories_nodes":[],"categories_segments":[],"categories_sizes":[],"default_left":[1,1,1,0,0,0,0],"id":7,"left_children":[1,3,5,-1,-1,-1,-1],"loss_changes":[2.4700862E2,6.853112E1,9.845273E1,0E0,0E0,0E0,0E0],"parents":[2147483647,0,0,1,1,2,2],"right_children":[2,4,6,-1,-1,-1,-1],"split_conditions":[4.675E-1,-2.05E0,2.95E0,1.4259681E-3,-2.2092594E-3,4.1633383E-3,6.7094975E-4],"split_indices":[3,77,77,0,0,0,0],"split_type":[0,0,0,0,0,0,0],"sum_hessian":[6.1249966E3,2.3934065E3,3.7315903E3,7.584623E2,1.6349441E3,2.550119E3,1.1814713E3],"tree_param":{"num_deleted":"0","num_feature":"104","num_nodes":"7","size_leaf_vector":"0"}},{"base_weights":[-1.4356807E-1,-3.4521192E-1,5.3438764E-2,-1.9754364E-1,-4.972377E-1,-2.1006215E-1,1.7876391E-1],"categories":[],"categories_nodes":[],"categories_segments":[],"categories_sizes":[],"default_left":[1,1,1,0,0,0,0],"id":8,"left_children":[1,3,5,-1,-1,-1,-1],"loss_changes":[2.4336203E2,6.786377E1,1.0238754E2,0E0,0E0,0E0,0E0],"parents":[2147483647,0,0,1,1,2,2],"right_children":[2,4,6,-1,-1,-1,-1],"split_conditions":[1.45E1,1.25E1,-1.95E0,-1.9754362E-3,-4.972377E-3,-2.1006214E-3,1.7876391E-3],"split_indices":[51,80,77,0,0,0,0],"split_type":[0,0,0,0,0,0,0],"sum_hessian":[6.1246704E3,3.0263428E3,3.0983274E3,1.5363392E3,1.4900037E3,9.9842487E2,2.0999026E3],"tree_param":{"num_deleted":"0","num_feature":"104","num_nodes":"7","size_leaf_vector":"0"}},{"base_weights":[1.4356805E-1,3.4521186E-1,-5.3438745E-2,1.9754355E-1,4.972377E-1,2.1006219E-1,-1.7876391E-1],"categories":[],"categories_nodes":[],"categories_segments":[],"categories_sizes":[],"default_left":[1,1,1,0,0,0,0],"id":9,"left_children":[1,3,5,-1,-1,-1,-1],"loss_changes":[2.4336194E2,6.78638E1,1.02387566E2,0E0,0E0,0E0,0E0],"parents":[2147483647,0,0,1,1,2,2],"right_children":[2,4,6,-1,-1,-1,-1],"split_conditions":[1.45E1,1.25E1,-1.95E0,1.9754355E-3,4.972377E-3,2.1006218E-3,-1.7876391E-3],"split_indices":[51,80,77,0,0,0,0],"split_type":[0,0,0,0,0,0,0],"sum_hessian":[6.1246704E3,3.026343E3,3.0983274E3,1.5363394E3,1.4900037E3,9.984249E2,2.0999026E3],"tree_param":{"num_deleted":"0","num_feature":"104","num_nodes":"7","size_leaf_vector":"0"}},{"base_weights":[-1.421444E-1,1.0433769E-1,-3.0023906E-1,-1.3895588E-1,2.1721834E-1,-4.091017E-1,-6.5168984E-2],"categories":[],"categories_nodes":[],"categories_segments":[],"categories_sizes":[],"default_left":[1,1,1,0,0,0,0],"id":10,"left_children":[1,3,5,-1,-1,-1,-1],"loss_changes":[2.3871536E2,6.578414E1,9.547516E1,0E0,0E0,0E0,0E0],"parents":[2147483647,0,0,1,1,2,2],"right_children":[2,4,6,-1,-1,-1,-1],"split_conditions":[4.675E-1,-2.05E0,2.95E0,-1.3895588E-3,2.1721832E-3,-4.091017E-3,-6.516898E-4],"split_indices":[3,77,77,0,0,0,0],"split_type":[0,0,0,0,0,0,0],"sum_hessian":[6.1242085E3,2.3932625E3,3.730946E3,7.584124E2,1.63485E3,2.5495095E3,1.1814365E3],"tree_param":{"num_deleted":"0","num_feature":"104","num_nodes":"7","size_leaf_vector":"0"}},{"base_weights":[1.4214441E-1,-1.0433769E-1,3.0023906E-1,1.3895589E-1,-2.1721834E-1,4.0910172E-1,6.5168954E-2],"categories":[],"categories_nodes":[],"categories_segments":[],"categories_sizes":[],"default_left":[1,1,1,0,0,0,0],"id":11,"left_children":[1,3,5,-1,-1,-1,-1],"loss_changes":[2.3871536E2,6.578414E1,9.547519E1,0E0,0E0,0E0,0E0],"parents":[2147483647,0,0,1,1,2,2],"right_children":[2,4,6,-1,-1,-1,-1],"split_conditions":[4.675E-1,-2.05E0,2.95E0,1.3895589E-3,-2.1721832E-3,4.091017E-3,6.5168954E-4],"split_indices":[3,77,77,0,0,0,0],"split_type":[0,0,0,0,0,0,0],"sum_hessian":[6.1242085E3,2.3932625E3,3.730946E3,7.584124E2,1.63485E3,2.5495093E3,1.1814365E3],"tree_param":{"num_deleted":"0","num_feature":"104","num_nodes":"7","size_leaf_vector":"0"}},{"base_weights":[-1.4073543E-1,-3.3903015E-1,5.2963972E-2,-1.9380087E-1,-4.8859045E-1,-2.0595095E-1,1.7610335E-1],"categories":[],"categories_nodes":[],"categories_segments":[],"categories_sizes":[],"default_left":[1,1,1,0,0,0,0],"id":12,"left_children":[1,3,5,-1,-1,-1,-1],"loss_changes":[2.35265E2,6.564432E1,9.884414E1,0E0,0E0,0E0,0E0],"parents":[2147483647,0,0,1,1,2,2],"right_children":[2,4,6,-1,-1,-1,-1],"split_conditions":[1.45E1,1.25E1,-1.95E0,-1.9380086E-3,-4.8859045E-3,-2.0595095E-3,1.7610335E-3],"split_indices":[51,80,77,0,0,0,0],"split_type":[0,0,0,0,0,0,0],"sum_hessian":[6.1236987E3,3.0255847E3,3.0981138E3,1.5361829E3,1.4894019E3,9.983319E2,2.099782E3],"tree_param":{"num_deleted":"0","num_feature":"104","num_nodes":"7","size_leaf_vector":"0"}},{"base_weights":[1.4073546E-1,3.390302E-1,-5.2963983E-2,1.9380096E-1,4.8859045E-1,2.0595086E-1,-1.7610332E-1],"categories":[],"categories_nodes":[],"categories_segments":[],"categories_sizes":[],"default_left":[1,1,1,0,0,0,0],"id":13,"left_children":[1,3,5,-1,-1,-1,-1],"loss_changes":[2.3526505E2,6.564435E1,9.884409E1,0E0,0E0,0E0,0E0],"parents":[2147483647,0,0,1,1,2,2],"right_children":[2,4,6,-1,-1,-1,-1],"split_conditions":[1.45E1,1.25E1,-1.95E0,1.9380095E-3,4.8859045E-3,2.0595086E-3,-1.7610332E-3],"split_indices":[51,80,77,0,0,0,0],"split_type":[0,0,0,0,0,0,0],"sum_hessian":[6.1236987E3,3.025585E3,3.0981138E3,1.5361829E3,1.489402E3,9.983319E2,2.0997817E3],"tree_param":{"num_deleted":"0","num_feature":"104","num_nodes":"7","size_leaf_vector":"0"}},{"base_weights":[-1.39344E-1,1.0297784E-1,-2.947959E-1,-1.353977E-1,2.135757E-1,-4.0204233E-1,-6.328807E-2],"categories":[],"categories_nodes":[],"categories_segments":[],"categories_sizes":[],"default_left":[1,1,1,0,0,0,0],"id":14,"left_children":[1,3,5,-1,-1,-1,-1],"loss_changes":[2.307199E2,6.3145306E1,9.2609406E1,0E0,0E0,0E0,0E0],"parents":[2147483647,0,0,1,1,2,2],"right_children":[2,4,6,-1,-1,-1,-1],"split_conditions":[4.675E-1,-2.05E0,2.95E0,-1.353977E-3,2.1357571E-3,-4.020423E-3,-6.3288066E-4],"split_indices":[3,77,77,0,0,0,0],"split_type":[0,0,0,0,0,0,0],"sum_hessian":[6.123058E3,2.3930525E3,3.7300056E3,7.5834344E2,1.6347091E3,2.5486172E3,1.1813883E3],"tree_param":{"num_deleted":"0","num_feature":"104","num_nodes":"7","size_leaf_vector":"0"}},{"base_weights":[1.3934396E-1,-1.0297792E-1,2.947959E-1,1.353977E-1,-2.1357583E-1,4.0204233E-1,6.328803E-2],"categories":[],"categories_nodes":[],"categories_segments":[],"categories_sizes":[],"default_left":[1,1,1,0,0,0,0],"id":15,"left_children":[1,3,5,-1,-1,-1,-1],"loss_changes":[2.3072E2,6.3145344E1,9.2609406E1,0E0,0E0,0E0,0E0],"parents":[2147483647,0,0,1,1,2,2],"right_children":[2,4,6,-1,-1,-1,-1],"split_conditions":[4.675E-1,-2.05E0,2.95E0,1.353977E-3,-2.1357583E-3,4.020423E-3,6.328803E-4],"split_indices":[3,77,77,0,0,0,0],"split_type":[0,0,0,0,0,0,0],"sum_hessian":[6.123058E3,2.3930525E3,3.7300054E3,7.5834344E2,1.6347091E3,2.5486172E3,1.1813883E3],"tree_param":{"num_deleted":"0","num_feature":"104","num_nodes":"7","size_leaf_vector":"0"}},{"base_weights":[-1.3796674E-1,-3.3298993E-1,5.249051E-2,-4.2238814E-1,-9.7529225E-2,-2.0193101E-1,1.7348696E-1],"categories":[],"categories_nodes":[],"categories_segments":[],"categories_sizes":[],"default_left":[1,1,1,0,0,0,0],"id":16,"left_children":[1,3,5,-1,-1,-1,-1],"loss_changes":[2.2746155E2,6.364612E1,9.542932E1,0E0,0E0,0E0,0E0],"parents":[2147483647,0,0,1,1,2,2],"right_children":[2,4,6,-1,-1,-1,-1],"split_conditions":[1.45E1,3.75E0,-1.95E0,-4.2238813E-3,-9.7529223E-4,-2.0193101E-3,1.7348696E-3],"split_indices":[51,77,77,0,0,0,0],"split_type":[0,0,0,0,0,0,0],"sum_hessian":[6.1223755E3,3.0245588E3,3.0978167E3,2.191652E3,8.329065E2,9.982044E2,2.0996123E3],"tree_param":{"num_deleted":"0","num_feature":"104","num_nodes":"7","size_leaf_vector":"0"}},{"base_weights":[1.3796672E-1,3.3299E-1,-5.2490573E-2,4.2238823E-1,9.7529225E-2,2.0193094E-1,-1.7348702E-1],"categories":[],"categories_nodes":[],"categories_segments":[],"categories_sizes":[],"default_left":[1,1,1,0,0,0,0],"id":17,"left_children":[1,3,5,-1,-1,-1,-1],"loss_changes":[2.274617E2,6.364615E1,9.542931E1,0E0,0E0,0E0,0E0],"parents":[2147483647,0,0,1,1,2,2],"right_children":[2,4,6,-1,-1,-1,-1],"split_conditions":[1.45E1,3.75E0,-1.95E0,4.223882E-3,9.7529223E-4,2.0193094E-3,-1.7348701E-3],"split_indices":[51,77,77,0,0,0,0],"split_type":[0,0,0,0,0,0,0],"sum_hessian":[6.1223755E3,3.0245586E3,3.0978167E3,2.191652E3,8.329065E2,9.9820447E2,2.0996123E3],"tree_param":{"num_deleted":"0","num_feature":"104","num_nodes":"7","size_leaf_vector":"0"}},{"base_weights":[-1.3660619E-1,1.0163603E-1,-2.8947374E-1,-2.0658854E-1,1.8401805E-1,-5.120278E-1,-1.8031847E-1],"categories":[],"categories_nodes":[],"categories_segments":[],"categories_sizes":[],"default_left":[1,1,1,0,0,0,0],"id":18,"left_children":[1,3,5,-1,-1,-1,-1],"loss_changes":[2.2301025E2,6.082129E1,9.051514E1,0E0,0E0,0E0,0E0],"parents":[2147483647,0,0,1,1,2,2],"right_children":[2,4,6,-1,-1,-1,-1],"split_conditions":[4.675E-1,3.585E-1,-1.45E0,-2.0658853E-3,1.8401804E-3,-5.120278E-3,-1.8031847E-3],"split_indices":[3,55,77,0,0,0,0],"split_type":[0,0,0,0,0,0,0],"sum_hessian":[6.1215664E3,2.3927812E3,3.7287852E3,5.0433844E2,1.8884427E3,1.2258131E3,2.502972E3],"tree_param":{"num_deleted":"0","num_feature":"104","num_nodes":"7","size_leaf_vector":"0"}},{"base_weights":[1.3660622E-1,-1.0163597E-1,2.8947377E-1,2.0658852E-1,-1.8401796E-1,5.120278E-1,1.8031849E-1],"categories":[],"categories_nodes":[],"categories_segments":[],"categories_sizes":[],"default_left":[1,1,1,0,0,0,0],"id":19,"left_children":[1,3,5,-1,-1,-1,-1],"loss_changes":[2.2301018E2,6.082126E1,9.051517E1,0E0,0E0,0E0,0E0],"parents":[2147483647,0,0,1,1,2,2],"right_children":[2,4,6,-1,-1,-1,-1],"split_conditions":[4.675E-1,3.585E-1,-1.45E0,2.065885E-3,-1.8401796E-3,5.120278E-3,1.8031849E-3],"split_indices":[3,55,77,0,0,0,0],"split_type":[0,0,0,0,0,0,0],"sum_hessian":[6.121566E3,2.392781E3,3.7287852E3,5.043384E2,1.8884426E3,1.2258131E3,2.502972E3],"tree_param":{"num_deleted":"0","num_feature":"104","num_nodes":"7","size_leaf_vector":"0"}},{"base_weights":[-1.3525876E-1,-3.270731E-1,5.2009158E-2,-1.8592033E-1,-4.725628E-1,-1.7953603E-1,1.8072055E-1],"categories":[],"categories_nodes":[],"categories_segments":[],"categories_sizes":[],"default_left":[1,1,1,0,0,0,0],"id":20,"left_children":[1,3,5,-1,-1,-1,-1],"loss_changes":[2.1991568E2,6.2020416E1,9.237449E1,0E0,0E0,0E0,0E0],"parents":[2147483647,0,0,1,1,2,2],"right_children":[2,4,6,-1,-1,-1,-1],"split_conditions":[1.45E1,1.25E1,-1.45E0,-1.8592032E-3,-4.7256276E-3,-1.7953602E-3,1.8072055E-3],"split_indices":[51,80,77,0,0,0,0],"split_type":[0,0,0,0,0,0,0],"sum_hessian":[6.1207866E3,3.0233206E3,3.097466E3,1.5356881E3,1.4876324E3,1.1065123E3,1.9909537E3],"tree_param":{"num_deleted":"0","num_feature":"104","num_nodes":"7","size_leaf_vector":"0"}},{"base_weights":[1.3525876E-1,3.270731E-1,-5.200916E-2,1.8592033E-1,4.725628E-1,1.7953601E-1,-1.8072055E-1],"categories":[],"categories_nodes":[],"categories_segments":[],"categories_sizes":[],"default_left":[1,1,1,0,0,0,0],"id":21,"left_children":[1,3,5,-1,-1,-1,-1],"loss_changes":[2.1991568E2,6.2020416E1,9.237449E1,0E0,0E0,0E0,0E0],"parents":[2147483647,0,0,1,1,2,2],"right_children":[2,4,6,-1,-1,-1,-1],"split_conditions":[1.45E1,1.25E1,-1.45E0,1.8592032E-3,4.7256276E-3,1.7953601E-3,-1.8072055E-3],"split_indices":[51,80,77,0,0,0,0],"split_type":[0,0,0,0,0,0,0],"sum_hessian":[6.1207866E3,3.0233206E3,3.097466E3,1.5356881E3,1.4876324E3,1.1065123E3,1.9909537E3],"tree_param":{"num_deleted":"0","num_feature":"104","num_nodes":"7","size_leaf_vector":"0"}},{"base_weights":[-1.3392834E-1,-3.2388753E-1,5.1492088E-2,-4.1161963E-1,-9.2991896E-2,-2.182386E-1,1.5987468E-1],"categories":[],"categories_nodes":[],"categories_segments":[],"categories_sizes":[],"default_left":[1,1,1,0,0,0,0],"id":22,"left_children":[1,3,5,-1,-1,-1,-1],"loss_changes":[2.1560666E2,6.1209686E1,9.061048E1,0E0,0E0,0E0,0E0],"parents":[2147483647,0,0,1,1,2,2],"right_children":[2,4,6,-1,-1,-1,-1],"split_conditions":[1.45E1,3.75E0,-2.45E0,-4.116196E-3,-9.2991896E-4,-2.1823861E-3,1.5987467E-3],"split_indices":[51,77,77,0,0,0,0],"split_type":[0,0,0,0,0,0,0],"sum_hessian":[6.119835E3,3.0225508E3,3.0972842E3,2.1897434E3,8.3280725E2,8.8751666E2,2.2097676E3],"tree_param":{"num_deleted":"0","num_feature":"104","num_nodes":"7","size_leaf_vector":"0"}},{"base_weights":[1.3392831E-1,3.238875E-1,-5.1492102E-2,4.116196E-1,9.2991896E-2,2.1823856E-1,-1.598747E-1],"categories":[],"categories_nodes":[],"categories_segments":[],"categories_sizes":[],"default_left":[1,1,1,0,0,0,0],"id":23,"left_children":[1,3,5,-1,-1,-1,-1],"loss_changes":[2.1560666E2,6.1209686E1,9.061046E1,0E0,0E0,0E0,0E0],"parents":[2147483647,0,0,1,1,2,2],"right_children":[2,4,6,-1,-1,-1,-1],"split_conditions":[1.45E1,3.75E0,-2.45E0,4.1161957E-3,9.2991896E-4,2.1823857E-3,-1.5987469E-3],"split_indices":[51,77,77,0,0,0,0],"split_type":[0,0,0,0,0,0,0],"sum_hessian":[6.119835E3,3.0225508E3,3.0972842E3,2.1897434E3,8.3280725E2,8.8751666E2,2.2097676E3],"tree_param":{"num_deleted":"0","num_feature":"104","num_nodes":"7","size_leaf_vector":"0"}},{"base_weights":[-1.3261259E-1,9.96455E-2,-2.8216386E-1,-2.0077515E-1,1.7974475E-1,-5.003271E-1,-1.7524326E-1],"categories":[],"categories_nodes":[],"categories_segments":[],"categories_sizes":[],"default_left":[1,1,1,0,0,0,0],"id":24,"left_children":[1,3,5,-1,-1,-1,-1],"loss_changes":[2.1259639E2,5.773572E1,8.675543E1,0E0,0E0,0E0,0E0],"parents":[2147483647,0,0,1,1,2,2],"right_children":[2,4,6,-1,-1,-1,-1],"split_conditions":[4.6850002E-1,3.585E-1,-1.45E0,-2.0077515E-3,1.7974474E-3,-5.003271E-3,-1.7524326E-3],"split_indices":[3,55,77,0,0,0,0],"split_type":[0,0,0,0,0,0,0],"sum_hessian":[6.118803E3,2.3968105E3,3.7219927E3,5.042103E2,1.8926003E3,1.2229592E3,2.4990332E3],"tree_param":{"num_deleted":"0","num_feature":"104","num_nodes":"7","size_leaf_vector":"0"}},{"base_weights":[1.3261262E-1,-9.964549E-2,2.821639E-1,2.0077522E-1,-1.7974475E-1,5.003271E-1,1.7524327E-1],"categories":[],"categories_nodes":[],"categories_segments":[],"categories_sizes":[],"default_left":[1,1,1,0,0,0,0],"id":25,"left_children":[1,3,5,-1,-1,-1,-1],"loss_changes":[2.125964E2,5.773575E1,8.67554E1,0E0,0E0,0E0,0E0],"parents":[2147483647,0,0,1,1,2,2],"right_children":[2,4,6,-1,-1,-1,-1],"split_conditions":[4.6850002E-1,3.585E-1,-1.45E0,2.0077522E-3,-1.7974474E-3,5.003271E-3,1.7524327E-3],"split_indices":[3,55,77,0,0,0,0],"split_type":[0,0,0,0,0,0,0],"sum_hessian":[6.118803E3,2.3968105E3,3.7219927E3,5.0421027E2,1.8926003E3,1.2229594E3,2.4990332E3],"tree_param":{"num_deleted":"0","num_feature":"104","num_nodes":"7","size_leaf_vector":"0"}},{"base_weights":[-1.3130923E-1,-3.1816906E-1,5.1015668E-2,-3.8686833E-1,-3.0604227E-2,-1.7480126E-1,1.7653073E-1],"categories":[],"categories_nodes":[],"categories_segments":[],"categories_sizes":[],"default_left":[1,1,1,0,0,0,0],"id":26,"left_children":[1,3,5,-1,-1,-1,-1],"loss_changes":[2.084791E2,5.9688538E1,8.783446E1,0E0,0E0,0E0,0E0],"parents":[2147483647,0,0,1,1,2,2],"right_children":[2,4,6,-1,-1,-1,-1],"split_conditions":[1.45E1,5.05E0,-1.45E0,-3.8686832E-3,-3.0604226E-4,-1.7480126E-3,1.7653073E-3],"split_indices":[51,77,77,0,0,0,0],"split_type":[0,0,0,0,0,0,0],"sum_hessian":[6.117809E3,3.0209622E3,3.096847E3,2.4381438E3,5.828182E2,1.1062233E3,1.9906235E3],"tree_param":{"num_deleted":"0","num_feature":"104","num_nodes":"7","size_leaf_vector":"0"}},{"base_weights":[1.313092E-1,3.1816906E-1,-5.1015712E-2,3.8686833E-1,3.0604223E-2,1.7480125E-1,-1.7653078E-1],"categories":[],"categories_nodes":[],"categories_segments":[],"categories_sizes":[],"default_left":[1,1,1,0,0,0,0],"id":27,"left_children":[1,3,5,-1,-1,-1,-1],"loss_changes":[2.0847917E2,5.9688538E1,8.783447E1,0E0,0E0,0E0,0E0],"parents":[2147483647,0,0,1,1,2,2],"right_children":[2,4,6,-1,-1,-1,-1],"split_conditions":[1.45E1,5.05E0,-1.45E0,3.8686832E-3,3.0604223E-4,1.7480124E-3,-1.7653077E-3],"split_indices":[51,77,77,0,0,0,0],"split_type":[0,0,0,0,0,0,0],"sum_hessian":[6.117809E3,3.0209622E3,3.096847E3,2.4381438E3,5.828182E2,1.1062233E3,1.9906237E3],"tree_param":{"num_deleted":"0","num_feature":"104","num_nodes":"7","size_leaf_vector":"0"}},{"base_weights":[-1.3002153E-1,9.834868E-2,-2.7711856E-1,-1.970669E-1,1.771087E-1,-3.7992507E-1,-5.541077E-2],"categories":[],"categories_nodes":[],"categories_segments":[],"categories_sizes":[],"default_left":[1,1,1,0,0,0,0],"id":28,"left_children":[1,3,5,-1,-1,-1,-1],"loss_changes":[2.055352E2,5.581639E1,8.4796295E1,0E0,0E0,0E0,0E0],"parents":[2147483647,0,0,1,1,2,2],"right_children":[2,4,6,-1,-1,-1,-1],"split_conditions":[4.6850002E-1,3.585E-1,2.95E0,-1.970669E-3,1.7710871E-3,-3.7992506E-3,-5.5410765E-4],"split_indices":[3,55,77,0,0,0,0],"split_type":[0,0,0,0,0,0,0],"sum_hessian":[6.1166587E3,2.3964568E3,3.7202017E3,5.041128E2,1.8923441E3,2.54115E3,1.1790519E3],"tree_param":{"num_deleted":"0","num_feature":"104","num_nodes":"7","size_leaf_vector":"0"}},{"base_weights":[1.3002151E-1,-9.834869E-2,2.7711853E-1,1.970668E-1,-1.771087E-1,3.7992504E-1,5.541072E-2],"categories":[],"categories_nodes":[],"categories_segments":[],"categories_sizes":[],"default_left":[1,1,1,0,0,0,0],"id":29,"left_children":[1,3,5,-1,-1,-1,-1],"loss_changes":[2.0553522E2,5.5816353E1,8.4796295E1,0E0,0E0,0E0,0E0],"parents":[2147483647,0,0,1,1,2,2],"right_children":[2,4,6,-1,-1,-1,-1],"split_conditions":[4.6850002E-1,3.585E-1,2.95E0,1.9706679E-3,-1.7710871E-3,3.7992503E-3,5.541072E-4],"split_indices":[3,55,77,0,0,0,0],"split_type":[0,0,0,0,0,0,0],"sum_hessian":[6.1166587E3,2.3964568E3,3.7202017E3,5.041128E2,1.8923441E3,2.54115E3,1.1790519E3],"tree_param":{"num_deleted":"0","num_feature":"104","num_nodes":"7","size_leaf_vector":"0"}},{"base_weights":[-1.2874661E-1,-2.4706298E-1,1.5022108E-1,-1.06347695E-1,-4.058632E-1,-1.5967077E-1,2.316268E-1],"categories":[],"categories_nodes":[],"categories_segments":[],"categories_sizes":[],"default_left":[1,1,1,0,0,0,0],"id":30,"left_children":[1,3,5,-1,-1,-1,-1],"loss_changes":[2.0192116E2,9.593817E1,4.600549E1,0E0,0E0,0E0,0E0],"parents":[2147483647,0,0,1,1,2,2],"right_children":[2,4,6,-1,-1,-1,-1],"split_conditions":[1.95E1,1.35E1,3.585E-1,-1.0634769E-3,-4.058632E-3,-1.5967076E-3,2.316268E-3],"split_indices":[28,80,55,0,0,0,0],"split_type":[0,0,0,0,0,0,0],"sum_hessian":[6.115505E3,4.294308E3,1.8211967E3,2.2776858E3,2.0166224E3,3.7868253E2,1.442514E3],"tree_param":{"num_deleted":"0","num_feature":"104","num_nodes":"7","size_leaf_vector":"0"}},{"base_weights":[1.2874664E-1,2.4706301E-1,-1.5022108E-1,1.0634773E-1,4.058632E-1,1.5967077E-1,-2.3162681E-1],"categories":[],"categories_nodes":[],"categories_segments":[],"categories_sizes":[],"default_left":[1,1,1,0,0,0,0],"id":31,"left_children":[1,3,5,-1,-1,-1,-1],"loss_changes":[2.0192122E2,9.593811E1,4.6005493E1,0E0,0E0,0E0,0E0],"parents":[2147483647,0,0,1,1,2,2],"right_children":[2,4,6,-1,-1,-1,-1],"split_conditions":[1.95E1,1.35E1,3.585E-1,1.0634772E-3,4.058632E-3,1.5967076E-3,-2.316268E-3],"split_indices":[28,80,55,0,0,0,0],"split_type":[0,0,0,0,0,0,0],"sum_hessian":[6.115505E3,4.294308E3,1.8211967E3,2.2776858E3,2.0166226E3,3.7868253E2,1.442514E3],"tree_param":{"num_deleted":"0","num_feature":"104","num_nodes":"7","size_leaf_vector":"0"}},{"base_weights":[-1.2748362E-1,-3.102769E-1,5.0759617E-2,-2.4245512E-1,-5.9321815E-1,-1.7031853E-1,1.7362453E-1],"categories":[],"categories_nodes":[],"categories_segments":[],"categories_sizes":[],"default_left":[1,1,1,0,0,0,0],"id":32,"left_children":[1,3,5,-1,-1,-1,-1],"loss_changes":[1.99265E2,5.7795197E1,8.4154884E1,0E0,0E0,0E0,0E0],"parents":[2147483647,0,0,1,1,2,2],"right_children":[2,4,6,-1,-1,-1,-1],"split_conditions":[1.45E1,2.25E1,-1.45E0,-2.4245512E-3,-5.932181E-3,-1.7031853E-3,1.7362452E-3],"split_indices":[51,80,77,0,0,0,0],"split_type":[0,0,0,0,0,0,0],"sum_hessian":[6.114379E3,3.018295E3,3.096084E3,2.4361904E3,5.8210443E2,1.1058594E3,1.9902247E3],"tree_param":{"num_deleted":"0","num_feature":"104","num_nodes":"7","size_leaf_vector":"0"}},{"base_weights":[1.274836E-1,3.102769E-1,-5.0759632E-2,2.424551E-1,5.932182E-1,1.703186E-1,-1.7362459E-1],"categories":[],"categories_nodes":[],"categories_segments":[],"categories_sizes":[],"default_left":[1,1,1,0,0,0,0],"id":33,"left_children":[1,3,5,-1,-1,-1,-1],"loss_changes":[1.9926498E2,5.7795197E1,8.4154945E1,0E0,0E0,0E0,0E0],"parents":[2147483647,0,0,1,1,2,2],"right_children":[2,4,6,-1,-1,-1,-1],"split_conditions":[1.45E1,2.25E1,-1.45E0,2.424551E-3,5.932182E-3,1.703186E-3,-1.7362458E-3],"split_indices":[51,80,77,0,0,0,0],"split_type":[0,0,0,0,0,0,0],"sum_hessian":[6.114379E3,3.018295E3,3.096084E3,2.4361904E3,5.8210443E2,1.1058594E3,1.9902246E3],"tree_param":{"num_deleted":"0","num_feature":"104","num_nodes":"7","size_leaf_vector":"0"}},{"base_weights":[-1.262373E-1,-2.4272802E-1,1.4834505E-1,-1.0408487E-1,-3.992933E-1,-1.5641624E-1,2.284012E-1],"categories":[],"categories_nodes":[],"categories_segments":[],"categories_sizes":[],"default_left":[1,1,1,0,0,0,0],"id":34,"left_children":[1,3,5,-1,-1,-1,-1],"loss_changes":[1.9560275E2,9.3150314E1,4.4485226E1,0E0,0E0,0E0,0E0],"parents":[2147483647,0,0,1,1,2,2],"right_children":[2,4,6,-1,-1,-1,-1],"split_conditions":[1.95E1,1.35E1,3.585E-1,-1.0408487E-3,-3.992933E-3,-1.5641623E-3,2.284012E-3],"split_indices":[28,80,55,0,0,0,0],"split_type":[0,0,0,0,0,0,0],"sum_hessian":[6.113079E3,4.29223E3,1.8208492E3,2.2772886E3,2.014941E3,3.78605E2,1.4422443E3],"tree_param":{"num_deleted":"0","num_feature":"104","num_nodes":"7","size_leaf_vector":"0"}},{"base_weights":[1.2623732E-1,2.4272802E-1,-1.4834498E-1,1.0408489E-1,3.992933E-1,1.5641624E-1,-2.2840111E-1],"categories":[],"categories_nodes":[],"categories_segments":[],"categories_sizes":[],"default_left":[1,1,1,0,0,0,0],"id":35,"left_children":[1,3,5,-1,-1,-1,-1],"loss_changes":[1.9560265E2,9.3150314E1,4.4485207E1,0E0,0E0,0E0,0E0],"parents":[2147483647,0,0,1,1,2,2],"right_children":[2,4,6,-1,-1,-1,-1],"split_conditions":[1.95E1,1.35E1,3.585E-1,1.0408488E-3,3.992933E-3,1.5641623E-3,-2.284011E-3],"split_indices":[28,80,55,0,0,0,0],"split_type":[0,0,0,0,0,0,0],"sum_hessian":[6.113079E3,4.29223E3,1.8208492E3,2.2772888E3,2.014941E3,3.78605E2,1.4422443E3],"tree_param":{"num_deleted":"0","num_feature":"104","num_nodes":"7","size_leaf_vector":"0"}},{"base_weights":[-1.2500153E-1,-3.050292E-1,5.0462622E-2,-3.7195134E-1,-2.5368646E-2,-2.0584746E-1,1.5340792E-1],"categories":[],"categories_nodes":[],"categories_segments":[],"categories_sizes":[],"default_left":[1,1,1,0,0,0,0],"id":36,"left_children":[1,3,5,-1,-1,-1,-1],"loss_changes":[1.9310983E2,5.646115E1,8.173575E1,0E0,0E0,0E0,0E0],"parents":[2147483647,0,0,1,1,2,2],"right_children":[2,4,6,-1,-1,-1,-1],"split_conditions":[1.45E1,5.05E0,-2.45E0,-3.7195133E-3,-2.5368645E-4,-2.0584746E-3,1.5340791E-3],"split_indices":[51,77,77,0,0,0,0],"split_type":[0,0,0,0,0,0,0],"sum_hessian":[6.1118267E3,3.0163196E3,3.0955068E3,2.433628E3,5.8269165E2,8.867369E2,2.20877E3],"tree_param":{"num_deleted":"0","num_feature":"104","num_nodes":"7","size_leaf_vector":"0"}},{"base_weights":[1.2500155E-1,3.050292E-1,-5.046262E-2,3.7195137E-1,2.5368644E-2,2.0584743E-1,-1.534079E-1],"categories":[],"categories_nodes":[],"categories_segments":[],"categories_sizes":[],"default_left":[1,1,1,0,0,0,0],"id":37,"left_children":[1,3,5,-1,-1,-1,-1],"loss_changes":[1.9310983E2,5.646115E1,8.173573E1,0E0,0E0,0E0,0E0],"parents":[2147483647,0,0,1,1,2,2],"right_children":[2,4,6,-1,-1,-1,-1],"split_conditions":[1.45E1,5.05E0,-2.45E0,3.7195135E-3,2.5368642E-4,2.058474E-3,-1.534079E-3],"split_indices":[51,77,77,0,0,0,0],"split_type":[0,0,0,0,0,0,0],"sum_hessian":[6.111826E3,3.0163196E3,3.0955068E3,2.433628E3,5.8269165E2,8.867368E2,2.20877E3],"tree_param":{"num_deleted":"0","num_feature":"104","num_nodes":"7","size_leaf_vector":"0"}},{"base_weights":[-1.23781905E-1,1.4126499E-1,-2.4098454E-1,-5.5190857E-2,2.5400978E-1,-4.8646384E-1,-1.5351011E-1],"categories":[],"categories_nodes":[],"categories_segments":[],"categories_sizes":[],"default_left":[1,1,1,0,0,0,0],"id":38,"left_children":[1,3,5,-1,-1,-1,-1],"loss_changes":[1.8987918E2,4.1532104E1,9.092694E1,0E0,0E0,0E0,0E0],"parents":[2147483647,0,0,1,1,2,2],"right_children":[2,4,6,-1,-1,-1,-1],"split_conditions":[-2.05E0,-1.45E0,-2.55E0,-5.5190857E-4,2.5400978E-3,-4.864638E-3,-1.5351011E-3],"split_indices":[25,77,77,0,0,0,0],"split_type":[0,0,0,0,0,0,0],"sum_hessian":[6.1103813E3,1.8734587E3,4.2369224E3,6.833112E2,1.1901475E3,1.1119364E3,3.124986E3],"tree_param":{"num_deleted":"0","num_feature":"104","num_nodes":"7","size_leaf_vector":"0"}},{"base_weights":[1.237819E-1,-1.4126502E-1,2.4098454E-1,5.5190872E-2,-2.540098E-1,4.8646384E-1,1.5351011E-1],"categories":[],"categories_nodes":[],"categories_segments":[],"categories_sizes":[],"default_left":[1,1,1,0,0,0,0],"id":39,"left_children":[1,3,5,-1,-1,-1,-1],"loss_changes":[1.8987923E2,4.1532116E1,9.092694E1,0E0,0E0,0E0,0E0],"parents":[2147483647,0,0,1,1,2,2],"right_children":[2,4,6,-1,-1,-1,-1],"split_conditions":[-2.05E0,-1.45E0,-2.55E0,5.519087E-4,-2.540098E-3,4.864638E-3,1.5351011E-3],"split_indices":[25,77,77,0,0,0,0],"split_type":[0,0,0,0,0,0,0],"sum_hessian":[6.1103813E3,1.8734587E3,4.2369224E3,6.833112E2,1.1901476E3,1.1119364E3,3.124986E3],"tree_param":{"num_deleted":"0","num_feature":"104","num_nodes":"7","size_leaf_vector":"0"}},{"base_weights":[-1.2257191E-1,9.532387E-2,-2.6308072E-1,-4.4240166E-2,2.479651E-1,-3.626978E-1,-4.867709E-2],"categories":[],"categories_nodes":[],"categories_segments":[],"categories_sizes":[],"default_left":[1,1,1,0,0,0,0],"id":40,"left_children":[1,3,5,-1,-1,-1,-1],"loss_changes":[1.8709189E2,5.105593E1,7.932681E1,0E0,0E0,0E0,0E0],"parents":[2147483647,0,0,1,1,2,2],"right_children":[2,4,6,-1,-1,-1,-1],"split_conditions":[4.6850002E-1,5.135E-1,2.95E0,-4.4240165E-4,2.479651E-3,-3.626978E-3,-4.867709E-4],"split_indices":[3,55,77,0,0,0,0],"split_type":[0,0,0,0,0,0,0],"sum_hessian":[6.1090444E3,2.3951138E3,3.713931E3,1.2515227E3,1.1435911E3,2.535285E3,1.178646E3],"tree_param":{"num_deleted":"0","num_feature":"104","num_nodes":"7","size_leaf_vector":"0"}},{"base_weights":[1.22571915E-1,-9.532387E-2,2.6308072E-1,4.4240166E-2,-2.4796511E-1,3.626978E-1,4.8677105E-2],"categories":[],"categories_nodes":[],"categories_segments":[],"categories_sizes":[],"default_left":[1,1,1,0,0,0,0],"id":41,"left_children":[1,3,5,-1,-1,-1,-1],"loss_changes":[1.8709189E2,5.105593E1,7.932681E1,0E0,0E0,0E0,0E0],"parents":[2147483647,0,0,1,1,2,2],"right_children":[2,4,6,-1,-1,-1,-1],"split_conditions":[4.6850002E-1,5.135E-1,2.95E0,4.4240165E-4,-2.479651E-3,3.626978E-3,4.8677105E-4],"split_indices":[3,55,77,0,0,0,0],"split_type":[0,0,0,0,0,0,0],"sum_hessian":[6.1090444E3,2.3951138E3,3.713931E3,1.2515227E3,1.1435911E3,2.535285E3,1.178646E3],"tree_param":{"num_deleted":"0","num_feature":"104","num_nodes":"7","size_leaf_vector":"0"}},{"base_weights":[-1.2137608E-1,-2.974477E-1,5.0098773E-2,-2.3139033E-1,-5.7364076E-1,-1.027801E-1,2.159926E-1],"categories":[],"categories_nodes":[],"categories_segments":[],"categories_sizes":[],"default_left":[1,1,1,0,0,0,0],"id":42,"left_children":[1,3,5,-1,-1,-1,-1],"loss_changes":[1.844441E2,5.4857117E1,7.853024E1,0E0,0E0,0E0,0E0],"parents":[2147483647,0,0,1,1,2,2],"right_children":[2,4,6,-1,-1,-1,-1],"split_conditions":[1.45E1,2.25E1,3.5000002E-1,-2.3139033E-3,-5.7364074E-3,-1.027801E-3,2.1599259E-3],"split_indices":[51,80,77,0,0,0,0],"split_type":[0,0,0,0,0,0,0],"sum_hessian":[6.107574E3,3.0130342E3,3.09454E3,2.4329746E3,5.800595E2,1.6106405E3,1.4838997E3],"tree_param":{"num_deleted":"0","num_feature":"104","num_nodes":"7","size_leaf_vector":"0"}},{"base_weights":[1.2137608E-1,2.9744774E-1,-5.00988E-2,2.3139036E-1,5.7364076E-1,1.0278008E-1,-2.1599263E-1],"categories":[],"categories_nodes":[],"categories_segments":[],"categories_sizes":[],"default_left":[1,1,1,0,0,0,0],"id":43,"left_children":[1,3,5,-1,-1,-1,-1],"loss_changes":[1.8444417E2,5.4857086E1,7.853024E1,0E0,0E0,0E0,0E0],"parents":[2147483647,0,0,1,1,2,2],"right_children":[2,4,6,-1,-1,-1,-1],"split_conditions":[1.45E1,2.25E1,3.5000002E-1,2.3139035E-3,5.7364074E-3,1.0278008E-3,-2.1599263E-3],"split_indices":[51,80,77,0,0,0,0],"split_type":[0,0,0,0,0,0,0],"sum_hessian":[6.107574E3,3.0130342E3,3.09454E3,2.4329746E3,5.8005945E2,1.6106405E3,1.4838997E3],"tree_param":{"num_deleted":"0","num_feature":"104","num_nodes":"7","size_leaf_vector":"0"}},{"base_weights":[-1.2019355E-1,-2.1182154E-1,2.0480691E-1,-7.345508E-2,-3.646741E-1,-6.6748776E-2,2.7542624E-1],"categories":[],"categories_nodes":[],"categories_segments":[],"categories_sizes":[],"default_left":[1,1,1,0,0,0,0],"id":44,"left_children":[1,3,5,-1,-1,-1,-1],"loss_changes":[1.8190646E2,1.00739655E2,2.5785065E1,0E0,0E0,0E0,0E0],"parents":[2147483647,0,0,1,1,2,2],"right_children":[2,4,6,-1,-1,-1,-1],"split_conditions":[2.35E1,1.35E1,3.595E-1,-7.3455076E-4,-3.646741E-3,-6.6748774E-4,2.7542624E-3],"split_indices":[51,80,55,0,0,0,0],"split_type":[0,0,0,0,0,0,0],"sum_hessian":[6.106064E3,4.7634453E3,1.3426188E3,2.5009736E3,2.2624717E3,2.7710587E2,1.065513E3],"tree_param":{"num_deleted":"0","num_feature":"104","num_nodes":"7","size_leaf_vector":"0"}},{"base_weights":[1.2019355E-1,2.1182154E-1,-2.0480692E-1,7.345509E-2,3.646741E-1,6.6748776E-2,-2.7542627E-1],"categories":[],"categories_nodes":[],"categories_segments":[],"categories_sizes":[],"default_left":[1,1,1,0,0,0,0],"id":45,"left_children":[1,3,5,-1,-1,-1,-1],"loss_changes":[1.8190651E2,1.00739655E2,2.5785069E1,0E0,0E0,0E0,0E0],"parents":[2147483647,0,0,1,1,2,2],"right_children":[2,4,6,-1,-1,-1,-1],"split_conditions":[2.35E1,1.35E1,3.595E-1,7.345509E-4,3.646741E-3,6.6748774E-4,-2.7542626E-3],"split_indices":[51,80,55,0,0,0,0],"split_type":[0,0,0,0,0,0,0],"sum_hessian":[6.106064E3,4.7634453E3,1.3426188E3,2.5009734E3,2.2624717E3,2.7710587E2,1.065513E3],"tree_param":{"num_deleted":"0","num_feature":"104","num_nodes":"7","size_leaf_vector":"0"}},{"base_weights":[-1.1901946E-1,-2.3066358E-1,1.4385611E-1,-9.7603016E-2,-3.812524E-1,-1.4862747E-1,2.206882E-1],"categories":[],"categories_nodes":[],"categories_segments":[],"categories_sizes":[],"default_left":[1,1,1,0,0,0,0],"id":46,"left_children":[1,3,5,-1,-1,-1,-1],"loss_changes":[1.7922552E2,8.584235E1,4.0948082E1,0E0,0E0,0E0,0E0],"parents":[2147483647,0,0,1,1,2,2],"right_children":[2,4,6,-1,-1,-1,-1],"split_conditions":[1.95E1,1.35E1,3.585E-1,-9.7603013E-4,-3.812524E-3,-1.4862748E-3,2.206882E-3],"split_indices":[28,80,55,0,0,0,0],"split_type":[0,0,0,0,0,0,0],"sum_hessian":[6.1046694E3,4.2849565E3,1.8197126E3,2.275749E3,2.0092079E3,3.7837686E2,1.4413357E3],"tree_param":{"num_deleted":"0","num_feature":"104","num_nodes":"7","size_leaf_vector":"0"}},{"base_weights":[1.1901947E-1,2.3066358E-1,-1.438561E-1,9.760301E-2,3.812524E-1,1.4862753E-1,-2.2068818E-1],"categories":[],"categories_nodes":[],"categories_segments":[],"categories_sizes":[],"default_left":[1,1,1,0,0,0,0],"id":47,"left_children":[1,3,5,-1,-1,-1,-1],"loss_changes":[1.792255E2,8.584236E1,4.0948082E1,0E0,0E0,0E0,0E0],"parents":[2147483647,0,0,1,1,2,2],"right_children":[2,4,6,-1,-1,-1,-1],"split_conditions":[1.95E1,1.35E1,3.585E-1,9.760301E-4,3.812524E-3,1.4862753E-3,-2.2068818E-3],"split_indices":[28,80,55,0,0,0,0],"split_type":[0,0,0,0,0,0,0],"sum_hessian":[6.1046694E3,4.2849565E3,1.8197126E3,2.2757488E3,2.0092079E3,3.7837686E2,1.4413357E3],"tree_param":{"num_deleted":"0","num_feature":"104","num_nodes":"7","size_leaf_vector":"0"}},{"base_weights":[-1.17860585E-1,-2.904962E-1,5.013108E-2,-3.555715E-1,-1.9204887E-2,-9.966295E-2,2.126677E-1],"categories":[],"categories_nodes":[],"categories_segments":[],"categories_sizes":[],"default_left":[1,1,1,0,0,0,0],"id":48,"left_children":[1,3,5,-1,-1,-1,-1],"loss_changes":[1.7704166E2,5.3143158E1,7.536335E1,0E0,0E0,0E0,0E0],"parents":[2147483647,0,0,1,1,2,2],"right_children":[2,4,6,-1,-1,-1,-1],"split_conditions":[1.45E1,5.05E0,3.5000002E-1,-3.555715E-3,-1.9204886E-4,-9.966295E-4,2.126677E-3],"split_indices":[51,77,77,0,0,0,0],"split_type":[0,0,0,0,0,0,0],"sum_hessian":[6.1030996E3,3.0095867E3,3.0935127E3,2.4270852E3,5.8250165E2,1.6100629E3,1.4834498E3],"tree_param":{"num_deleted":"0","num_feature":"104","num_nodes":"7","size_leaf_vector":"0"}},{"base_weights":[1.178606E-1,2.9049623E-1,-5.0131083E-2,3.5557154E-1,1.9205E-2,9.966292E-2,-2.1266767E-1],"categories":[],"categories_nodes":[],"categories_segments":[],"categories_sizes":[],"default_left":[1,1,1,0,0,0,0],"id":49,"left_children":[1,3,5,-1,-1,-1,-1],"loss_changes":[1.7704169E2,5.3143158E1,7.536331E1,0E0,0E0,0E0,0E0],"parents":[2147483647,0,0,1,1,2,2],"right_children":[2,4,6,-1,-1,-1,-1],"split_conditions":[1.45E1,5.05E0,3.5000002E-1,3.5557153E-3,1.9204999E-4,9.966292E-4,-2.1266767E-3],"split_indices":[51,77,77,0,0,0,0],"split_type":[0,0,0,0,0,0,0],"sum_hessian":[6.1030996E3,3.0095867E3,3.0935127E3,2.427085E3,5.8250165E2,1.6100629E3,1.4834498E3],"tree_param":{"num_deleted":"0","num_feature":"104","num_nodes":"7","size_leaf_vector":"0"}},{"base_weights":[-1.16714895E-1,-2.0639558E-1,2.0122455E-1,-7.1233295E-2,-3.558849E-1,-6.339719E-2,2.7004996E-1],"categories":[],"categories_nodes":[],"categories_segments":[],"categories_sizes":[],"default_left":[1,1,1,0,0,0,0],"id":50,"left_children":[1,3,5,-1,-1,-1,-1],"loss_changes":[1.7404001E2,9.61584E1,2.4478653E1,0E0,0E0,0E0,0E0],"parents":[2147483647,0,0,1,1,2,2],"right_children":[2,4,6,-1,-1,-1,-1],"split_conditions":[2.35E1,1.35E1,3.595E-1,-7.1233296E-4,-3.558849E-3,-6.339719E-4,2.7004995E-3],"split_indices":[51,80,55,0,0,0,0],"split_type":[0,0,0,0,0,0,0],"sum_hessian":[6.1014204E3,4.759318E3,1.3421027E3,2.5002068E3,2.2591108E3,2.77034E2,1.0650686E3],"tree_param":{"num_deleted":"0","num_feature":"104","num_nodes":"7","size_leaf_vector":"0"}},{"base_weights":[1.1671489E-1,2.0639558E-1,-2.0122454E-1,7.123329E-2,3.558849E-1,6.3397266E-2,-2.7004996E-1],"categories":[],"categories_nodes":[],"categories_segments":[],"categories_sizes":[],"default_left":[1,1,1,0,0,0,0],"id":51,"left_children":[1,3,5,-1,-1,-1,-1],"loss_changes":[1.7403998E2,9.615842E1,2.4478657E1,0E0,0E0,0E0,0E0],"parents":[2147483647,0,0,1,1,2,2],"right_children":[2,4,6,-1,-1,-1,-1],"split_conditions":[2.35E1,1.35E1,3.595E-1,7.1233284E-4,3.558849E-3,6.3397264E-4,-2.7004995E-3],"split_indices":[51,80,55,0,0,0,0],"split_type":[0,0,0,0,0,0,0],"sum_hessian":[6.1014204E3,4.759318E3,1.3421027E3,2.500207E3,2.2591108E3,2.77034E2,1.0650686E3],"tree_param":{"num_deleted":"0","num_feature":"104","num_nodes":"7","size_leaf_vector":"0"}},{"base_weights":[-1.1557773E-1,-2.8580427E-1,4.9966913E-2,-2.2141457E-1,-5.5574316E-1,-1.9333793E-1,1.4762628E-1],"categories":[],"categories_nodes":[],"categories_segments":[],"categories_sizes":[],"default_left":[1,1,1,0,0,0,0],"id":52,"left_children":[1,3,5,-1,-1,-1,-1],"loss_changes":[1.7193745E2,5.216072E1,7.354085E1,0E0,0E0,0E0,0E0],"parents":[2147483647,0,0,1,1,2,2],"right_children":[2,4,6,-1,-1,-1,-1],"split_conditions":[1.45E1,2.25E1,-2.45E0,-2.2141456E-3,-5.5574314E-3,-1.9333793E-3,1.4762628E-3],"split_indices":[51,80,77,0,0,0,0],"split_type":[0,0,0,0,0,0,0],"sum_hessian":[6.099873E3,3.0070508E3,3.092822E3,2.4293804E3,5.776706E2,8.8556915E2,2.207253E3],"tree_param":{"num_deleted":"0","num_feature":"104","num_nodes":"7","size_leaf_vector":"0"}},{"base_weights":[1.15577735E-1,2.8580427E-1,-4.99669E-2,2.2141455E-1,5.557431E-1,1.9333796E-1,-1.4762628E-1],"categories":[],"categories_nodes":[],"categories_segments":[],"categories_sizes":[],"default_left":[1,1,1,0,0,0,0],"id":53,"left_children":[1,3,5,-1,-1,-1,-1],"loss_changes":[1.7193741E2,5.2160767E1,7.354086E1,0E0,0E0,0E0,0E0],"parents":[2147483647,0,0,1,1,2,2],"right_children":[2,4,6,-1,-1,-1,-1],"split_conditions":[1.45E1,2.25E1,-2.45E0,2.2141454E-3,5.557431E-3,1.9333796E-3,-1.4762628E-3],"split_indices":[51,80,77,0,0,0,0],"split_type":[0,0,0,0,0,0,0],"sum_hessian":[6.099873E3,3.007051E3,3.092822E3,2.4293804E3,5.776706E2,8.8556915E2,2.207253E3],"tree_param":{"num_deleted":"0","num_feature":"104","num_nodes":"7","size_leaf_vector":"0"}},{"base_weights":[-1.1445752E-1,-2.2306368E-1,1.4105457E-1,-1.3684246E-1,-4.4322616E-1,2.1084014E-3,2.9481128E-1],"categories":[],"categories_nodes":[],"categories_segments":[],"categories_sizes":[],"default_left":[1,1,1,0,0,0,0],"id":54,"left_children":[1,3,5,-1,-1,-1,-1],"loss_changes":[1.6928192E2,8.119054E1,3.8877285E1,0E0,0E0,0E0,0E0],"parents":[2147483647,0,0,1,1,2,2],"right_children":[2,4,6,-1,-1,-1,-1],"split_conditions":[1.95E1,1.95E1,5.135E-1,-1.3684245E-3,-4.4322615E-3,2.1084013E-5,2.9481128E-3],"split_indices":[28,80,55,0,0,0,0],"split_type":[0,0,0,0,0,0,0],"sum_hessian":[6.098074E3,4.2792803E3,1.8187938E3,3.0761885E3,1.203092E3,9.5594415E2,8.628496E2],"tree_param":{"num_deleted":"0","num_feature":"104","num_nodes":"7","size_leaf_vector":"0"}},{"base_weights":[1.14457525E-1,2.2306369E-1,-1.4105459E-1,1.3684247E-1,4.4322616E-1,-2.1083914E-3,-2.948113E-1],"categories":[],"categories_nodes":[],"categories_segments":[],"categories_sizes":[],"default_left":[1,1,1,0,0,0,0],"id":55,"left_children":[1,3,5,-1,-1,-1,-1],"loss_changes":[1.6928195E2,8.1190506E1,3.887729E1,0E0,0E0,0E0,0E0],"parents":[2147483647,0,0,1,1,2,2],"right_children":[2,4,6,-1,-1,-1,-1],"split_conditions":[1.95E1,1.95E1,5.135E-1,1.3684247E-3,4.4322615E-3,-2.1083913E-5,-2.948113E-3],"split_indices":[28,80,55,0,0,0,0],"split_type":[0,0,0,0,0,0,0],"sum_hessian":[6.098074E3,4.2792803E3,1.8187937E3,3.0761885E3,1.203092E3,9.5594415E2,8.628496E2],"tree_param":{"num_deleted":"0","num_feature":"104","num_nodes":"7","size_leaf_vector":"0"}},{"base_weights":[-1.1334494E-1,-2.8104365E-1,4.9638804E-2,-3.4503236E-1,-1.476887E-2,-9.608243E-2,2.0775194E-1],"categories":[],"categories_nodes":[],"categories_segments":[],"categories_sizes":[],"default_left":[1,1,1,0,0,0,0],"id":56,"left_children":[1,3,5,-1,-1,-1,-1],"loss_changes":[1.6666902E2,5.1202286E1,7.128446E1,0E0,0E0,0E0,0E0],"parents":[2147483647,0,0,1,1,2,2],"right_children":[2,4,6,-1,-1,-1,-1],"split_conditions":[1.45E1,5.05E0,3.5000002E-1,-3.4503236E-3,-1.476887E-4,-9.6082425E-4,2.0775194E-3],"split_indices":[51,77,77,0,0,0,0],"split_type":[0,0,0,0,0,0,0],"sum_hessian":[6.096398E3,3.0043796E3,3.092018E3,2.4220413E3,5.823385E2,1.6092673E3,1.4827507E3],"tree_param":{"num_deleted":"0","num_feature":"104","num_nodes":"7","size_leaf_vector":"0"}},{"base_weights":[1.1334493E-1,2.8104365E-1,-4.9638826E-2,3.4503236E-1,1.4768955E-2,9.608242E-2,-2.0775199E-1],"categories":[],"categories_nodes":[],"categories_segments":[],"categories_sizes":[],"default_left":[1,1,1,0,0,0,0],"id":57,"left_children":[1,3,5,-1,-1,-1,-1],"loss_changes":[1.6666905E2,5.120227E1,7.128448E1,0E0,0E0,0E0,0E0],"parents":[2147483647,0,0,1,1,2,2],"right_children":[2,4,6,-1,-1,-1,-1],"split_conditions":[1.45E1,5.05E0,3.5000002E-1,3.4503236E-3,1.4768956E-4,9.608242E-4,-2.07752E-3],"split_indices":[51,77,77,0,0,0,0],"split_type":[0,0,0,0,0,0,0],"sum_hessian":[6.0963975E3,3.0043796E3,3.092018E3,2.422041E3,5.823385E2,1.6092673E3,1.4827507E3],"tree_param":{"num_deleted":"0","num_feature":"104","num_nodes":"7","size_leaf_vector":"0"}},{"base_weights":[-1.1224641E-1,-1.996112E-1,1.9725361E-1,-6.787309E-2,-3.4554535E-1,-5.9846763E-2,2.6414052E-1],"categories":[],"categories_nodes":[],"categories_segments":[],"categories_sizes":[],"default_left":[1,1,1,0,0,0,0],"id":58,"left_children":[1,3,5,-1,-1,-1,-1],"loss_changes":[1.6485927E2,9.137616E1,2.3099903E1,0E0,0E0,0E0,0E0],"parents":[2147483647,0,0,1,1,2,2],"right_children":[2,4,6,-1,-1,-1,-1],"split_conditions":[2.35E1,1.35E1,3.595E-1,-6.787309E-4,-3.4554536E-3,-5.984676E-4,2.6414052E-3],"split_indices":[51,80,55,0,0,0,0],"split_type":[0,0,0,0,0,0,0],"sum_hessian":[6.094544E3,4.7531836E3,1.3413602E3,2.4988655E3,2.254318E3,2.7694437E2,1.0644159E3],"tree_param":{"num_deleted":"0","num_feature":"104","num_nodes":"7","size_leaf_vector":"0"}},{"base_weights":[1.122464E-1,1.996112E-1,-1.9725364E-1,6.787313E-2,3.4554532E-1,5.9846766E-2,-2.6414055E-1],"categories":[],"categories_nodes":[],"categories_segments":[],"categories_sizes":[],"default_left":[1,1,1,0,0,0,0],"id":59,"left_children":[1,3,5,-1,-1,-1,-1],"loss_changes":[1.6485928E2,9.137613E1,2.3099907E1,0E0,0E0,0E0,0E0],"parents":[2147483647,0,0,1,1,2,2],"right_children":[2,4,6,-1,-1,-1,-1],"split_conditions":[2.35E1,1.35E1,3.595E-1,6.7873124E-4,3.455453E-3,5.9846765E-4,-2.6414054E-3],"split_indices":[51,80,55,0,0,0,0],"split_type":[0,0,0,0,0,0,0],"sum_hessian":[6.094544E3,4.7531836E3,1.3413602E3,2.4988655E3,2.254318E3,2.7694437E2,1.0644159E3],"tree_param":{"num_deleted":"0","num_feature":"104","num_nodes":"7","size_leaf_vector":"0"}},{"base_weights":[-1.111559E-1,9.168609E-2,-2.4227728E-1,-1.7160524E-1,1.6183332E-1,-3.370215E-1,-3.9214112E-2],"categories":[],"categories_nodes":[],"categories_segments":[],"categories_sizes":[],"default_left":[1,1,1,0,0,0,0],"id":60,"left_children":[1,3,5,-1,-1,-1,-1],"loss_changes":[1.620993E2,4.4229946E1,7.120076E1,0E0,0E0,0E0,0E0],"parents":[2147483647,0,0,1,1,2,2],"right_children":[2,4,6,-1,-1,-1,-1],"split_conditions":[4.6850002E-1,3.585E-1,2.95E0,-1.7160524E-3,1.6183332E-3,-3.370215E-3,-3.921411E-4],"split_indices":[3,55,77,0,0,0,0],"split_type":[0,0,0,0,0,0,0],"sum_hessian":[6.092829E3,2.392297E3,3.700532E3,5.0297583E2,1.8893213E3,2.5227979E3,1.1777341E3],"tree_param":{"num_deleted":"0","num_feature":"104","num_nodes":"7","size_leaf_vector":"0"}},{"base_weights":[1.11155905E-1,-9.168609E-2,2.422773E-1,1.7160526E-1,-1.6183332E-1,3.3702153E-1,3.9214097E-2],"categories":[],"categories_nodes":[],"categories_segments":[],"categories_sizes":[],"default_left":[1,1,1,0,0,0,0],"id":61,"left_children":[1,3,5,-1,-1,-1,-1],"loss_changes":[1.6209933E2,4.4229958E1,7.1200806E1,0E0,0E0,0E0,0E0],"parents":[2147483647,0,0,1,1,2,2],"right_children":[2,4,6,-1,-1,-1,-1],"split_conditions":[4.6850002E-1,3.585E-1,2.95E0,1.7160525E-3,-1.6183332E-3,3.3702152E-3,3.9214097E-4],"split_indices":[3,55,77,0,0,0,0],"split_type":[0,0,0,0,0,0,0],"sum_hessian":[6.092829E3,2.392297E3,3.700532E3,5.0297586E2,1.8893213E3,2.5227979E3,1.1777341E3],"tree_param":{"num_deleted":"0","num_feature":"104","num_nodes":"7","size_leaf_vector":"0"}},{"base_weights":[-1.1008028E-1,-2.7439508E-1,4.9455512E-2,-2.1163543E-1,-5.383543E-1,-1.8603885E-1,1.4393589E-1],"categories":[],"categories_nodes":[],"categories_segments":[],"categories_sizes":[],"default_left":[1,1,1,0,0,0,0],"id":62,"left_children":[1,3,5,-1,-1,-1,-1],"loss_changes":[1.597071E2,4.9603104E1,6.881683E1,0E0,0E0,0E0,0E0],"parents":[2147483647,0,0,1,1,2,2],"right_children":[2,4,6,-1,-1,-1,-1],"split_conditions":[1.45E1,2.25E1,-2.45E0,-2.1163542E-3,-5.3835427E-3,-1.8603884E-3,1.4393588E-3],"split_indices":[51,80,77,0,0,0,0],"split_type":[0,0,0,0,0,0,0],"sum_hessian":[6.090897E3,3.0001528E3,3.0907444E3,2.4253071E3,5.748458E2,8.846832E2,2.206061E3],"tree_param":{"num_deleted":"0","num_feature":"104","num_nodes":"7","size_leaf_vector":"0"}},{"base_weights":[1.1008031E-1,2.7439514E-1,-4.9455512E-2,2.1163547E-1,5.3835434E-1,1.8603888E-1,-1.4393589E-1],"categories":[],"categories_nodes":[],"categories_segments":[],"categories_sizes":[],"default_left":[1,1,1,0,0,0,0],"id":63,"left_children":[1,3,5,-1,-1,-1,-1],"loss_changes":[1.5970718E2,4.960315E1,6.881685E1,0E0,0E0,0E0,0E0],"parents":[2147483647,0,0,1,1,2,2],"right_children":[2,4,6,-1,-1,-1,-1],"split_conditions":[1.45E1,2.25E1,-2.45E0,2.1163546E-3,5.383543E-3,1.8603888E-3,-1.4393588E-3],"split_indices":[51,80,77,0,0,0,0],"split_type":[0,0,0,0,0,0,0],"sum_hessian":[6.090897E3,3.0001528E3,3.0907444E3,2.4253071E3,5.748458E2,8.8468317E2,2.206061E3],"tree_param":{"num_deleted":"0","num_feature":"104","num_nodes":"7","size_leaf_vector":"0"}},{"base_weights":[-1.0901709E-1,-1.9460802E-1,1.9402815E-1,-4.7993213E-2,-3.2116145E-1,2.6315108E-1,-4.1434485E-2],"categories":[],"categories_nodes":[],"categories_segments":[],"categories_sizes":[],"default_left":[1,1,1,0,0,0,0],"id":64,"left_children":[1,3,5,-1,-1,-1,-1],"loss_changes":[1.5799704E2,8.810402E1,2.1848282E1,0E0,0E0,0E0,0E0],"parents":[2147483647,0,0,1,1,2,2],"right_children":[2,4,6,-1,-1,-1,-1],"split_conditions":[2.35E1,1.15E1,2.25E1,-4.7993212E-4,-3.2116144E-3,2.6315108E-3,-4.1434483E-4],"split_indices":[51,80,79,0,0,0,0],"split_type":[0,0,0,0,0,0,0],"sum_hessian":[6.0888965E3,4.748193E3,1.3407035E3,2.2003828E3,2.54781E3,1.0363522E3,3.0435132E2],"tree_param":{"num_deleted":"0","num_feature":"104","num_nodes":"7","size_leaf_vector":"0"}},{"base_weights":[1.0901709E-1,1.9460803E-1,-1.9402821E-1,4.799323E-2,3.2116145E-1,-2.6315114E-1,4.1434467E-2],"categories":[],"categories_nodes":[],"categories_segments":[],"categories_sizes":[],"default_left":[1,1,1,0,0,0,0],"id":65,"left_children":[1,3,5,-1,-1,-1,-1],"loss_changes":[1.5799707E2,8.8104004E1,2.1848293E1,0E0,0E0,0E0,0E0],"parents":[2147483647,0,0,1,1,2,2],"right_children":[2,4,6,-1,-1,-1,-1],"split_conditions":[2.35E1,1.15E1,2.25E1,4.799323E-4,3.2116144E-3,-2.6315113E-3,4.1434466E-4],"split_indices":[51,80,79,0,0,0,0],"split_type":[0,0,0,0,0,0,0],"sum_hessian":[6.0888965E3,4.748193E3,1.3407034E3,2.2003828E3,2.54781E3,1.036352E3,3.0435132E2],"tree_param":{"num_deleted":"0","num_feature":"104","num_nodes":"7","size_leaf_vector":"0"}},{"base_weights":[-1.0795947E-1,-2.1214032E-1,1.368107E-1,-4.018516E-1,-1.18347354E-1,3.211554E-3,2.847472E-1],"categories":[],"categories_nodes":[],"categories_segments":[],"categories_sizes":[],"default_left":[1,1,1,0,0,0,0],"id":66,"left_children":[1,3,5,-1,-1,-1,-1],"loss_changes":[1.5527759E2,7.594629E1,3.593502E1,0E0,0E0,0E0,0E0],"parents":[2147483647,0,0,1,1,2,2],"right_children":[2,4,6,-1,-1,-1,-1],"split_conditions":[1.95E1,-1.45E0,5.135E-1,-4.018516E-3,-1.1834735E-3,3.211554E-5,2.847472E-3],"split_indices":[28,77,55,0,0,0,0],"split_type":[0,0,0,0,0,0,0],"sum_hessian":[6.0870923E3,4.269858E3,1.8172344E3,1.4115294E3,2.8583284E3,9.5542596E2,8.618084E2],"tree_param":{"num_deleted":"0","num_feature":"104","num_nodes":"7","size_leaf_vector":"0"}},{"base_weights":[1.07959464E-1,2.1214032E-1,-1.3681073E-1,4.0185162E-1,1.18347354E-1,-3.2115763E-3,-2.8474727E-1],"categories":[],"categories_nodes":[],"categories_segments":[],"categories_sizes":[],"default_left":[1,1,1,0,0,0,0],"id":67,"left_children":[1,3,5,-1,-1,-1,-1],"loss_changes":[1.5527762E2,7.5946304E1,3.593503E1,0E0,0E0,0E0,0E0],"parents":[2147483647,0,0,1,1,2,2],"right_children":[2,4,6,-1,-1,-1,-1],"split_conditions":[1.95E1,-1.45E0,5.135E-1,4.0185163E-3,1.1834735E-3,-3.211576E-5,-2.8474727E-3],"split_indices":[28,77,55,0,0,0,0],"split_type":[0,0,0,0,0,0,0],"sum_hessian":[6.0870923E3,4.269858E3,1.8172344E3,1.4115294E3,2.8583284E3,9.5542596E2,8.618084E2],"tree_param":{"num_deleted":"0","num_feature":"104","num_nodes":"7","size_leaf_vector":"0"}},{"base_weights":[-1.0691454E-1,-2.6809305E-1,4.9426224E-2,-3.303392E-1,-9.871298E-3,-9.088465E-2,2.0164289E-1],"categories":[],"categories_nodes":[],"categories_segments":[],"categories_sizes":[],"default_left":[1,1,1,0,0,0,0],"id":68,"left_children":[1,3,5,-1,-1,-1,-1],"loss_changes":[1.5337706E2,4.816638E1,6.601966E1,0E0,0E0,0E0,0E0],"parents":[2147483647,0,0,1,1,2,2],"right_children":[2,4,6,-1,-1,-1,-1],"split_conditions":[1.45E1,5.05E0,3.5000002E-1,-3.3033919E-3,-9.871298E-5,-9.0884644E-4,2.0164289E-3],"split_indices":[51,77,77,0,0,0,0],"split_type":[0,0,0,0,0,0,0],"sum_hessian":[6.085162E3,2.995872E3,3.08929E3,2.4137432E3,5.821288E2,1.6077212E3,1.4815687E3],"tree_param":{"num_deleted":"0","num_feature":"104","num_nodes":"7","size_leaf_vector":"0"}},{"base_weights":[1.06914565E-1,2.6809308E-1,-4.9426198E-2,3.3033922E-1,9.87133E-3,9.088467E-2,-2.0164284E-1],"categories":[],"categories_nodes":[],"categories_segments":[],"categories_sizes":[],"default_left":[1,1,1,0,0,0,0],"id":69,"left_children":[1,3,5,-1,-1,-1,-1],"loss_changes":[1.5337708E2,4.816638E1,6.601965E1,0E0,0E0,0E0,0E0],"parents":[2147483647,0,0,1,1,2,2],"right_children":[2,4,6,-1,-1,-1,-1],"split_conditions":[1.45E1,5.05E0,3.5000002E-1,3.303392E-3,9.8713295E-5,9.088467E-4,-2.0164284E-3],"split_indices":[51,77,77,0,0,0,0],"split_type":[0,0,0,0,0,0,0],"sum_hessian":[6.085162E3,2.995872E3,3.08929E3,2.4137432E3,5.8212885E2,1.6077212E3,1.4815687E3],"tree_param":{"num_deleted":"0","num_feature":"104","num_nodes":"7","size_leaf_vector":"0"}},{"base_weights":[-1.05882235E-1,-1.8969283E-1,1.9068745E-1,-4.6051167E-2,-3.1384423E-1,-5.459698E-2,2.5453547E-1],"categories":[],"categories_nodes":[],"categories_segments":[],"categories_sizes":[],"default_left":[1,1,1,0,0,0,0],"id":70,"left_children":[1,3,5,-1,-1,-1,-1],"loss_changes":[1.512604E2,8.458792E1,2.1015648E1,0E0,0E0,0E0,0E0],"parents":[2147483647,0,0,1,1,2,2],"right_children":[2,4,6,-1,-1,-1,-1],"split_conditions":[2.35E1,1.15E1,3.595E-1,-4.6051166E-4,-3.1384423E-3,-5.4596976E-4,2.5453547E-3],"split_indices":[51,80,55,0,0,0,0],"split_type":[0,0,0,0,0,0,0],"sum_hessian":[6.083092E3,4.7430625E3,1.340029E3,2.1995645E3,2.5434983E3,2.7679865E2,1.0632305E3],"tree_param":{"num_deleted":"0","num_feature":"104","num_nodes":"7","size_leaf_vector":"0"}},{"base_weights":[1.0588223E-1,1.8969281E-1,-1.9068745E-1,4.6051137E-2,3.1384423E-1,5.4596975E-2,-2.5453547E-1],"categories":[],"categories_nodes":[],"categories_segments":[],"categories_sizes":[],"default_left":[1,1,1,0,0,0,0],"id":71,"left_children":[1,3,5,-1,-1,-1,-1],"loss_changes":[1.512604E2,8.4587906E1,2.1015652E1,0E0,0E0,0E0,0E0],"parents":[2147483647,0,0,1,1,2,2],"right_children":[2,4,6,-1,-1,-1,-1],"split_conditions":[2.35E1,1.15E1,3.595E-1,4.6051136E-4,3.1384423E-3,5.4596976E-4,-2.5453547E-3],"split_indices":[51,80,55,0,0,0,0],"split_type":[0,0,0,0,0,0,0],"sum_hessian":[6.083092E3,4.7430625E3,1.340029E3,2.1995645E3,2.5434983E3,2.7679865E2,1.0632305E3],"tree_param":{"num_deleted":"0","num_feature":"104","num_nodes":"7","size_leaf_vector":"0"}},{"base_weights":[-1.0485715E-1,-2.6382768E-1,4.9228556E-2,-2.0258373E-1,-5.2233064E-1,-1.78702E-1,1.406238E-1],"categories":[],"categories_nodes":[],"categories_segments":[],"categories_sizes":[],"default_left":[1,1,1,0,0,0,0],"id":72,"left_children":[1,3,5,-1,-1,-1,-1],"loss_changes":[1.4899625E2,4.7291122E1,6.438236E1,0E0,0E0,0E0,0E0],"parents":[2147483647,0,0,1,1,2,2],"right_children":[2,4,6,-1,-1,-1,-1],"split_conditions":[1.45E1,2.25E1,-2.45E0,-2.0258373E-3,-5.2233064E-3,-1.7870199E-3,1.406238E-3],"split_indices":[51,80,77,0,0,0,0],"split_type":[0,0,0,0,0,0,0],"sum_hessian":[6.08117E3,2.99279E3,3.08838E3,2.4209963E3,5.717935E2,8.836615E2,2.2047185E3],"tree_param":{"num_deleted":"0","num_feature":"104","num_nodes":"7","size_leaf_vector":"0"}},{"base_weights":[1.0485713E-1,2.6382768E-1,-4.922858E-2,2.0258372E-1,5.2233064E-1,1.7870198E-1,-1.4062381E-1],"categories":[],"categories_nodes":[],"categories_segments":[],"categories_sizes":[],"default_left":[1,1,1,0,0,0,0],"id":73,"left_children":[1,3,5,-1,-1,-1,-1],"loss_changes":[1.4899629E2,4.7291122E1,6.438237E1,0E0,0E0,0E0,0E0],"parents":[2147483647,0,0,1,1,2,2],"right_children":[2,4,6,-1,-1,-1,-1],"split_conditions":[1.45E1,2.25E1,-2.45E0,2.025837E-3,5.2233064E-3,1.7870198E-3,-1.4062381E-3],"split_indices":[51,80,77,0,0,0,0],"split_type":[0,0,0,0,0,0,0],"sum_hessian":[6.08117E3,2.99279E3,3.08838E3,2.4209966E3,5.717935E2,8.836615E2,2.2047185E3],"tree_param":{"num_deleted":"0","num_feature":"104","num_nodes":"7","size_leaf_vector":"0"}},{"base_weights":[-1.0384739E-1,-1.864523E-1,1.88349E-1,-6.1441064E-2,-3.254584E-1,2.2299659E-1,-2.4982534E-1],"categories":[],"categories_nodes":[],"categories_segments":[],"categories_sizes":[],"default_left":[1,1,1,0,0,0,0],"id":74,"left_children":[1,3,5,-1,-1,-1,-1],"loss_changes":[1.4678723E2,8.2357086E1,2.0406895E1,0E0,0E0,0E0,0E0],"parents":[2147483647,0,0,1,1,2,2],"right_children":[2,4,6,-1,-1,-1,-1],"split_conditions":[2.35E1,1.35E1,2.75E1,-6.144106E-4,-3.254584E-3,2.229966E-3,-2.4982535E-3],"split_indices":[51,80,80,0,0,0,0],"split_type":[0,0,0,0,0,0,0],"sum_hessian":[6.079001E3,4.739492E3,1.3395085E3,2.4961194E3,2.2433728E3,1.2418068E3,9.770184E1],"tree_param":{"num_deleted":"0","num_feature":"104","num_nodes":"7","size_leaf_vector":"0"}},{"base_weights":[1.0384741E-1,1.864523E-1,-1.8834895E-1,6.144106E-2,3.2545844E-1,-2.2299653E-1,2.4982534E-1],"categories":[],"categories_nodes":[],"categories_segments":[],"categories_sizes":[],"default_left":[1,1,1,0,0,0,0],"id":75,"left_children":[1,3,5,-1,-1,-1,-1],"loss_changes":[1.4678717E2,8.23571E1,2.0406887E1,0E0,0E0,0E0,0E0],"parents":[2147483647,0,0,1,1,2,2],"right_children":[2,4,6,-1,-1,-1,-1],"split_conditions":[2.35E1,1.35E1,2.75E1,6.144106E-4,3.2545843E-3,-2.2299653E-3,2.4982535E-3],"split_indices":[51,80,80,0,0,0,0],"split_type":[0,0,0,0,0,0,0],"sum_hessian":[6.079001E3,4.739492E3,1.3395085E3,2.4961194E3,2.2433728E3,1.2418068E3,9.770184E1],"tree_param":{"num_deleted":"0","num_feature":"104","num_nodes":"7","size_leaf_vector":"0"}},{"base_weights":[-1.02842964E-1,8.8927455E-2,-2.2708634E-1,-1.6033429E-1,1.5530555E-1,-3.1822494E-1,-3.2549556E-2],"categories":[],"categories_nodes":[],"categories_segments":[],"categories_sizes":[],"default_left":[1,1,1,0,0,0,0],"id":76,"left_children":[1,3,5,-1,-1,-1,-1],"loss_changes":[1.4483707E2,3.957454E1,6.538956E1,0E0,0E0,0E0,0E0],"parents":[2147483647,0,0,1,1,2,2],"right_children":[2,4,6,-1,-1,-1,-1],"split_conditions":[4.6850002E-1,3.585E-1,2.95E0,-1.6033428E-3,1.5530555E-3,-3.1822494E-3,-3.2549555E-4],"split_indices":[3,55,77,0,0,0,0],"split_type":[0,0,0,0,0,0,0],"sum_hessian":[6.0770513E3,2.3893535E3,3.6876978E3,5.021761E2,1.8871774E3,2.510784E3,1.1769138E3],"tree_param":{"num_deleted":"0","num_feature":"104","num_nodes":"7","size_leaf_vector":"0"}},{"base_weights":[1.0284298E-1,-8.892745E-2,2.2708635E-1,1.6033424E-1,-1.5530553E-1,3.1822494E-1,3.2549605E-2],"categories":[],"categories_nodes":[],"categories_segments":[],"categories_sizes":[],"default_left":[1,1,1,0,0,0,0],"id":77,"left_children":[1,3,5,-1,-1,-1,-1],"loss_changes":[1.448371E2,3.957453E1,6.538954E1,0E0,0E0,0E0,0E0],"parents":[2147483647,0,0,1,1,2,2],"right_children":[2,4,6,-1,-1,-1,-1],"split_conditions":[4.6850002E-1,3.585E-1,2.95E0,1.6033424E-3,-1.5530554E-3,3.1822494E-3,3.2549605E-4],"split_indices":[3,55,77,0,0,0,0],"split_type":[0,0,0,0,0,0,0],"sum_hessian":[6.0770513E3,2.3893535E3,3.6876978E3,5.021761E2,1.8871774E3,2.510784E3,1.1769138E3],"tree_param":{"num_deleted":"0","num_feature":"104","num_nodes":"7","size_leaf_vector":"0"}},{"base_weights":[-1.0185237E-1,-2.576544E-1,4.8995238E-2,-1.9739367E-1,-5.126415E-1,-8.7147504E-2,1.9666745E-1],"categories":[],"categories_nodes":[],"categories_segments":[],"categories_sizes":[],"default_left":[1,1,1,0,0,0,0],"id":78,"left_children":[1,3,5,-1,-1,-1,-1],"loss_changes":[1.4280959E2,4.5826996E1,6.2096836E1,0E0,0E0,0E0,0E0],"parents":[2147483647,0,0,1,1,2,2],"right_children":[2,4,6,-1,-1,-1,-1],"split_conditions":[1.45E1,2.25E1,3.5000002E-1,-1.9739366E-3,-5.126415E-3,-8.7147503E-4,1.9666743E-3],"split_indices":[51,80,77,0,0,0,0],"split_type":[0,0,0,0,0,0,0],"sum_hessian":[6.074856E3,2.9880054E3,3.0868508E3,2.4182725E3,5.6973267E2,1.6063375E3,1.4805133E3],"tree_param":{"num_deleted":"0","num_feature":"104","num_nodes":"7","size_leaf_vector":"0"}},{"base_weights":[1.0185238E-1,2.576544E-1,-4.8995227E-2,1.9739366E-1,5.126415E-1,8.714751E-2,-1.9666743E-1],"categories":[],"categories_nodes":[],"categories_segments":[],"categories_sizes":[],"default_left":[1,1,1,0,0,0,0],"id":79,"left_children":[1,3,5,-1,-1,-1,-1],"loss_changes":[1.4280959E2,4.5826996E1,6.2096825E1,0E0,0E0,0E0,0E0],"parents":[2147483647,0,0,1,1,2,2],"right_children":[2,4,6,-1,-1,-1,-1],"split_conditions":[1.45E1,2.25E1,3.5000002E-1,1.9739366E-3,5.126415E-3,8.714751E-4,-1.9666743E-3],"split_indices":[51,80,77,0,0,0,0],"split_type":[0,0,0,0,0,0,0],"sum_hessian":[6.074856E3,2.9880054E3,3.0868508E3,2.4182727E3,5.697327E2,1.6063375E3,1.4805133E3],"tree_param":{"num_deleted":"0","num_feature":"104","num_nodes":"7","size_leaf_vector":"0"}},{"base_weights":[-1.00871935E-1,-2.0029598E-1,1.323009E-1,-3.9215016E-1,-1.1440908E-1,4.642113E-3,2.737926E-1],"categories":[],"categories_nodes":[],"categories_segments":[],"categories_sizes":[],"default_left":[1,1,1,0,0,0,0],"id":80,"left_children":[1,3,5,-1,-1,-1,-1],"loss_changes":[1.408319E2,7.012463E1,3.2804398E1,0E0,0E0,0E0,0E0],"parents":[2147483647,0,0,1,1,2,2],"right_children":[2,4,6,-1,-1,-1,-1],"split_conditions":[1.95E1,-1.75E0,5.135E-1,-3.9215013E-3,-1.1440908E-3,4.642113E-5,2.7379259E-3],"split_indices":[28,77,55,0,0,0,0],"split_type":[0,0,0,0,0,0,0],"sum_hessian":[6.0726523E3,4.2574375E3,1.8152147E3,1.3154404E3,2.941997E3,9.547965E2,8.604182E2],"tree_param":{"num_deleted":"0","num_feature":"104","num_nodes":"7","size_leaf_vector":"0"}},{"base_weights":[1.00871935E-1,2.0029597E-1,-1.3230088E-1,3.9215016E-1,1.1440907E-1,-4.642092E-3,-2.737926E-1],"categories":[],"categories_nodes":[],"categories_segments":[],"categories_sizes":[],"default_left":[1,1,1,0,0,0,0],"id":81,"left_children":[1,3,5,-1,-1,-1,-1],"loss_changes":[1.408319E2,7.012463E1,3.2804398E1,0E0,0E0,0E0,0E0],"parents":[2147483647,0,0,1,1,2,2],"right_children":[2,4,6,-1,-1,-1,-1],"split_conditions":[1.95E1,-1.75E0,5.135E-1,3.9215013E-3,1.1440907E-3,-4.642092E-5,-2.7379259E-3],"split_indices":[28,77,55,0,0,0,0],"split_type":[0,0,0,0,0,0,0],"sum_hessian":[6.0726523E3,4.2574375E3,1.8152147E3,1.3154404E3,2.941997E3,9.547965E2,8.604182E2],"tree_param":{"num_deleted":"0","num_feature":"104","num_nodes":"7","size_leaf_vector":"0"}},{"base_weights":[-9.9899285E-2,-1.8031926E-1,1.8431681E-1,3.498946E-2,-2.578477E-1,2.1823354E-1,-2.4458471E-1],"categories":[],"categories_nodes":[],"categories_segments":[],"categories_sizes":[],"default_left":[1,1,1,0,0,0,0],"id":82,"left_children":[1,3,5,-1,-1,-1,-1],"loss_changes":[1.3880757E2,7.901404E1,1.9539837E1,0E0,0E0,0E0,0E0],"parents":[2147483647,0,0,1,1,2,2],"right_children":[2,4,6,-1,-1,-1,-1],"split_conditions":[2.35E1,7.5E0,2.75E1,3.498946E-4,-2.578477E-3,2.1823354E-3,-2.445847E-3],"split_indices":[51,103,80,0,0,0,0],"split_type":[0,0,0,0,0,0,0],"sum_hessian":[6.0705073E3,4.73195E3,1.338557E3,1.2529257E3,3.4790244E3,1.2409187E3,9.7638374E1],"tree_param":{"num_deleted":"0","num_feature":"104","num_nodes":"7","size_leaf_vector":"0"}},{"base_weights":[9.9899285E-2,1.8031926E-1,-1.8431677E-1,-3.4989472E-2,2.578477E-1,-2.1823351E-1,2.4458472E-1],"categories":[],"categories_nodes":[],"categories_segments":[],"categories_sizes":[],"default_left":[1,1,1,0,0,0,0],"id":83,"left_children":[1,3,5,-1,-1,-1,-1],"loss_changes":[1.3880754E2,7.901404E1,1.953983E1,0E0,0E0,0E0,0E0],"parents":[2147483647,0,0,1,1,2,2],"right_children":[2,4,6,-1,-1,-1,-1],"split_conditions":[2.35E1,7.5E0,2.75E1,-3.4989472E-4,2.578477E-3,-2.1823351E-3,2.4458473E-3],"split_indices":[51,103,80,0,0,0,0],"split_type":[0,0,0,0,0,0,0],"sum_hessian":[6.0705073E3,4.73195E3,1.338557E3,1.2529257E3,3.4790244E3,1.2409187E3,9.763838E1],"tree_param":{"num_deleted":"0","num_feature":"104","num_nodes":"7","size_leaf_vector":"0"}},{"base_weights":[-9.8932974E-2,-2.5180122E-1,4.8912182E-2,-3.1190467E-1,-3.619592E-3,-1.7106321E-1,1.3705778E-1],"categories":[],"categories_nodes":[],"categories_segments":[],"categories_sizes":[],"default_left":[1,1,1,0,0,0,0],"id":84,"left_children":[1,3,5,-1,-1,-1,-1],"loss_changes":[1.371891E2,4.451358E1,5.9866444E1,0E0,0E0,0E0,0E0],"parents":[2147483647,0,0,1,1,2,2],"right_children":[2,4,6,-1,-1,-1,-1],"split_conditions":[1.45E1,5.05E0,-2.45E0,-3.1190466E-3,-3.6195917E-5,-1.7106321E-3,1.3705777E-3],"split_indices":[51,77,77,0,0,0,0],"split_type":[0,0,0,0,0,0,0],"sum_hessian":[6.068547E3,2.9832434E3,3.0853035E3,2.4014216E3,5.8182153E2,8.823579E2,2.2029456E3],"tree_param":{"num_deleted":"0","num_feature":"104","num_nodes":"7","size_leaf_vector":"0"}},{"base_weights":[9.8932974E-2,2.5180122E-1,-4.8912175E-2,3.1190467E-1,3.619509E-3,1.7106321E-1,-1.3705777E-1],"categories":[],"categories_nodes":[],"categories_segments":[],"categories_sizes":[],"default_left":[1,1,1,0,0,0,0],"id":85,"left_children":[1,3,5,-1,-1,-1,-1],"loss_changes":[1.3718912E2,4.451358E1,5.986644E1,0E0,0E0,0E0,0E0],"parents":[2147483647,0,0,1,1,2,2],"right_children":[2,4,6,-1,-1,-1,-1],"split_conditions":[1.45E1,5.05E0,-2.45E0,3.1190466E-3,3.6195088E-5,1.7106321E-3,-1.3705776E-3],"split_indices":[51,77,77,0,0,0,0],"split_type":[0,0,0,0,0,0,0],"sum_hessian":[6.068547E3,2.9832432E3,3.0853035E3,2.4014216E3,5.818216E2,8.823579E2,2.2029456E3],"tree_param":{"num_deleted":"0","num_feature":"104","num_nodes":"7","size_leaf_vector":"0"}},{"base_weights":[-9.7982734E-2,1.2561442E-1,-1.9740659E-1,-3.922986E-2,2.2037396E-1,-4.163276E-1,-1.2036038E-1],"categories":[],"categories_nodes":[],"categories_segments":[],"categories_sizes":[],"default_left":[1,1,1,0,0,0,0],"id":86,"left_children":[1,3,5,-1,-1,-1,-1],"loss_changes":[1.3490387E2,2.9188732E1,7.079373E1,0E0,0E0,0E0,0E0],"parents":[2147483647,0,0,1,1,2,2],"right_children":[2,4,6,-1,-1,-1,-1],"split_conditions":[-2.05E0,-1.45E0,-2.55E0,-3.9229856E-4,2.2037395E-3,-4.163276E-3,-1.2036038E-3],"split_indices":[25,77,77,0,0,0,0],"split_type":[0,0,0,0,0,0,0],"sum_hessian":[6.0661914E3,1.8670549E3,4.199136E3,6.817188E2,1.185336E3,1.0919733E3,3.107163E3],"tree_param":{"num_deleted":"0","num_feature":"104","num_nodes":"7","size_leaf_vector":"0"}},{"base_weights":[9.798273E-2,-1.256144E-1,1.9740659E-1,3.922985E-2,-2.2037396E-1,4.1632757E-1,1.2036036E-1],"categories":[],"categories_nodes":[],"categories_segments":[],"categories_sizes":[],"default_left":[1,1,1,0,0,0,0],"id":87,"left_children":[1,3,5,-1,-1,-1,-1],"loss_changes":[1.3490387E2,2.9188717E1,7.079373E1,0E0,0E0,0E0,0E0],"parents":[2147483647,0,0,1,1,2,2],"right_children":[2,4,6,-1,-1,-1,-1],"split_conditions":[-2.05E0,-1.45E0,-2.55E0,3.922985E-4,-2.2037395E-3,4.1632755E-3,1.2036036E-3],"split_indices":[25,77,77,0,0,0,0],"split_type":[0,0,0,0,0,0,0],"sum_hessian":[6.0661914E3,1.8670549E3,4.199136E3,6.817188E2,1.185336E3,1.0919734E3,3.107163E3],"tree_param":{"num_deleted":"0","num_feature":"104","num_nodes":"7","size_leaf_vector":"0"}},{"base_weights":[-9.703974E-2,-2.4761687E-1,4.847119E-2,-1.888416E-1,-4.9740776E-1,2.0162062E-1,-7.5050674E-2],"categories":[],"categories_nodes":[],"categories_segments":[],"categories_sizes":[],"default_left":[1,1,1,0,0,0,0],"id":88,"left_children":[1,3,5,-1,-1,-1,-1],"loss_changes":[1.3289886E2,4.366809E1,5.837879E1,0E0,0E0,0E0,0E0],"parents":[2147483647,0,0,1,1,2,2],"right_children":[2,4,6,-1,-1,-1,-1],"split_conditions":[1.45E1,2.25E1,1.35E1,-1.8884159E-3,-4.9740775E-3,2.0162063E-3,-7.505067E-4],"split_indices":[51,80,103,0,0,0,0],"split_type":[0,0,0,0,0,0,0],"sum_hessian":[6.063953E3,2.9797532E3,3.0842E3,2.4135952E3,5.661579E2,1.3766807E3,1.7075193E3],"tree_param":{"num_deleted":"0","num_feature":"104","num_nodes":"7","size_leaf_vector":"0"}},{"base_weights":[9.703975E-2,2.4761687E-1,-4.8471164E-2,1.8884161E-1,4.9740776E-1,-2.016206E-1,7.505069E-2],"categories":[],"categories_nodes":[],"categories_segments":[],"categories_sizes":[],"default_left":[1,1,1,0,0,0,0],"id":89,"left_children":[1,3,5,-1,-1,-1,-1],"loss_changes":[1.3289885E2,4.366809E1,5.8378784E1,0E0,0E0,0E0,0E0],"parents":[2147483647,0,0,1,1,2,2],"right_children":[2,4,6,-1,-1,-1,-1],"split_conditions":[1.45E1,2.25E1,1.35E1,1.8884161E-3,4.9740775E-3,-2.0162058E-3,7.505069E-4],"split_indices":[51,80,103,0,0,0,0],"split_type":[0,0,0,0,0,0,0],"sum_hessian":[6.063953E3,2.9797532E3,3.0842E3,2.4135952E3,5.661579E2,1.3766807E3,1.7075193E3],"tree_param":{"num_deleted":"0","num_feature":"104","num_nodes":"7","size_leaf_vector":"0"}},{"base_weights":[-9.610757E-2,-1.7441975E-1,1.8041122E-1,3.632821E-2,-2.5043818E-1,2.1361855E-1,-2.3947383E-1],"categories":[],"categories_nodes":[],"categories_segments":[],"categories_sizes":[],"default_left":[1,1,1,0,0,0,0],"id":90,"left_children":[1,3,5,-1,-1,-1,-1],"loss_changes":[1.3131648E2,7.5708664E1,1.871465E1,0E0,0E0,0E0,0E0],"parents":[2147483647,0,0,1,1,2,2],"right_children":[2,4,6,-1,-1,-1,-1],"split_conditions":[2.35E1,7.5E0,2.75E1,3.632821E-4,-2.5043818E-3,2.1361855E-3,-2.3947384E-3],"split_indices":[51,103,80,0,0,0,0],"split_type":[0,0,0,0,0,0,0],"sum_hessian":[6.0616323E3,4.724101E3,1.3375314E3,1.2524426E3,3.4716584E3,1.2399584E3,9.757299E1],"tree_param":{"num_deleted":"0","num_feature":"104","num_nodes":"7","size_leaf_vector":"0"}},{"base_weights":[9.6107565E-2,1.7441973E-1,-1.8041119E-1,-3.63282E-2,2.5043815E-1,-2.1361852E-1,2.3947375E-1],"categories":[],"categories_nodes":[],"categories_segments":[],"categories_sizes":[],"default_left":[1,1,1,0,0,0,0],"id":91,"left_children":[1,3,5,-1,-1,-1,-1],"loss_changes":[1.3131648E2,7.570865E1,1.8714638E1,0E0,0E0,0E0,0E0],"parents":[2147483647,0,0,1,1,2,2],"right_children":[2,4,6,-1,-1,-1,-1],"split_conditions":[2.35E1,7.5E0,2.75E1,-3.63282E-4,2.5043816E-3,-2.136185E-3,2.3947374E-3],"split_indices":[51,103,80,0,0,0,0],"split_type":[0,0,0,0,0,0,0],"sum_hessian":[6.061633E3,4.724101E3,1.3375314E3,1.2524426E3,3.4716584E3,1.2399584E3,9.7573E1],"tree_param":{"num_deleted":"0","num_feature":"104","num_nodes":"7","size_leaf_vector":"0"}},{"base_weights":[-9.517954E-2,-1.906677E-1,1.2841502E-1,-1.13024E-1,-3.9113215E-1,5.249904E-3,2.6505318E-1],"categories":[],"categories_nodes":[],"categories_segments":[],"categories_sizes":[],"default_left":[1,1,1,0,0,0,0],"id":92,"left_children":[1,3,5,-1,-1,-1,-1],"loss_changes":[1.2942154E2,6.606413E1,3.0531124E1,0E0,0E0,0E0,0E0],"parents":[2147483647,0,0,1,1,2,2],"right_children":[2,4,6,-1,-1,-1,-1],"split_conditions":[1.95E1,1.95E1,5.135E-1,-1.1302399E-3,-3.9113215E-3,5.249904E-5,2.6505317E-3],"split_indices":[28,80,55,0,0,0,0],"split_type":[0,0,0,0,0,0,0],"sum_hessian":[6.059572E3,4.246298E3,1.813274E3,3.0619211E3,1.1843767E3,9.5420013E2,8.590739E2],"tree_param":{"num_deleted":"0","num_feature":"104","num_nodes":"7","size_leaf_vector":"0"}},{"base_weights":[9.517956E-2,1.9066772E-1,-1.28415E-1,1.1302401E-1,3.9113215E-1,-5.2499166E-3,-2.6505315E-1],"categories":[],"categories_nodes":[],"categories_segments":[],"categories_sizes":[],"default_left":[1,1,1,0,0,0,0],"id":93,"left_children":[1,3,5,-1,-1,-1,-1],"loss_changes":[1.2942154E2,6.606415E1,3.0531116E1,0E0,0E0,0E0,0E0],"parents":[2147483647,0,0,1,1,2,2],"right_children":[2,4,6,-1,-1,-1,-1],"split_conditions":[1.95E1,1.95E1,5.135E-1,1.13024E-3,3.9113215E-3,-5.2499163E-5,-2.6505315E-3],"split_indices":[28,80,55,0,0,0,0],"split_type":[0,0,0,0,0,0,0],"sum_hessian":[6.059572E3,4.246298E3,1.813274E3,3.0619211E3,1.1843766E3,9.5420013E2,8.590739E2],"tree_param":{"num_deleted":"0","num_feature":"104","num_nodes":"7","size_leaf_vector":"0"}},{"base_weights":[-9.426401E-2,-2.4201667E-1,4.83524E-2,-3.0087677E-1,2.7361125E-4,1.9853044E-1,-7.276342E-2],"categories":[],"categories_nodes":[],"categories_segments":[],"categories_sizes":[],"default_left":[1,1,1,0,0,0,0],"id":94,"left_children":[1,3,5,-1,-1,-1,-1],"loss_changes":[1.27671814E2,4.2437683E1,5.6101166E1,0E0,0E0,0E0,0E0],"parents":[2147483647,0,0,1,1,2,2],"right_children":[2,4,6,-1,-1,-1,-1],"split_conditions":[1.45E1,5.05E0,1.35E1,-3.0087675E-3,2.7361125E-6,1.9853043E-3,-7.276342E-4],"split_indices":[51,77,103,0,0,0,0],"split_type":[0,0,0,0,0,0,0],"sum_hessian":[6.0572944E3,2.974732E3,3.0825623E3,2.3931235E3,5.816084E2,1.3758868E3,1.7066755E3],"tree_param":{"num_deleted":"0","num_feature":"104","num_nodes":"7","size_leaf_vector":"0"}},{"base_weights":[9.426399E-2,2.4201664E-1,-4.83524E-2,3.0087674E-1,-2.7358375E-4,-1.9853044E-1,7.276341E-2],"categories":[],"categories_nodes":[],"categories_segments":[],"categories_sizes":[],"default_left":[1,1,1,0,0,0,0],"id":95,"left_children":[1,3,5,-1,-1,-1,-1],"loss_changes":[1.2767178E2,4.2437668E1,5.6101166E1,0E0,0E0,0E0,0E0],"parents":[2147483647,0,0,1,1,2,2],"right_children":[2,4,6,-1,-1,-1,-1],"split_conditions":[1.45E1,5.05E0,1.35E1,3.0087673E-3,-2.7358374E-6,-1.9853043E-3,7.276341E-4],"split_indices":[51,77,103,0,0,0,0],"split_type":[0,0,0,0,0,0,0],"sum_hessian":[6.0572944E3,2.974732E3,3.0825623E3,2.3931235E3,5.8160846E2,1.3758868E3,1.7066755E3],"tree_param":{"num_deleted":"0","num_feature":"104","num_nodes":"7","size_leaf_vector":"0"}},{"base_weights":[-9.335915E-2,-1.7004992E-1,1.7725451E-1,-3.671507E-2,-2.8600818E-1,2.0994872E-1,-2.3609374E-1],"categories":[],"categories_nodes":[],"categories_segments":[],"categories_sizes":[],"default_left":[1,1,1,0,0,0,0],"id":96,"left_children":[1,3,5,-1,-1,-1,-1],"loss_changes":[1.2571149E2,7.2953674E1,1.8127827E1,0E0,0E0,0E0,0E0],"parents":[2147483647,0,0,1,1,2,2],"right_children":[2,4,6,-1,-1,-1,-1],"split_conditions":[2.35E1,1.15E1,2.75E1,-3.671507E-4,-2.8600816E-3,2.0994872E-3,-2.3609374E-3],"split_indices":[51,80,80,0,0,0,0],"split_type":[0,0,0,0,0,0,0],"sum_hessian":[6.05489E3,4.7181562E3,1.3367339E3,2.195255E3,2.5229016E3,1.2392095E3,9.752445E1],"tree_param":{"num_deleted":"0","num_feature":"104","num_nodes":"7","size_leaf_vector":"0"}},{"base_weights":[9.335915E-2,1.7004992E-1,-1.7725456E-1,3.671506E-2,2.860082E-1,-2.0994876E-1,2.3609376E-1],"categories":[],"categories_nodes":[],"categories_segments":[],"categories_sizes":[],"default_left":[1,1,1,0,0,0,0],"id":97,"left_children":[1,3,5,-1,-1,-1,-1],"loss_changes":[1.2571152E2,7.2953705E1,1.8127827E1,0E0,0E0,0E0,0E0],"parents":[2147483647,0,0,1,1,2,2],"right_children":[2,4,6,-1,-1,-1,-1],"split_conditions":[2.35E1,1.15E1,2.75E1,3.6715058E-4,2.860082E-3,-2.0994877E-3,2.3609377E-3],"split_indices":[51,80,80,0,0,0,0],"split_type":[0,0,0,0,0,0,0],"sum_hessian":[6.05489E3,4.7181562E3,1.3367339E3,2.195255E3,2.5229016E3,1.2392095E3,9.752445E1],"tree_param":{"num_deleted":"0","num_feature":"104","num_nodes":"7","size_leaf_vector":"0"}},{"base_weights":[-9.24603E-2,-2.3822074E-1,4.8113313E-2,-1.8078336E-1,-4.8340744E-1,-1.6280526E-1,1.325674E-1],"categories":[],"categories_nodes":[],"categories_segments":[],"categories_sizes":[],"default_left":[1,1,1,0,0,0,0],"id":98,"left_children":[1,3,5,-1,-1,-1,-1],"loss_changes":[1.2405176E2,4.176941E1,5.4929985E1,0E0,0E0,0E0,0E0],"parents":[2147483647,0,0,1,1,2,2],"right_children":[2,4,6,-1,-1,-1,-1],"split_conditions":[1.45E1,2.25E1,-2.45E0,-1.8078336E-3,-4.834074E-3,-1.6280526E-3,1.325674E-3],"split_indices":[51,80,77,0,0,0,0],"split_type":[0,0,0,0,0,0,0],"sum_hessian":[6.0526777E3,2.9711768E3,3.081501E3,2.4086616E3,5.625152E2,8.8080945E2,2.2006914E3],"tree_param":{"num_deleted":"0","num_feature":"104","num_nodes":"7","size_leaf_vector":"0"}},{"base_weights":[9.246032E-2,2.3822077E-1,-4.8113294E-2,1.8078339E-1,4.8340744E-1,1.6280526E-1,-1.3256739E-1],"categories":[],"categories_nodes":[],"categories_segments":[],"categories_sizes":[],"default_left":[1,1,1,0,0,0,0],"id":99,"left_children":[1,3,5,-1,-1,-1,-1],"loss_changes":[1.2405177E2,4.1769394E1,5.4929974E1,0E0,0E0,0E0,0E0],"parents":[2147483647,0,0,1,1,2,2],"right_children":[2,4,6,-1,-1,-1,-1],"split_conditions":[1.45E1,2.25E1,-2.45E0,1.8078339E-3,4.834074E-3,1.6280526E-3,-1.3256739E-3],"split_indices":[51,80,77,0,0,0,0],"split_type":[0,0,0,0,0,0,0],"sum_hessian":[6.0526777E3,2.9711768E3,3.081501E3,2.4086616E3,5.625152E2,8.8080945E2,2.2006914E3],"tree_param":{"num_deleted":"0","num_feature":"104","num_nodes":"7","size_leaf_vector":"0"}},{"base_weights":[-9.157518E-2,-2.0181884E-1,9.184114E-2,-9.791229E-4,-2.7741972E-1,2.796482E-1,7.422914E-3],"categories":[],"categories_nodes":[],"categories_segments":[],"categories_sizes":[],"default_left":[1,1,1,0,0,0,0],"id":100,"left_children":[1,3,5,-1,-1,-1,-1],"loss_changes":[1.2237635E2,5.7391006E1,3.6024963E1,0E0,0E0,0E0,0E0],"parents":[2147483647,0,0,1,1,2,2],"right_children":[2,4,6,-1,-1,-1,-1],"split_conditions":[1.75E1,7.5E0,-6.3500004E0,-9.791229E-6,-2.7741971E-3,2.796482E-3,7.422914E-5],"split_indices":[27,103,25,0,0,0,0],"split_type":[0,0,0,0,0,0,0],"sum_hessian":[6.050181E3,3.7788044E3,2.271377E3,1.0337032E3,2.745101E3,7.036465E2,1.5677303E3],"tree_param":{"num_deleted":"0","num_feature":"104","num_nodes":"7","size_leaf_vector":"0"}},{"base_weights":[9.157518E-2,2.0181882E-1,-9.184113E-2,9.790747E-4,2.7741975E-1,-2.7964818E-1,-7.4229073E-3],"categories":[],"categories_nodes":[],"categories_segments":[],"categories_sizes":[],"default_left":[1,1,1,0,0,0,0],"id":101,"left_children":[1,3,5,-1,-1,-1,-1],"loss_changes":[1.22376335E2,5.739102E1,3.6024963E1,0E0,0E0,0E0,0E0],"parents":[2147483647,0,0,1,1,2,2],"right_children":[2,4,6,-1,-1,-1,-1],"split_conditions":[1.75E1,7.5E0,-6.3500004E0,9.790747E-6,2.7741974E-3,-2.7964818E-3,-7.422907E-5],"split_indices":[27,103,25,0,0,0,0],"split_type":[0,0,0,0,0,0,0],"sum_hessian":[6.050181E3,3.7788044E3,2.271377E3,1.0337034E3,2.745101E3,7.036465E2,1.5677303E3],"tree_param":{"num_deleted":"0","num_feature":"104","num_nodes":"7","size_leaf_vector":"0"}},{"base_weights":[-9.069276E-2,4.6264273E-3,-2.9927623E-1,-1.9597475E-1,9.648443E-2,-3.552037E-1,-4.8007607E-2],"categories":[],"categories_nodes":[],"categories_segments":[],"categories_sizes":[],"default_left":[1,1,1,0,0,0,0],"id":102,"left_children":[1,3,5,-1,-1,-1,-1],"loss_changes":[1.2026735E2,7.654003E1,2.664508E1,0E0,0E0,0E0,0E0],"parents":[2147483647,0,0,1,1,2,2],"right_children":[2,4,6,-1,-1,-1,-1],"split_conditions":[2.85E0,-1.95E0,5.3500004E0,-1.9597474E-3,9.648443E-4,-3.5520368E-3,-4.8007607E-4],"split_indices":[25,77,77,0,0,0,0],"split_type":[0,0,0,0,0,0,0],"sum_hessian":[6.047985E3,4.151703E3,1.8962815E3,1.3036454E3,2.8480579E3,1.5507103E3,3.4557117E2],"tree_param":{"num_deleted":"0","num_feature":"104","num_nodes":"7","size_leaf_vector":"0"}},{"base_weights":[9.069275E-2,-4.6264236E-3,2.992762E-1,1.9597471E-1,-9.64844E-2,3.5520366E-1,4.8007492E-2],"categories":[],"categories_nodes":[],"categories_segments":[],"categories_sizes":[],"default_left":[1,1,1,0,0,0,0],"id":103,"left_children":[1,3,5,-1,-1,-1,-1],"loss_changes":[1.2026732E2,7.654E1,2.6645111E1,0E0,0E0,0E0,0E0],"parents":[2147483647,0,0,1,1,2,2],"right_children":[2,4,6,-1,-1,-1,-1],"split_conditions":[2.85E0,-1.95E0,5.3500004E0,1.959747E-3,-9.6484396E-4,3.5520366E-3,4.800749E-4],"split_indices":[25,77,77,0,0,0,0],"split_type":[0,0,0,0,0,0,0],"sum_hessian":[6.047985E3,4.151703E3,1.8962815E3,1.3036453E3,2.8480579E3,1.5507103E3,3.4557117E2],"tree_param":{"num_deleted":"0","num_feature":"104","num_nodes":"7","size_leaf_vector":"0"}},{"base_weights":[-8.982021E-2,-1.8166886E-1,1.2486676E-1,-1.0643559E-1,-3.767047E-1,2.8563678E-1,2.6149612E-2],"categories":[],"categories_nodes":[],"categories_segments":[],"categories_sizes":[],"default_left":[1,1,1,0,0,0,0],"id":104,"left_children":[1,3,5,-1,-1,-1,-1],"loss_changes":[1.1925704E2,6.2106003E1,2.8756878E1,0E0,0E0,0E0,0E0],"parents":[2147483647,0,0,1,1,2,2],"right_children":[2,4,6,-1,-1,-1,-1],"split_conditions":[1.95E1,1.95E1,-6.25E0,-1.0643558E-3,-3.7670468E-3,2.8563677E-3,2.614961E-4],"split_indices":[28,80,25,0,0,0,0],"split_type":[0,0,0,0,0,0,0],"sum_hessian":[6.0457627E3,4.2343516E3,1.8114115E3,3.0567747E3,1.1775768E3,6.88398E2,1.1230135E3],"tree_param":{"num_deleted":"0","num_feature":"104","num_nodes":"7","size_leaf_vector":"0"}},{"base_weights":[8.98202E-2,1.8166885E-1,-1.2486677E-1,1.0643559E-1,3.7670466E-1,-2.8563678E-1,-2.6149621E-2],"categories":[],"categories_nodes":[],"categories_segments":[],"categories_sizes":[],"default_left":[1,1,1,0,0,0,0],"id":105,"left_children":[1,3,5,-1,-1,-1,-1],"loss_changes":[1.1925703E2,6.2105988E1,2.8756876E1,0E0,0E0,0E0,0E0],"parents":[2147483647,0,0,1,1,2,2],"right_children":[2,4,6,-1,-1,-1,-1],"split_conditions":[1.95E1,1.95E1,-6.25E0,1.0643558E-3,3.7670466E-3,-2.8563677E-3,-2.614962E-4],"split_indices":[28,80,25,0,0,0,0],"split_type":[0,0,0,0,0,0,0],"sum_hessian":[6.0457627E3,4.2343516E3,1.8114115E3,3.0567747E3,1.1775768E3,6.88398E2,1.1230135E3],"tree_param":{"num_deleted":"0","num_feature":"104","num_nodes":"7","size_leaf_vector":"0"}},{"base_weights":[-8.89556E-2,-2.308603E-1,4.765544E-2,-1.7458051E-1,-4.7208676E-1,-7.549534E-2,1.8703341E-1],"categories":[],"categories_nodes":[],"categories_segments":[],"categories_sizes":[],"default_left":[1,1,1,0,0,0,0],"id":106,"left_children":[1,3,5,-1,-1,-1,-1],"loss_changes":[1.1718872E2,4.0170822E1,5.2890007E1,0E0,0E0,0E0,0E0],"parents":[2147483647,0,0,1,1,2,2],"right_children":[2,4,6,-1,-1,-1,-1],"split_conditions":[1.45E1,2.25E1,5.1750004E-1,-1.7458051E-3,-4.7208676E-3,-7.5495336E-4,1.8703341E-3],"split_indices":[51,80,55,0,0,0,0],"split_type":[0,0,0,0,0,0,0],"sum_hessian":[6.0435293E3,2.9639927E3,3.0795366E3,2.4046865E3,5.59306E2,1.6351864E3,1.4443501E3],"tree_param":{"num_deleted":"0","num_feature":"104","num_nodes":"7","size_leaf_vector":"0"}},{"base_weights":[8.895561E-2,2.3086031E-1,-4.765544E-2,1.7458053E-1,4.720868E-1,7.549535E-2,-1.8703343E-1],"categories":[],"categories_nodes":[],"categories_segments":[],"categories_sizes":[],"default_left":[1,1,1,0,0,0,0],"id":107,"left_children":[1,3,5,-1,-1,-1,-1],"loss_changes":[1.17188736E2,4.0170822E1,5.2890015E1,0E0,0E0,0E0,0E0],"parents":[2147483647,0,0,1,1,2,2],"right_children":[2,4,6,-1,-1,-1,-1],"split_conditions":[1.45E1,2.25E1,5.1750004E-1,1.7458053E-3,4.7208676E-3,7.549535E-4,-1.8703343E-3],"split_indices":[51,80,55,0,0,0,0],"split_type":[0,0,0,0,0,0,0],"sum_hessian":[6.0435293E3,2.9639927E3,3.0795366E3,2.4046868E3,5.59306E2,1.6351864E3,1.4443501E3],"tree_param":{"num_deleted":"0","num_feature":"104","num_nodes":"7","size_leaf_vector":"0"}},{"base_weights":[-8.8104E-2,-1.6190813E-1,1.7191847E-1,3.9418016E-2,-2.3483479E-1,2.0386021E-1,-2.3174264E-1],"categories":[],"categories_nodes":[],"categories_segments":[],"categories_sizes":[],"default_left":[1,1,1,0,0,0,0],"id":108,"left_children":[1,3,5,-1,-1,-1,-1],"loss_changes":[1.1597867E2,6.911376E1,1.7276836E1,0E0,0E0,0E0,0E0],"parents":[2147483647,0,0,1,1,2,2],"right_children":[2,4,6,-1,-1,-1,-1],"split_conditions":[2.35E1,7.5E0,2.75E1,3.9418016E-4,-2.3483478E-3,2.038602E-3,-2.3174263E-3],"split_indices":[51,103,80,0,0,0,0],"split_type":[0,0,0,0,0,0,0],"sum_hessian":[6.041022E3,4.7057354E3,1.3352867E3,1.2514259E3,3.4543093E3,1.237832E3,9.745479E1],"tree_param":{"num_deleted":"0","num_feature":"104","num_nodes":"7","size_leaf_vector":"0"}},{"base_weights":[8.810401E-2,1.6190815E-1,-1.719185E-1,-3.941798E-2,2.348348E-1,-2.0386024E-1,2.317426E-1],"categories":[],"categories_nodes":[],"categories_segments":[],"categories_sizes":[],"default_left":[1,1,1,0,0,0,0],"id":109,"left_children":[1,3,5,-1,-1,-1,-1],"loss_changes":[1.1597868E2,6.911374E1,1.7276844E1,0E0,0E0,0E0,0E0],"parents":[2147483647,0,0,1,1,2,2],"right_children":[2,4,6,-1,-1,-1,-1],"split_conditions":[2.35E1,7.5E0,2.75E1,-3.9417978E-4,2.348348E-3,-2.0386023E-3,2.317426E-3],"split_indices":[51,103,80,0,0,0,0],"split_type":[0,0,0,0,0,0,0],"sum_hessian":[6.041022E3,4.7057354E3,1.3352869E3,1.2514259E3,3.4543093E3,1.237832E3,9.7454796E1],"tree_param":{"num_deleted":"0","num_feature":"104","num_nodes":"7","size_leaf_vector":"0"}},{"base_weights":[-8.725598E-2,5.901944E-3,-2.9145256E-1,-1.9051446E-1,9.573529E-2,-3.4644794E-1,-4.5088463E-2],"categories":[],"categories_nodes":[],"categories_segments":[],"categories_sizes":[],"default_left":[1,1,1,0,0,0,0],"id":110,"left_children":[1,3,5,-1,-1,-1,-1],"loss_changes":[1.1489369E2,7.321861E1,2.5621857E1,0E0,0E0,0E0,0E0],"parents":[2147483647,0,0,1,1,2,2],"right_children":[2,4,6,-1,-1,-1,-1],"split_conditions":[2.85E0,-1.95E0,5.3500004E0,-1.9051445E-3,9.5735287E-4,-3.4644795E-3,-4.508846E-4],"split_indices":[25,77,77,0,0,0,0],"split_type":[0,0,0,0,0,0,0],"sum_hessian":[6.0387847E3,4.147566E3,1.8912188E3,1.301273E3,2.8462932E3,1.5457561E3,3.4546255E2],"tree_param":{"num_deleted":"0","num_feature":"104","num_nodes":"7","size_leaf_vector":"0"}},{"base_weights":[8.725596E-2,-5.9019607E-3,2.914525E-1,1.9051443E-1,-9.5735304E-2,3.464479E-1,4.5088377E-2],"categories":[],"categories_nodes":[],"categories_segments":[],"categories_sizes":[],"default_left":[1,1,1,0,0,0,0],"id":111,"left_children":[1,3,5,-1,-1,-1,-1],"loss_changes":[1.1489367E2,7.321861E1,2.5621872E1,0E0,0E0,0E0,0E0],"parents":[2147483647,0,0,1,1,2,2],"right_children":[2,4,6,-1,-1,-1,-1],"split_conditions":[2.85E0,-1.95E0,5.3500004E0,1.9051443E-3,-9.5735304E-4,3.464479E-3,4.5088376E-4],"split_indices":[25,77,77,0,0,0,0],"split_type":[0,0,0,0,0,0,0],"sum_hessian":[6.0387847E3,4.147566E3,1.8912188E3,1.301273E3,2.8462932E3,1.5457561E3,3.454626E2],"tree_param":{"num_deleted":"0","num_feature":"104","num_nodes":"7","size_leaf_vector":"0"}},{"base_weights":[-8.64176E-2,-1.759896E-1,1.2268871E-1,-1.0249304E-1,-3.6711413E-1,2.8086972E-1,2.5596878E-2],"categories":[],"categories_nodes":[],"categories_segments":[],"categories_sizes":[],"default_left":[1,1,1,0,0,0,0],"id":112,"left_children":[1,3,5,-1,-1,-1,-1],"loss_changes":[1.1310422E2,5.934311E1,2.7809372E1,0E0,0E0,0E0,0E0],"parents":[2147483647,0,0,1,1,2,2],"right_children":[2,4,6,-1,-1,-1,-1],"split_conditions":[1.95E1,1.95E1,-6.25E0,-1.0249304E-3,-3.671141E-3,2.808697E-3,2.5596877E-4],"split_indices":[28,80,25,0,0,0,0],"split_type":[0,0,0,0,0,0,0],"sum_hessian":[6.036491E3,4.2262915E3,1.8102E3,3.0535798E3,1.1727117E3,6.877812E2,1.1224187E3],"tree_param":{"num_deleted":"0","num_feature":"104","num_nodes":"7","size_leaf_vector":"0"}},{"base_weights":[8.641759E-2,1.7598958E-1,-1.2268871E-1,1.0249304E-1,3.671141E-1,-2.8086972E-1,-2.5596866E-2],"categories":[],"categories_nodes":[],"categories_segments":[],"categories_sizes":[],"default_left":[1,1,1,0,0,0,0],"id":113,"left_children":[1,3,5,-1,-1,-1,-1],"loss_changes":[1.131042E2,5.934311E1,2.7809376E1,0E0,0E0,0E0,0E0],"parents":[2147483647,0,0,1,1,2,2],"right_children":[2,4,6,-1,-1,-1,-1],"split_conditions":[1.95E1,1.95E1,-6.25E0,1.0249304E-3,3.6711409E-3,-2.808697E-3,-2.5596865E-4],"split_indices":[28,80,25,0,0,0,0],"split_type":[0,0,0,0,0,0,0],"sum_hessian":[6.036491E3,4.2262915E3,1.8102E3,3.0535798E3,1.1727115E3,6.877812E2,1.1224187E3],"tree_param":{"num_deleted":"0","num_feature":"104","num_nodes":"7","size_leaf_vector":"0"}},{"base_weights":[-8.558678E-2,6.32469E-3,-2.8726208E-1,-1.8763395E-1,9.496679E-2,-3.417372E-1,-4.362401E-2],"categories":[],"categories_nodes":[],"categories_segments":[],"categories_sizes":[],"default_left":[1,1,1,0,0,0,0],"id":114,"left_children":[1,3,5,-1,-1,-1,-1],"loss_changes":[1.11871735E2,7.1312775E1,2.506192E1,0E0,0E0,0E0,0E0],"parents":[2147483647,0,0,1,1,2,2],"right_children":[2,4,6,-1,-1,-1,-1],"split_conditions":[2.85E0,-1.95E0,5.3500004E0,-1.8763394E-3,9.496679E-4,-3.417372E-3,-4.3624008E-4],"split_indices":[25,77,77,0,0,0,0],"split_type":[0,0,0,0,0,0,0],"sum_hessian":[6.03419E3,4.145767E3,1.8884229E3,1.3000338E3,2.8457334E3,1.5430165E3,3.4540628E2],"tree_param":{"num_deleted":"0","num_feature":"104","num_nodes":"7","size_leaf_vector":"0"}},{"base_weights":[8.5586786E-2,-6.3247015E-3,2.872621E-1,1.8763395E-1,-9.49668E-2,3.417372E-1,4.3624096E-2],"categories":[],"categories_nodes":[],"categories_segments":[],"categories_sizes":[],"default_left":[1,1,1,0,0,0,0],"id":115,"left_children":[1,3,5,-1,-1,-1,-1],"loss_changes":[1.1187178E2,7.131278E1,2.506189E1,0E0,0E0,0E0,0E0],"parents":[2147483647,0,0,1,1,2,2],"right_children":[2,4,6,-1,-1,-1,-1],"split_conditions":[2.85E0,-1.95E0,5.3500004E0,1.8763394E-3,-9.4966794E-4,3.417372E-3,4.3624095E-4],"split_indices":[25,77,77,0,0,0,0],"split_type":[0,0,0,0,0,0,0],"sum_hessian":[6.03419E3,4.145767E3,1.8884229E3,1.3000338E3,2.8457334E3,1.5430165E3,3.4540628E2],"tree_param":{"num_deleted":"0","num_feature":"104","num_nodes":"7","size_leaf_vector":"0"}},{"base_weights":[-8.476501E-2,1.3048649E-1,-1.697469E-1,-1.5211731E-2,2.1826673E-1,-3.7397632E-1,-9.843937E-2],"categories":[],"categories_nodes":[],"categories_segments":[],"categories_sizes":[],"default_left":[1,1,1,0,0,0,0],"id":116,"left_children":[1,3,5,-1,-1,-1,-1],"loss_changes":[1.1037811E2,2.1849995E1,6.2958435E1,0E0,0E0,0E0,0E0],"parents":[2147483647,0,0,1,1,2,2],"right_children":[2,4,6,-1,-1,-1,-1],"split_conditions":[-2.45E0,-1.3499999E0,-2.55E0,-1.5211731E-4,2.1826671E-3,-3.739763E-3,-9.843938E-4],"split_indices":[25,77,77,0,0,0,0],"split_type":[0,0,0,0,0,0,0],"sum_hessian":[6.0318594E3,1.707183E3,4.324677E3,6.421556E2,1.0650275E3,1.1181053E3,3.2065713E3],"tree_param":{"num_deleted":"0","num_feature":"104","num_nodes":"7","size_leaf_vector":"0"}},{"base_weights":[8.4765E-2,-1.3048649E-1,1.697469E-1,1.52117135E-2,-2.1826673E-1,3.7397632E-1,9.8439366E-2],"categories":[],"categories_nodes":[],"categories_segments":[],"categories_sizes":[],"default_left":[1,1,1,0,0,0,0],"id":117,"left_children":[1,3,5,-1,-1,-1,-1],"loss_changes":[1.10378105E2,2.1849995E1,6.2958435E1,0E0,0E0,0E0,0E0],"parents":[2147483647,0,0,1,1,2,2],"right_children":[2,4,6,-1,-1,-1,-1],"split_conditions":[-2.45E0,-1.3499999E0,-2.55E0,1.5211714E-4,-2.1826671E-3,3.739763E-3,9.843936E-4],"split_indices":[25,77,77,0,0,0,0],"split_type":[0,0,0,0,0,0,0],"sum_hessian":[6.03186E3,1.7071831E3,4.324677E3,6.421556E2,1.0650275E3,1.1181053E3,3.2065713E3],"tree_param":{"num_deleted":"0","num_feature":"104","num_nodes":"7","size_leaf_vector":"0"}},{"base_weights":[-8.395285E-2,6.7337085E-3,-2.8314438E-1,-1.8396762E-1,9.381302E-2,-3.3710304E-1,-4.221447E-2],"categories":[],"categories_nodes":[],"categories_segments":[],"categories_sizes":[],"default_left":[1,1,1,0,0,0,0],"id":118,"left_children":[1,3,5,-1,-1,-1,-1],"loss_changes":[1.0893454E2,6.884614E1,2.4511902E1,0E0,0E0,0E0,0E0],"parents":[2147483647,0,0,1,1,2,2],"right_children":[2,4,6,-1,-1,-1,-1],"split_conditions":[2.85E0,-1.95E0,5.3500004E0,-1.8396762E-3,9.3813014E-4,-3.3710303E-3,-4.2214472E-4],"split_indices":[25,77,77,0,0,0,0],"split_type":[0,0,0,0,0,0,0],"sum_hessian":[6.0293735E3,4.143785E3,1.8855881E3,1.2986545E3,2.8451309E3,1.5402374E3,3.4535068E2],"tree_param":{"num_deleted":"0","num_feature":"104","num_nodes":"7","size_leaf_vector":"0"}},{"base_weights":[8.3952844E-2,-6.733699E-3,2.8314433E-1,1.8396764E-1,-9.381302E-2,3.37103E-1,4.2214356E-2],"categories":[],"categories_nodes":[],"categories_segments":[],"categories_sizes":[],"default_left":[1,1,1,0,0,0,0],"id":119,"left_children":[1,3,5,-1,-1,-1,-1],"loss_changes":[1.089345E2,6.884615E1,2.4511902E1,0E0,0E0,0E0,0E0],"parents":[2147483647,0,0,1,1,2,2],"right_children":[2,4,6,-1,-1,-1,-1],"split_conditions":[2.85E0,-1.95E0,5.3500004E0,1.8396763E-3,-9.3813014E-4,3.37103E-3,4.2214355E-4],"split_indices":[25,77,77,0,0,0,0],"split_type":[0,0,0,0,0,0,0],"sum_hessian":[6.0293735E3,4.143785E3,1.8855881E3,1.2986545E3,2.8451309E3,1.5402374E3,3.4535068E2],"tree_param":{"num_deleted":"0","num_feature":"104","num_nodes":"7","size_leaf_vector":"0"}},{"base_weights":[-8.31473E-2,-1.5442334E-1,1.6761346E-1,4.0988375E-2,-2.2541802E-1,1.9867085E-1,-2.248491E-1],"categories":[],"categories_nodes":[],"categories_segments":[],"categories_sizes":[],"default_left":[1,1,1,0,0,0,0],"id":120,"left_children":[1,3,5,-1,-1,-1,-1],"loss_changes":[1.0776583E2,6.513494E1,1.6312546E1,0E0,0E0,0E0,0E0],"parents":[2147483647,0,0,1,1,2,2],"right_children":[2,4,6,-1,-1,-1,-1],"split_conditions":[2.35E1,7.5E0,2.75E1,4.0988374E-4,-2.2541801E-3,1.9867085E-3,-2.248491E-3],"split_indices":[51,103,80,0,0,0,0],"split_type":[0,0,0,0,0,0,0],"sum_hessian":[6.0270054E3,4.6933545E3,1.333651E3,1.2508453E3,3.442509E3,1.2363099E3,9.734114E1],"tree_param":{"num_deleted":"0","num_feature":"104","num_nodes":"7","size_leaf_vector":"0"}},{"base_weights":[8.314731E-2,1.5442334E-1,-1.6761346E-1,-4.0988382E-2,2.2541803E-1,-1.9867085E-1,2.2484912E-1],"categories":[],"categories_nodes":[],"categories_segments":[],"categories_sizes":[],"default_left":[1,1,1,0,0,0,0],"id":121,"left_children":[1,3,5,-1,-1,-1,-1],"loss_changes":[1.0776584E2,6.5134926E1,1.6312553E1,0E0,0E0,0E0,0E0],"parents":[2147483647,0,0,1,1,2,2],"right_children":[2,4,6,-1,-1,-1,-1],"split_conditions":[2.35E1,7.5E0,2.75E1,-4.098838E-4,2.2541804E-3,-1.9867085E-3,2.2484912E-3],"split_indices":[51,103,80,0,0,0,0],"split_type":[0,0,0,0,0,0,0],"sum_hessian":[6.0270054E3,4.6933545E3,1.3336511E3,1.2508453E3,3.442509E3,1.2363099E3,9.734114E1],"tree_param":{"num_deleted":"0","num_feature":"104","num_nodes":"7","size_leaf_vector":"0"}},{"base_weights":[-8.23482E-2,-1.8561266E-1,8.8824466E-2,3.3764592E-3,-2.572227E-1,2.671602E-1,8.732611E-3],"categories":[],"categories_nodes":[],"categories_segments":[],"categories_sizes":[],"default_left":[1,1,1,0,0,0,0],"id":122,"left_children":[1,3,5,-1,-1,-1,-1],"loss_changes":[1.06526825E2,5.086905E1,3.239212E1,0E0,0E0,0E0,0E0],"parents":[2147483647,0,0,1,1,2,2],"right_children":[2,4,6,-1,-1,-1,-1],"split_conditions":[1.75E1,7.5E0,-6.3500004E0,3.376459E-5,-2.572227E-3,2.671602E-3,8.732611E-5],"split_indices":[27,103,25,0,0,0,0],"split_type":[0,0,0,0,0,0,0],"sum_hessian":[6.0246846E3,3.75768E3,2.2670046E3,1.032835E3,2.724845E3,7.01866E2,1.5651385E3],"tree_param":{"num_deleted":"0","num_feature":"104","num_nodes":"7","size_leaf_vector":"0"}},{"base_weights":[8.2348205E-2,1.8561266E-1,-8.8824466E-2,-3.3764192E-3,2.572227E-1,-2.671602E-1,-8.732599E-3],"categories":[],"categories_nodes":[],"categories_segments":[],"categories_sizes":[],"default_left":[1,1,1,0,0,0,0],"id":123,"left_children":[1,3,5,-1,-1,-1,-1],"loss_changes":[1.0652681E2,5.086902E1,3.2392128E1,0E0,0E0,0E0,0E0],"parents":[2147483647,0,0,1,1,2,2],"right_children":[2,4,6,-1,-1,-1,-1],"split_conditions":[1.75E1,7.5E0,-6.3500004E0,-3.376419E-5,2.572227E-3,-2.671602E-3,-8.732599E-5],"split_indices":[27,103,25,0,0,0,0],"split_type":[0,0,0,0,0,0,0],"sum_hessian":[6.0246846E3,3.75768E3,2.2670046E3,1.032835E3,2.724845E3,7.01866E2,1.5651385E3],"tree_param":{"num_deleted":"0","num_feature":"104","num_nodes":"7","size_leaf_vector":"0"}},{"base_weights":[-8.155714E-2,7.566451E-3,-2.776E-1,-1.8055439E-1,9.33981E-2,-3.3047277E-1,-4.213806E-2],"categories":[],"categories_nodes":[],"categories_segments":[],"categories_sizes":[],"default_left":[1,1,1,0,0,0,0],"id":124,"left_children":[1,3,5,-1,-1,-1,-1],"loss_changes":[1.0524173E2,6.6893555E1,2.3422363E1,0E0,0E0,0E0,0E0],"parents":[2147483647,0,0,1,1,2,2],"right_children":[2,4,6,-1,-1,-1,-1],"split_conditions":[2.85E0,-1.95E0,5.3500004E0,-1.8055439E-3,9.33981E-4,-3.3047276E-3,-4.2138057E-4],"split_indices":[25,77,77,0,0,0,0],"split_type":[0,0,0,0,0,0,0],"sum_hessian":[6.022316E3,4.1408115E3,1.8815045E3,1.2970057E3,2.8438057E3,1.5361581E3,3.453465E2],"tree_param":{"num_deleted":"0","num_feature":"104","num_nodes":"7","size_leaf_vector":"0"}},{"base_weights":[8.1557125E-2,-7.5664585E-3,2.7759996E-1,1.8055438E-1,-9.339811E-2,3.3047274E-1,4.213806E-2],"categories":[],"categories_nodes":[],"categories_segments":[],"categories_sizes":[],"default_left":[1,1,1,0,0,0,0],"id":125,"left_children":[1,3,5,-1,-1,-1,-1],"loss_changes":[1.0524173E2,6.689355E1,2.3422348E1,0E0,0E0,0E0,0E0],"parents":[2147483647,0,0,1,1,2,2],"right_children":[2,4,6,-1,-1,-1,-1],"split_conditions":[2.85E0,-1.95E0,5.3500004E0,1.8055437E-3,-9.339811E-4,3.3047274E-3,4.2138057E-4],"split_indices":[25,77,77,0,0,0,0],"split_type":[0,0,0,0,0,0,0],"sum_hessian":[6.022316E3,4.1408115E3,1.8815045E3,1.2970059E3,2.8438057E3,1.536158E3,3.453465E2],"tree_param":{"num_deleted":"0","num_feature":"104","num_nodes":"7","size_leaf_vector":"0"}},{"base_weights":[-8.077521E-2,8.142355E-2,-1.8675879E-1,2.4829392E-1,5.064474E-3,-3.5789782E-1,-1.0537749E-1],"categories":[],"categories_nodes":[],"categories_segments":[],"categories_sizes":[],"default_left":[1,1,1,0,0,0,0],"id":126,"left_children":[1,3,5,-1,-1,-1,-1],"loss_changes":[1.0351703E2,3.032629E1,5.068344E1,0E0,0E0,0E0,0E0],"parents":[2147483647,0,0,1,1,2,2],"right_children":[2,4,6,-1,-1,-1,-1],"split_conditions":[4.6850002E-1,-6.25E0,-1.45E0,2.482939E-3,5.064474E-5,-3.5789781E-3,-1.0537748E-3],"split_indices":[3,25,77,0,0,0,0],"split_type":[0,0,0,0,0,0,0],"sum_hessian":[6.0199067E3,2.379112E3,3.6407947E3,7.461878E2,1.6329241E3,1.1722465E3,2.4685483E3],"tree_param":{"num_deleted":"0","num_feature":"104","num_nodes":"7","size_leaf_vector":"0"}},{"base_weights":[8.077521E-2,-8.142355E-2,1.8675879E-1,-2.4829392E-1,-5.064471E-3,3.5789785E-1,1.0537749E-1],"categories":[],"categories_nodes":[],"categories_segments":[],"categories_sizes":[],"default_left":[1,1,1,0,0,0,0],"id":127,"left_children":[1,3,5,-1,-1,-1,-1],"loss_changes":[1.0351702E2,3.032629E1,5.068344E1,0E0,0E0,0E0,0E0],"parents":[2147483647,0,0,1,1,2,2],"right_children":[2,4,6,-1,-1,-1,-1],"split_conditions":[4.6850002E-1,-6.25E0,-1.45E0,-2.482939E-3,-5.064471E-5,3.5789784E-3,1.0537748E-3],"split_indices":[3,25,77,0,0,0,0],"split_type":[0,0,0,0,0,0,0],"sum_hessian":[6.0199067E3,2.379112E3,3.6407947E3,7.461878E2,1.6329241E3,1.1722465E3,2.4685483E3],"tree_param":{"num_deleted":"0","num_feature":"104","num_nodes":"7","size_leaf_vector":"0"}},{"base_weights":[-8.000102E-2,7.837934E-3,-2.7344888E-1,-1.7794798E-1,9.253915E-2,-3.2581154E-1,-4.067747E-2],"categories":[],"categories_nodes":[],"categories_segments":[],"categories_sizes":[],"default_left":[1,1,1,0,0,0,0],"id":128,"left_children":[1,3,5,-1,-1,